-0,005; 0,000; 0,000; 0,000; 0,000; 0,000; 0,000; 0,000; 0,000; -0,000; -0,000; -0,000; -0,000; 0,000; 0,000; -0,000; -0,000; -0,000; -0,000; -0,000; -0,000; -0,000; -0,000; -0,000; 0,000; 0,000; 0,000; 0,000; 0,000; 0,000; 0,000; 0,000; 0,000; 0,000; 0,000; 0,000; 0,000; 0,000; 0,000; 0,000; 0,000; 0,000; 0,000; 0,000; 0,000; 0,000; 0,000; 0,000; 0,000; 0,000; 0,000; 0,000; -0,000; 0,000; 0,000; 0,000; 0,000; 0,000; 0,000; 0,000; 0,000; 0,000; 0,000; 0,000; 0,000; 0,000; 0,000; 0,000; 0,000; 0,000; 0,000; 0,000; 0,000; 0,000; 0,000; -0,000; 0,000; 0,000; 0,000; -0,000; -0,000; -0,000; -0,000; -0,000; -0,000; -0,000; -0,000; 0,000; 0,000; 0,000; 0,000; 0,000; 0,000; 0,000; 0,000; 0,000; 0,000; 0,000; 0,000; 0,000; 0,000; 0,000; 0,000; 0,000; 0,000; 0,000; -0,000; -0,000; -0,000; -0,000; -0,000; -0,000; -0,000; -0,000; -0,000; -0,000; -0,000; -0,000; 0,000; 0,000; 0,000; 0,000; 0,000; 0,000; 0,000; 0,000; -0,000; 0,000; 0,000; 0,000; 0,000; 0,000; 0,000; 0,000; 0,000; 0,000; 0,000; -0,000; -0,000; -0,000; -0,000; -0,000; -0,000; -0,000; -0,000; -0,000; -0,000; -0,000; -0,000; -0,000; 0,000; 0,000; 0,000; 0,000; 0,000; 0,000; 0,000; 0,000; 0,000; 0,000; 0,000; 0,000; 0,000; 0,000; 0,000; 0,000; 0,000; 0,000; 0,000; -0,000; -0,000; -0,000; -0,000; -0,000; -0,000; -0,000; -0,000; -0,000; -0,000; -0,000; -0,000; -0,000; -0,000; 0,000; 0,000; 0,000; 0,000; 0,000; 0,000; 0,000; 0,000; 0,000; 0,000; 0,000; 0,000; 0,000; 0,000; 0,000; 0,000; 0,000; -0,000; -0,000; -0,000; -0,000; -0,000; -0,000; -0,000; -0,000; -0,000; -0,000; -0,000; -0,000; -0,000; -0,000; -0,000; -0,000; -0,000; -0,000; -0,000; -0,000; 0,000; 0,000; -0,000; 0,000; -0,000; 0,000; 0,000; 0,000; 0,000; 0,000; 0,000; 0,000; -0,000; -0,000; -0,000; -0,000; -0,000; -0,000; -0,000; -0,000; -0,000; -0,000; -0,000; -0,000; -0,000; -0,000; -0,000; -0,000; -0,000; 0,000; 0,000; 0,000; 0,000; -0,000; -0,000; 0,000; 0,000; 0,000; 0,000; 0,000; 0,000; -0,000; -0,000; -0,000; -0,000; -0,000; -0,000; -0,000; -0,000; -0,000; -0,000; -0,000; -0,000; -0,000; -0,000; -0,000; -0,000; -0,000; -0,000; -0,000; -0,000; 0,000; 0,000; 0,000; 0,000; 0,000; 0,000; 0,000; 0,000; 0,000; 0,000; 0,000; 0,000; -0,000; -0,000; -0,000; -0,000; -0,000; -0,000; -0,000; -0,000; -0,000; -0,000; -0,000; -0,000; -0,000; -0,000; -0,000; -0,000; -0,000; -0,000; -0,000; -0,000; -0,000; 0,000; 0,000; 0,000; 0,000; 0,000; 0,000; 0,000; 0,000; 0,000; 0,000; 0,000; -0,000; -0,000; -0,000; -0,000; -0,000; -0,000; -0,000; -0,000; -0,000; -0,000; -0,000; -0,000; -0,000; -0,000; -0,000; -0,000; -0,000; -0,000; -0,000; -0,000; -0,000; 0,000; 0,000; 0,000; 0,000; 0,000; 0,000; 0,000; 0,000; 0,000; 0,000; 0,000; 0,000; -0,000; 0,000; -0,000; -0,000; -0,000; -0,000; -0,000; -0,000; -0,000; -0,000; -0,000; -0,000; -0,000; -0,000; -0,000; -0,000; -0,000; -0,000; 0,000; 0,000; 0,000; 0,000; 0,000; 0,000; 0,000; 0,000; 0,000; 0,000; 0,000; 0,000; 0,000; 0,000; 0,000; -0,000; 0,000; 0,000; -0,000; -0,000; -0,000; -0,000; -0,000; -0,000; -0,000; -0,000; -0,000; -0,000; -0,000; -0,000; -0,000; -0,000; 0,000; 0,000; 0,000; 0,000; 0,000; 0,000; 0,000; 0,000; 0,000; 0,000; 0,000; 0,000; 0,000; 0,000; 0,000; 0,000; 0,000; 0,000; -0,000; -0,000; -0,000; -0,000; -0,000; -0,000; -0,000; -0,000; -0,000; -0,000; -0,000; -0,000; -0,000; -0,000; 0,000; 0,000; 0,000; 0,000; 0,000; 0,000; 0,000; 0,000; 0,000; 0,000; 0,000; 0,000; 0,000; 0,000; 0,000; 0,000; 0,000; 0,000; -0,000; -0,000; -0,000; -0,000; -0,000; -0,000; -0,000; -0,000; -0,000; -0,000; -0,000; -0,000; -0,000; 0,000; 0,000; 0,000; 0,000; 0,000; 0,000; 0,000; 0,000; 0,000; 0,000; 0,000; 0,000; 0,000; 0,000; 0,000; 0,000; 0,000; 0,000; 0,000; 0,000; -0,000; -0,000; -0,000; -0,000; -0,000; -0,000; -0,000; -0,000; -0,000; -0,000; 0,000; 0,000; 0,000; 0,000; 0,000; 0,000; 0,000; 0,000; 0,000; 0,000; 0,000; 0,000; -0,000; 0,000; 0,000; 0,000; 0,000; 0,000; 0,000; 0,000; 0,000; 0,000; 0,000; 0,000; -0,000; -0,000; -0,000; -0,000; -0,000; -0,000; -0,000; -0,000; -0,000; 0,000; 0,000; 0,000; 0,000; 0,000; 0,000; 0,000; 0,000; 0,000; 0,000; 0,000; 0,000; 0,000; 0,000; 0,000; 0,000; 0,000; 0,000; 0,000; 0,000; 0,000; 0,000; -0,000; -0,000; -0,000; -0,000; -0,000; -0,000; -0,000; -0,000; -0,000; -0,000; -0,000; 0,000; 0,000; 0,000; 0,000; 0,000; 0,000; 0,000; 0,000; 0,000; -0,000; 0,000; 0,000; 0,000; 0,000; 0,000; 0,000; 0,000; 0,000; 0,000; 0,000; -0,000; -0,000; -0,000; -0,000; -0,000; -0,000; -0,000; -0,000; -0,000; -0,000; -0,000; -0,000; 0,000; -0,000; -0,000; 0,000; 0,000; 0,000; 0,000; 0,000; 0,000; 0,000; 0,000; 0,000; 0,000; 0,000; -0,000; 0,000; 0,000; 0,000; -0,000; -0,000; -0,000; -0,000; -0,000; -0,000; -0,000; -0,000; -0,000; -0,000; -0,000; -0,000; -0,000; -0,000; -0,000; -0,000; 0,000; 0,000; 0,000; 0,000; 0,000; 0,000; 0,000; 0,000; 0,000; 0,000; 0,000; 0,000; -0,000; 0,000; 0,000; 0,000; -0,000; -0,000; -0,000; -0,000; -0,000; -0,000; -0,000; -0,000; -0,000; -0,000; -0,000; -0,000; -0,000; -0,000; -0,000; -0,000; -0,000; -0,000; -0,000; -0,000; 0,000; 0,000; 0,000; 0,000; 0,000; 0,000; 0,000; 0,000; 0,000; 0,000; 0,000; -0,000; -0,000; -0,000; -0,000; -0,000; -0,000; -0,000; -0,000; -0,000; -0,000; -0,000; -0,000; -0,000; -0,000; -0,000; -0,000; -0,000; -0,000; -0,000; -0,000; -0,000; 0,000; 0,000; 0,000; 0,000; 0,000; 0,000; 0,000; 0,000; 0,000; 0,000; -0,000; -0,000; -0,000; -0,000; -0,000; -0,000; -0,000; -0,000; -0,000; -0,000; -0,000; -0,000; -0,000; -0,000; -0,000; -0,000; -0,000; -0,000; -0,000; -0,000; -0,000; 0,000; 0,000; 0,000; 0,000; 0,000; 0,000; 0,000; 0,000; 0,000; 0,000; 0,000; -0,000; -0,000; -0,000; -0,000; -0,000; -0,000; -0,000; -0,000; -0,000; -0,000; -0,000; -0,000; -0,000; -0,000; -0,000; -0,000; -0,000; -0,000; -0,000; -0,000; -0,000; -0,000; 0,000; 0,000; 0,000; 0,000; 0,000; 0,000; 0,000; 0,000; 0,000; -0,000; -0,000; -0,000; -0,000; -0,000; -0,000; -0,000; -0,000; -0,000; -0,000; -0,000; -0,000; -0,000; -0,000; -0,000; -0,000; -0,000; -0,000; -0,000; -0,000; -0,000; -0,000; -0,000; 0,000; 0,000; 0,000; 0,000; 0,000; 0,000; 0,000; 0,000; -0,000; -0,000; -0,000; -0,000; -0,000; -0,000; -0,000; -0,000; -0,000; -0,000; -0,000; -0,000; -0,000; -0,000; -0,000; -0,000; -0,000; -0,000; -0,000; -0,000; -0,000; -0,000; -0,000; -0,000; 0,000; 0,000; 0,000; 0,000; 0,000; 0,000; 0,000; 0,000; -0,000; -0,000; -0,000; -0,000; -0,000; -0,000; -0,000; -0,000; -0,000; -0,000; -0,000; -0,000; -0,000; -0,000; -0,000; -0,000; -0,000; -0,000; -0,000; -0,000; -0,000; -0,000; -0,000; -0,000; 0,000; 0,000; 0,000; 0,000; 0,000; 0,000; 0,000; 0,000; -0,000; -0,000; -0,000; -0,000; -0,000; -0,000; -0,000; -0,000; -0,000; -0,000; -0,000; -0,000; -0,000; -0,000; -0,000; -0,000; -0,000; -0,000; -0,000; -0,000; -0,000; -0,000; -0,000; -0,000; 0,000; 0,000; 0,000; 0,000; 0,000; 0,000; 0,000; 0,000; -0,000; -0,000; -0,000; -0,000; -0,000; -0,000; -0,000; -0,000; -0,000; -0,000; -0,000; -0,000; -0,000; -0,000; -0,000; -0,000; -0,000; -0,000; -0,000; -0,000; -0,000; -0,000; -0,000; -0,000; -0,000; 0,000; 0,000; 0,000; 0,000; 0,000; 0,000; 0,000; 0,000; 0,000; 0,000; -0,000; -0,000; -0,000; -0,000; -0,000; -0,000; -0,000; -0,000; -0,000; -0,000; -0,000; -0,000; -0,000; -0,000; -0,000; 0,000; 0,000; -0,000; -0,000; 0,000; 0,000; 0,000; 0,000; 0,000; 0,000; 0,000; 0,000; 0,000; 0,000; 0,000; 0,000; 0,000; 0,000; -0,000; -0,000; -0,000; -0,000; -0,000; -0,000; -0,000; -0,000; 0,000; -0,000; 0,000; 0,000; -0,000; 0,000; 0,000; 0,000; 0,000; 0,000; 0,000; 0,000; 0,000; 0,000; 0,000; 0,000; 0,000; 0,000; 0,000; 0,000; -0,000; -0,000; 0,000; 0,000; -0,000; -0,000; -0,000; -0,000; -0,000; -0,000; -0,000; -0,000; -0,000; -0,000; -0,000; -0,000; -0,000; -0,000; -0,000; -0,000; -0,000; -0,000; -0,000; 0,000; 0,000; 0,000; -0,000; 0,000; -0,000; -0,000; -0,000; -0,000; -0,000; -0,000; -0,000; -0,000; -0,000; -0,000; -0,000; -0,000; -0,000; -0,000; -0,000; -0,000; -0,000; -0,000; -0,000; -0,000; -0,000; -0,000; -0,000; -0,000; -0,000; -0,000; -0,000; -0,000; -0,000; -0,000; -0,000; -0,000; -0,000; -0,000; -0,000; -0,000; -0,000; -0,000; -0,000; -0,000; -0,000; -0,000; -0,000; -0,000; -0,000; -0,000; -0,000; -0,000; -0,000; -0,000; -0,000; -0,000; -0,000; -0,000; -0,000; -0,000; -0,000; -0,000; -0,000; -0,000; -0,000; -0,000; -0,000; -0,000; -0,000; -0,000; -0,000; -0,000; -0,000; -0,000; -0,000; -0,000; -0,000; -0,000; -0,000; -0,000; -0,000; -0,000; -0,000; -0,000; -0,000; -0,000; -0,000; -0,000; -0,000; -0,000; -0,000; -0,000; -0,000; -0,000; -0,000; 0,000; -0,000; -0,000; -0,000; -0,000; -0,000; -0,000; -0,000; -0,000; -0,000; -0,000; -0,000; 0,000; 0,000; -0,000; -0,000; -0,000; -0,000; -0,000; -0,000; -0,000; -0,000; -0,000; -0,000; -0,000; -0,000; -0,000; 0,000; 0,000; -0,000; -0,000; -0,000; -0,000; -0,000; -0,000; -0,000; -0,000; -0,000; -0,000; -0,000; -0,000; -0,000; -0,000; -0,000; 0,000; 0,000; -0,000; -0,000; -0,000; -0,000; -0,000; -0,000; -0,000; -0,000; -0,000; -0,000; -0,000; -0,000; 0,000; 0,000; 0,000; 0,000; 0,000; -0,000; -0,000; -0,000; -0,000; -0,000; -0,000; -0,000; -0,000; -0,000; -0,000; -0,000; -0,000; 0,000; 0,000; 0,000; 0,000; -0,000; -0,000; 0,000; 0,000; -0,000; -0,000; 0,000; 0,000; 0,000; 0,000; 0,000; 0,000; 0,000; 0,000; 0,000; -0,000; -0,000; -0,000; -0,000; -0,000; -0,000; -0,000; -0,000; -0,000; -0,000; -0,000; -0,000; 0,000; 0,000; 0,000; 0,000; 0,000; -0,000; 0,000; -0,000; -0,000; -0,000; -0,000; 0,000; 0,000; 0,000; 0,000; 0,000; 0,000; 0,000; -0,000; 0,000; -0,000; -0,000; -0,000; -0,000; -0,000; -0,000; -0,000; -0,000; -0,000; -0,000; -0,000; -0,000; -0,000; 0,000; 0,000; 0,000; -0,000; -0,000; 0,000; 0,000; 0,000; -0,000; 0,000; 0,000; 0,000; -0,000; 0,000; 0,000; 0,000; 0,000; 0,000; 0,000; 0,000; -0,000; -0,000; -0,000; -0,000; -0,000; -0,000; -0,000; -0,000; -0,000; -0,000; -0,000; -0,000; 0,000; 0,000; 0,000; 0,000; 0,000; 0,000; 0,000; 0,000; 0,000; 0,000; 0,000; -0,000; -0,000; -0,000; 0,000; -0,000; 0,000; 0,000; 0,000; 0,000; -0,000; -0,000; -0,000; -0,000; -0,000; -0,000; -0,000; -0,000; -0,000; -0,000; -0,000; -0,000; -0,000; 0,000; 0,000; 0,000; 0,000; 0,000; 0,000; 0,000; 0,000; 0,000; 0,000; -0,000; -0,000; -0,000; -0,000; -0,000; 0,000; 0,000; 0,000; 0,000; -0,000; -0,000; -0,000; -0,000; -0,000; -0,000; -0,000; -0,000; -0,000; -0,000; -0,000; -0,000; -0,000; 0,000; 0,000; 0,000; 0,000; 0,000; 0,000; 0,000; 0,000; 0,000; 0,000; 0,000; 0,000; -0,000; -0,000; -0,000; 0,000; 0,000; 0,000; -0,000; -0,000; -0,000; -0,000; -0,000; -0,000; -0,000; -0,000; -0,000; -0,000; -0,000; -0,000; -0,000; -0,000; 0,000; 0,000; 0,000; 0,000; 0,000; 0,000; 0,000; 0,000; 0,000; 0,000; 0,000; 0,000; 0,000; 0,000; 0,000; 0,000; 0,000; 0,000; -0,000; -0,000; -0,000; -0,000; -0,000; -0,000; -0,000; -0,000; -0,000; -0,000; -0,000; -0,000; -0,000; -0,000; 0,000; 0,000; 0,000; 0,000; 0,000; 0,000; 0,000; 0,000; 0,000; 0,000; 0,000; 0,000; 0,000; 0,000; 0,000; 0,000; 0,000; 0,000; -0,000; -0,000; -0,000; -0,000; -0,000; -0,000; -0,000; -0,000; -0,000; -0,000; -0,000; -0,000; -0,000; -0,000; 0,000; 0,000; 0,000; 0,000; 0,000; 0,000; 0,000; 0,000; 0,000; 0,000; 0,000; 0,000; 0,000; 0,000; 0,000; 0,000; 0,000; 0,000; -0,000; -0,000; -0,000; -0,000; -0,000; -0,000; -0,000; -0,000; -0,000; -0,000; -0,000; -0,000; -0,000; -0,000; 0,000; 0,000; 0,000; 0,000; 0,000; 0,000; 0,000; 0,000; 0,000; 0,000; 0,000; 0,000; 0,000; 0,000; 0,000; 0,000; 0,000; -0,000; -0,000; -0,000; -0,000; -0,000; -0,000; -0,000; -0,000; -0,000; -0,000; -0,000; -0,000; -0,000; -0,000; 0,000; 0,000; 0,000; 0,000; 0,000; 0,000; 0,000; 0,000; 0,000; 0,000; 0,000; 0,000; 0,000; 0,000; 0,000; 0,000; 0,000; 0,000; -0,000; -0,000; -0,000; -0,000; -0,000; -0,000; -0,000; -0,000; -0,000; -0,000; -0,000; -0,000; -0,000; -0,000; -0,000; 0,000; 0,000; 0,000; 0,000; 0,000; 0,000; 0,000; 0,000; 0,000; 0,000; 0,000; 0,000; 0,000; 0,000; 0,000; 0,000; 0,000; -0,000; -0,000; -0,000; -0,000; -0,000; -0,000; -0,000; -0,000; -0,000; -0,000; -0,000; -0,000; -0,000; -0,000; -0,000; -0,000; -0,000; 0,000; 0,000; 0,000; -0,000; 0,000; 0,000; 0,000; -0,000; -0,000; -0,000; 0,000; 0,000; 0,000; 0,000; -0,000; -0,000; -0,000; -0,000; -0,000; -0,000; -0,000; -0,000; -0,000; -0,000; -0,000; -0,000; -0,000; -0,000; -0,000; -0,000; -0,000; -0,000; -0,000; -0,000; -0,000; -0,000; -0,000; -0,000; -0,000; -0,000; -0,000; -0,000; -0,000; -0,000; 0,000; -0,000; -0,000; -0,000; -0,000; -0,000; -0,000; -0,000; -0,000; -0,000; -0,000; -0,000; -0,000; -0,000; -0,000; -0,000; -0,000; -0,000; -0,000; -0,000; -0,000; -0,000; -0,000; -0,000; -0,000; -0,000; -0,000; -0,000; -0,000; -0,000; -0,000; -0,000; -0,000; -0,000; -0,000; -0,000; -0,000; -0,000; -0,000; -0,000; -0,000; -0,000; -0,000; -0,000; -0,000; -0,000; -0,000; -0,000; -0,000; -0,000; -0,000; -0,000; -0,000; -0,000; -0,000; -0,000; -0,000; -0,000; -0,000; -0,000; -0,000; -0,000; -0,000; -0,000; -0,000; -0,000; -0,000; -0,000; -0,000; -0,000; -0,000; -0,000; -0,000; -0,000; -0,000; -0,000; -0,000; -0,000; -0,000; -0,000; -0,000; -0,000; -0,000; -0,000; -0,000; -0,000; -0,000; -0,000; -0,000; -0,000; -0,000; -0,000; -0,000; -0,000; -0,000; -0,000; -0,000; -0,000; -0,000; -0,000; -0,000; -0,000; -0,000; -0,000; -0,000; -0,000; -0,000; -0,000; -0,000; -0,000; -0,000; -0,000; 0,000; -0,000; -0,000; -0,000; -0,000; -0,000; -0,000; -0,000; -0,000; -0,000; -0,000; -0,000; -0,000; -0,000; -0,000; -0,000; -0,000; -0,000; -0,000; -0,000; -0,000; -0,000; -0,000; -0,000; -0,000; -0,000; -0,000; -0,000; -0,000; -0,000; -0,000; -0,000; -0,000; -0,000; -0,000; -0,000; -0,000; -0,000; -0,000; -0,000; -0,000; -0,000; -0,000; -0,000; -0,000; -0,000; -0,000; -0,000; -0,000; -0,000; -0,000; -0,000; -0,000; -0,000; -0,000; -0,000; -0,000; -0,000; -0,000; -0,000; -0,000; -0,000; -0,000; -0,000; -0,000; -0,000; -0,000; -0,000; -0,000; -0,000; -0,000; -0,000; -0,000; -0,000; 0,000; 0,000; -0,000; -0,000; -0,000; -0,000; -0,000; -0,000; -0,000; -0,000; -0,000; -0,000; -0,000; -0,000; -0,000; -0,000; -0,000; -0,000; -0,000; -0,000; -0,000; -0,000; -0,000; -0,000; -0,000; -0,000; -0,000; -0,000; -0,000; -0,000; -0,000; -0,000; 0,000; 0,000; -0,000; -0,000; -0,000; -0,000; -0,000; -0,000; -0,000; -0,000; -0,000; -0,000; -0,000; -0,000; -0,000; -0,000; -0,000; -0,000; -0,000; -0,000; -0,000; -0,000; -0,000; -0,000; -0,000; -0,000; -0,000; -0,000; -0,000; -0,000; -0,000; -0,000; 0,000; -0,000; -0,000; -0,000; -0,000; -0,000; -0,000; -0,000; -0,000; -0,000; -0,000; -0,000; -0,000; -0,000; -0,000; -0,000; -0,000; -0,000; 0,000; -0,000; -0,000; -0,000; -0,000; -0,000; -0,000; -0,000; -0,000; -0,000; -0,000; -0,000; -0,000; -0,000; -0,000; -0,000; -0,000; -0,000; -0,000; -0,000; -0,000; -0,000; -0,000; -0,000; -0,000; -0,000; -0,000; -0,000; -0,000; -0,000; -0,000; -0,000; -0,000; -0,000; -0,000; -0,000; -0,000; -0,000; -0,000; -0,000; -0,000; -0,000; -0,000; -0,000; -0,000; -0,000; -0,000; -0,000; -0,000; -0,000; -0,000; -0,000; -0,000; -0,000; -0,000; -0,000; -0,000; -0,000; -0,000; -0,000; -0,000; -0,000; -0,000; -0,000; -0,000; -0,000; -0,000; -0,000; -0,000; -0,000; -0,000; -0,000; -0,000; -0,000; -0,000; -0,000; -0,000; -0,000; -0,000; -0,000; -0,000; -0,000; -0,000; -0,000; -0,000; -0,000; -0,000; -0,000; -0,000; -0,000; -0,000; -0,000; -0,000; -0,000; -0,000; -0,000; -0,000; -0,000; -0,000; -0,000; -0,000; 0,000; -0,000; -0,000; -0,000; -0,000; -0,000; -0,000; -0,000; -0,000; 0,000; 0,000; -0,000; 0,000; 0,000; -0,000; -0,000; -0,000; -0,000; -0,000; -0,000; -0,000; -0,000; -0,000; -0,000; -0,000; -0,000; -0,000; -0,000; -0,000; -0,000; -0,000; -0,000; -0,000; -0,000; -0,000; -0,000; -0,000; -0,000; -0,000; -0,000; -0,000; -0,000; -0,000; -0,000; -0,000; -0,000; -0,000; -0,000; -0,000; -0,000; -0,000; -0,000; -0,000; -0,000; -0,000; -0,000; -0,000; -0,000; 0,000; 0,000; 0,000; 0,000; 0,000; 0,000; 0,000; 0,000; 0,000; 0,000; 0,000; 0,000; 0,000; 0,000; 0,000; 0,000; 0,000; 0,000; 0,000; 0,000; 0,000; 0,000; 0,000; 0,000; 0,000; 0,000; 0,000; 0,000; 0,000; 0,000; 0,000; 0,000; 0,000; 0,000; 0,000; 0,000; 0,000; 0,000; 0,000; 0,000; 0,000; 0,000; 0,000; 0,000; 0,000; 0,000; 0,000; 0,000; 0,000; 0,000; 0,000; 0,000; 0,000; 0,000; 0,000; 0,000; 0,000; 0,000; 0,000; 0,000; 0,000; 0,000; 0,000; 0,000; 0,000; 0,000; 0,000; 0,000; 0,000; 0,000; 0,000; 0,000; 0,000; 0,000; 0,000; 0,000; 0,000; 0,000; 0,000; 0,000; 0,000; 0,000; 0,000; 0,000; 0,000; 0,000; 0,000; 0,000; 0,000; 0,000; 0,000; 0,000; 0,000; 0,000; 0,000; 0,000; 0,000; 0,000; 0,000; 0,000; 0,000; 0,000; 0,000; 0,000; 0,000; 0,000; 0,000; 0,000; 0,000; 0,000; 0,000; 0,000; 0,000; 0,000; 0,000; 0,000; 0,000; 0,000; 0,000; 0,000; 0,000; 0,000; 0,000; 0,000; 0,000; 0,000; 0,000; 0,000; 0,000; 0,000; 0,000; 0,000; 0,000; 0,000; 0,000; 0,000; 0,000; 0,000; 0,000; 0,000; 0,000; 0,000; 0,000; 0,000; 0,000; 0,000; 0,000; 0,000; 0,000; 0,000; 0,000; 0,000; 0,000; 0,000; 0,000; 0,000; 0,000; 0,000; 0,000; 0,000; 0,000; 0,000; 0,000; 0,000; 0,000; 0,000; 0,000; 0,000; 0,000; 0,000; 0,000; 0,000; 0,000; 0,000; 0,000; 0,000; 0,000; 0,000; 0,000; 0,000; 0,000; 0,000; 0,000; 0,000; 0,000; 0,000; 0,000; 0,000; 0,000; 0,000; 0,000; 0,000; 0,000; 0,000; 0,000; 0,000; 0,000; 0,000; 0,000; 0,000; 0,000; 0,000; 0,000; 0,000; 0,000; 0,000; 0,000; 0,000; 0,000; 0,000; 0,000; 0,000; 0,000; 0,000; 0,000; 0,000; 0,000; 0,000; 0,000; 0,000; 0,000; 0,000; 0,000; 0,000; 0,000; 0,000; 0,000; 0,000; 0,000; 0,000; 0,000; 0,000; 0,000; 0,000; 0,000; 0,000; 0,000; 0,000; 0,000; 0,000; 0,000; 0,000; 0,000; 0,000; 0,000; 0,000; 0,000; 0,000; 0,000; 0,000; 0,000; 0,000; 0,000; 0,000; 0,000; 0,000; 0,000; 0,000; 0,000; 0,000; 0,000; 0,000; 0,000; 0,000; 0,000; 0,000; 0,000; 0,000; 0,000; 0,000; 0,000; 0,000; 0,000; 0,000; 0,000; 0,000; 0,000; 0,000; 0,000; 0,000; 0,000; 0,000; 0,000; 0,000; 0,000; 0,000; 0,000; 0,000; 0,000; 0,000; 0,000; 0,000; -0,000; 0,000; 0,000; 0,000; 0,000; 0,000; 0,000; 0,000; 0,000; 0,000; 0,000; 0,000; 0,000; 0,000; 0,000; 0,000; 0,000; 0,000; 0,000; 0,000; 0,000; 0,000; 0,000; 0,000; 0,000; 0,000; 0,000; 0,000; 0,000; 0,000; 0,000; 0,000; -0,000; 0,000; 0,000; 0,000; 0,000; 0,000; 0,000; 0,000; 0,000; 0,000; 0,000; 0,000; 0,000; 0,000; 0,000; 0,000; 0,000; 0,000; 0,000; 0,000; 0,000; 0,000; 0,000; 0,000; -0,000; -0,000; 0,000; 0,000; 0,000; 0,000; 0,000; -0,000; -0,000; -0,000; 0,000; 0,000; 0,000; 0,000; 0,000; 0,000; 0,000; 0,000; 0,000; 0,000; 0,000; 0,000; 0,000; 0,000; 0,000; 0,000; 0,000; 0,000; 0,000; 0,000; 0,000; -0,000; -0,000; -0,000; 0,000; 0,000; 0,000; 0,000; -0,000; -0,000; -0,000; -0,000; 0,000; 0,000; 0,000; 0,000; 0,000; 0,000; 0,000; 0,000; 0,000; 0,000; 0,000; 0,000; 0,000; 0,000; 0,000; 0,000; 0,000; 0,000; 0,000; 0,000; 0,000; 0,000; -0,000; -0,000; 0,000; 0,000; 0,000; 0,000; 0,000; -0,000; -0,000; 0,000; 0,000; 0,000; 0,000; 0,000; 0,000; 0,000; 0,000; 0,000; 0,000; 0,000; 0,000; 0,000; 0,000; 0,000; 0,000; 0,000; 0,000; 0,000; 0,000; 0,000; 0,000; 0,000; -0,000; -0,000; 0,000; 0,000; 0,000; 0,000; 0,000; -0,000; -0,000; 0,000; 0,000; 0,000; 0,000; 0,000; 0,000; 0,000; 0,000; 0,000; 0,000; 0,000; 0,000; 0,000; 0,000; 0,000; 0,000; 0,000; 0,000; 0,000; 0,000; 0,000; 0,000; -0,000; -0,000; -0,000; -0,000; -0,000; 0,000; -0,000; -0,000; -0,000; -0,000; -0,000; 0,000; 0,000; 0,000; 0,000; 0,000; 0,000; 0,000; 0,000; 0,000; 0,000; 0,000; 0,000; 0,000; 0,000; 0,000; 0,000; 0,000; 0,000; 0,000; 0,000; 0,000; -0,000; -0,000; -0,000; -0,000; -0,000; -0,000; -0,000; -0,000; -0,000; -0,000; -0,000; 0,000; 0,000; 0,000; 0,000; 0,000; 0,000; 0,000; 0,000; 0,000; 0,000; 0,000; 0,000; 0,000; 0,000; 0,000; 0,000; 0,000; 0,000; 0,000; 0,000; 0,000; 0,000; 0,000; 0,000; -0,000; 0,000; -0,000; -0,000; -0,000; 0,000; 0,000; 0,000; 0,000; 0,000; 0,000; 0,000; 0,000; 0,000; 0,000; 0,000; 0,000; 0,000; 0,000; 0,000; 0,000; 0,000; 0,000; 0,000; 0,000; 0,000; 0,000; 0,000; 0,000; 0,000; 0,000; -0,000; -0,000; -0,000; 0,000; 0,000; 0,000; 0,000; -0,000; -0,000; 0,000; 0,000; 0,000; 0,000; 0,000; 0,000; 0,000; 0,000; 0,000; 0,000; 0,000; 0,000; 0,000; 0,000; 0,000; 0,000; 0,000; 0,000; 0,000; 0,000; 0,000; 0,000; -0,000; -0,000; -0,000; -0,000; 0,000; 0,000; 0,000; -0,000; -0,000; 0,000; 0,000; 0,000; 0,000; 0,000; 0,000; 0,000; 0,000; 0,000; 0,000; 0,000; 0,000; 0,000; 0,000; 0,000; 0,000; 0,000; 0,000; 0,000; 0,000; 0,000; 0,000; 0,000; 0,000; 0,000; -0,000; -0,000; 0,000; 0,000; 0,000; 0,000; -0,000; 0,000; 0,000; 0,000; 0,000; 0,000; 0,000; 0,000; 0,000; 0,000; 0,000; -0,000; -0,000; -0,000; 0,000; 0,000; 0,000; 0,000; 0,000; 0,000; 0,000; 0,000; 0,000; 0,000; 0,000; 0,000; 0,000; 0,000; 0,000; 0,000; 0,000; 0,000; 0,000; 0,000; 0,000; 0,000; 0,000; 0,000; 0,000; 0,000; 0,000; 0,000; 0,000; -0,000; -0,000; -0,000; -0,000; 0,000; 0,000; 0,000; 0,000; 0,000; 0,000; 0,000; 0,000; 0,000; 0,000; 0,000; 0,000; 0,000; 0,000; 0,000; 0,000; 0,000; 0,000; 0,000; 0,000; 0,000; 0,000; 0,000; 0,000; 0,000; 0,000; 0,000; 0,000; 0,000; 0,000; 0,000; 0,000; 0,000; 0,000; 0,000; 0,000; 0,000; 0,000; 0,000; 0,000; 0,000; 0,000; 0,000; 0,000; 0,000; 0,000; 0,000; 0,000; 0,000; 0,000; 0,000; 0,000; 0,000; 0,000; 0,000; 0,000; 0,000; 0,000; 0,000; 0,000; 0,000; 0,000; 0,000; 0,000; 0,000; 0,000; 0,000; 0,000; 0,000; 0,000; 0,000; 0,000; 0,000; 0,000; 0,000; 0,000; 0,000; 0,000; 0,000; 0,000; 0,000; 0,000; 0,000; 0,000; 0,000; 0,000; 0,000; 0,000; 0,000; 0,000; 0,000; 0,000; 0,000; 0,000; 0,000; 0,000; 0,000; 0,000; 0,000; 0,000; 0,000; 0,000; 0,000; 0,000; 0,000; 0,000; 0,000; 0,000; 0,000; 0,000; 0,000; 0,000; 0,000; -0,000; 0,000; 0,000; 0,000; 0,000; 0,000; 0,000; 0,000; 0,000; 0,000; 0,000; 0,000; 0,000; 0,000; 0,000; 0,000; 0,000; 0,000; 0,000; 0,000; 0,000; 0,000; 0,000; 0,000; 0,000; 0,000; 0,000; 0,000; 0,000; 0,000; 0,000; 0,000; -0,000; -0,000; 0,000; 0,000; 0,000; 0,000; 0,000; 0,000; 0,000; 0,000; 0,000; 0,000; 0,000; 0,000; 0,000; 0,000; 0,000; 0,000; 0,000; 0,000; 0,000; 0,000; 0,000; 0,000; 0,000; 0,000; 0,000; 0,000; 0,000; 0,000; 0,000; 0,000; 0,000; 0,000; 0,000; 0,000; 0,000; 0,000; 0,000; 0,000; 0,000; 0,000; 0,000; 0,000; 0,000; 0,000; 0,000; 0,000; 0,000; 0,000; 0,000; 0,000; 0,000; 0,000; 0,000; 0,000; 0,000; 0,000; 0,000; 0,000; 0,000; 0,000; 0,000; 0,000; 0,000; 0,000; 0,000; 0,000; 0,000; 0,000; 0,000; 0,000; 0,000; 0,000; 0,000; 0,000; 0,000; 0,000; 0,000; 0,000; 0,000; 0,000; 0,000; 0,000; 0,000; 0,000; 0,000; 0,000; 0,000; 0,000; 0,000; 0,000; 0,000; 0,000; 0,000; 0,000; 0,000; 0,000; 0,000; 0,000; 0,000; 0,000; 0,000; 0,000; 0,000; 0,000; 0,000; 0,000; 0,000; 0,000; 0,000; 0,000; 0,000; 0,000; 0,000; 0,000; 0,000; 0,000; 0,000; 0,000; 0,000; 0,000; 0,000; 0,000; 0,000; 0,000; 0,000; 0,000; 0,000; 0,000; 0,000; 0,000; 0,000; 0,000; 0,000; 0,000; 0,000; 0,000; 0,000; 0,000; 0,000; 0,000; 0,000; 0,000; 0,000; 0,000; 0,000; 0,000; 0,000; 0,000; 0,000; 0,000; 0,000; 0,000; 0,000; 0,000; 0,000; 0,000; 0,000; 0,000; 0,000; 0,000; 0,000; 0,000; 0,000; 0,000; 0,000; 0,000; 0,000; 0,000; 0,000; 0,000; 0,000; 0,000; 0,000; 0,000; 0,000; 0,000; 0,000; 0,000; 0,000; 0,000; 0,000; 0,000; 0,000; 0,000; 0,000; 0,000; -0,005; 0,000; 0,000; 0,000; 0,000; 0,000; 0,000; 0,000; 0,000; -0,000; -0,000; -0,000; -0,000; 0,000; 0,000; -0,000; -0,000; -0,000; -0,000; -0,000; -0,000; -0,000; -0,000; -0,000; 0,000; 0,000; 0,000; 0,000; 0,000; 0,000; 0,000; 0,000; 0,000; 0,000; 0,000; 0,000; 0,000; 0,000; 0,000; 0,000; 0,000; 0,000; 0,000; 0,000; 0,000; 0,000; 0,000; 0,000; 0,000; 0,000; 0,000; 0,000; -0,000; 0,000; 0,000; 0,000; 0,000; 0,000; 0,000; 0,000; 0,000; 0,000; 0,000; 0,000; 0,000; 0,000; 0,000; 0,000; 0,000; 0,000; 0,000; 0,000; 0,000; 0,000; 0,000; -0,000; 0,000; 0,000; 0,000; -0,000; -0,000; -0,000; -0,000; -0,000; -0,000; -0,000; -0,000; 0,000; 0,000; 0,000; 0,000; 0,000; 0,000; 0,000; 0,000; 0,000; 0,000; 0,000; 0,000; 0,000; 0,000; 0,000; 0,000; 0,000; 0,000; 0,000; -0,000; -0,000; -0,000; -0,000; -0,000; -0,000; -0,000; -0,000; -0,000; -0,000; -0,000; -0,000; 0,000; 0,000; 0,000; 0,000; 0,000; 0,000; 0,000; 0,000; -0,000; 0,000; 0,000; 0,000; 0,000; 0,000; 0,000; 0,000; 0,000; 0,000; 0,000; -0,000; -0,000; -0,000; -0,000; -0,000; -0,000; -0,000; -0,000; -0,000; -0,000; -0,000; -0,000; -0,000; 0,000; 0,000; 0,000; 0,000; 0,000; 0,000; 0,000; 0,000; 0,000; 0,000; 0,000; 0,000; 0,000; 0,000; 0,000; 0,000; 0,000; 0,000; 0,000; -0,000; -0,000; -0,000; -0,000; -0,000; -0,000; -0,000; -0,000; -0,000; -0,000; -0,000; -0,000; -0,000; -0,000; 0,000; 0,000; 0,000; 0,000; 0,000; 0,000; 0,000; 0,000; 0,000; 0,000; 0,000; 0,000; 0,000; 0,000; 0,000; 0,000; 0,000; -0,000; -0,000; -0,000; -0,000; -0,000; -0,000; -0,000; -0,000; -0,000; -0,000; -0,000; -0,000; -0,000; -0,000; -0,000; -0,000; -0,000; -0,000; -0,000; -0,000; 0,000; 0,000; -0,000; 0,000; -0,000; 0,000; 0,000; 0,000; 0,000; 0,000; 0,000; 0,000; -0,000; -0,000; -0,000; -0,000; -0,000; -0,000; -0,000; -0,000; -0,000; -0,000; -0,000; -0,000; -0,000; -0,000; -0,000; -0,000; -0,000; 0,000; 0,000; 0,000; 0,000; -0,000; -0,000; 0,000; 0,000; 0,000; 0,000; 0,000; 0,000; -0,000; -0,000; -0,000; -0,000; -0,000; -0,000; -0,000; -0,000; -0,000; -0,000; -0,000; -0,000; -0,000; -0,000; -0,000; -0,000; -0,000; -0,000; -0,000; -0,000; 0,000; 0,000; 0,000; 0,000; 0,000; 0,000; 0,000; 0,000; 0,000; 0,000; 0,000; 0,000; -0,000; -0,000; -0,000; -0,000; -0,000; -0,000; -0,000; -0,000; -0,000; -0,000; -0,000; -0,000; -0,000; -0,000; -0,000; -0,000; -0,000; -0,000; -0,000; -0,000; -0,000; 0,000; 0,000; 0,000; 0,000; 0,000; 0,000; 0,000; 0,000; 0,000; 0,000; 0,000; -0,000; -0,000; -0,000; -0,000; -0,000; -0,000; -0,000; -0,000; -0,000; -0,000; -0,000; -0,000; -0,000; -0,000; -0,000; -0,000; -0,000; -0,000; -0,000; -0,000; -0,000; 0,000; 0,000; 0,000; 0,000; 0,000; 0,000; 0,000; 0,000; 0,000; 0,000; 0,000; 0,000; -0,000; 0,000; -0,000; -0,000; -0,000; -0,000; -0,000; -0,000; -0,000; -0,000; -0,000; -0,000; -0,000; -0,000; -0,000; -0,000; -0,000; -0,000; 0,000; 0,000; 0,000; 0,000; 0,000; 0,000; 0,000; 0,000; 0,000; 0,000; 0,000; 0,000; 0,000; 0,000; 0,000; -0,000; 0,000; 0,000; -0,000; -0,000; -0,000; -0,000; -0,000; -0,000; -0,000; -0,000; -0,000; -0,000; -0,000; -0,000; -0,000; -0,000; 0,000; 0,000; 0,000; 0,000; 0,000; 0,000; 0,000; 0,000; 0,000; 0,000; 0,000; 0,000; 0,000; 0,000; 0,000; 0,000; 0,000; 0,000; -0,000; -0,000; -0,000; -0,000; -0,000; -0,000; -0,000; -0,000; -0,000; -0,000; -0,000; -0,000; -0,000; -0,000; 0,000; 0,000; 0,000; 0,000; 0,000; 0,000; 0,000; 0,000; 0,000; 0,000; 0,000; 0,000; 0,000; 0,000; 0,000; 0,000; 0,000; 0,000; -0,000; -0,000; -0,000; -0,000; -0,000; -0,000; -0,000; -0,000; -0,000; -0,000; -0,000; -0,000; -0,000; 0,000; 0,000; 0,000; 0,000; 0,000; 0,000; 0,000; 0,000; 0,000; 0,000; 0,000; 0,000; 0,000; 0,000; 0,000; 0,000; 0,000; 0,000; 0,000; 0,000; -0,000; -0,000; -0,000; -0,000; -0,000; -0,000; -0,000; -0,000; -0,000; -0,000; 0,000; 0,000; 0,000; 0,000; 0,000; 0,000; 0,000; 0,000; 0,000; 0,000; 0,000; 0,000; -0,000; 0,000; 0,000; 0,000; 0,000; 0,000; 0,000; 0,000; 0,000; 0,000; 0,000; 0,000; -0,000; -0,000; -0,000; -0,000; -0,000; -0,000; -0,000; -0,000; -0,000; 0,000; 0,000; 0,000; 0,000; 0,000; 0,000; 0,000; 0,000; 0,000; 0,000; 0,000; 0,000; 0,000; 0,000; 0,000; 0,000; 0,000; 0,000; 0,000; 0,000; 0,000; 0,000; -0,000; -0,000; -0,000; -0,000; -0,000; -0,000; -0,000; -0,000; -0,000; -0,000; -0,000; 0,000; 0,000; 0,000; 0,000; 0,000; 0,000; 0,000; 0,000; 0,000; -0,000; 0,000; 0,000; 0,000; 0,000; 0,000; 0,000; 0,000; 0,000; 0,000; 0,000; -0,000; -0,000; -0,000; -0,000; -0,000; -0,000; -0,000; -0,000; -0,000; -0,000; -0,000; -0,000; 0,000; -0,000; -0,000; 0,000; 0,000; 0,000; 0,000; 0,000; 0,000; 0,000; 0,000; 0,000; 0,000; 0,000; -0,000; 0,000; 0,000; 0,000; -0,000; -0,000; -0,000; -0,000; -0,000; -0,000; -0,000; -0,000; -0,000; -0,000; -0,000; -0,000; -0,000; -0,000; -0,000; -0,000; 0,000; 0,000; 0,000; 0,000; 0,000; 0,000; 0,000; 0,000; 0,000; 0,000; 0,000; 0,000; -0,000; 0,000; 0,000; 0,000; -0,000; -0,000; -0,000; -0,000; -0,000; -0,000; -0,000; -0,000; -0,000; -0,000; -0,000; -0,000; -0,000; -0,000; -0,000; -0,000; -0,000; -0,000; -0,000; -0,000; 0,000; 0,000; 0,000; 0,000; 0,000; 0,000; 0,000; 0,000; 0,000; 0,000; 0,000; -0,000; -0,000; -0,000; -0,000; -0,000; -0,000; -0,000; -0,000; -0,000; -0,000; -0,000; -0,000; -0,000; -0,000; -0,000; -0,000; -0,000; -0,000; -0,000; -0,000; -0,000; 0,000; 0,000; 0,000; 0,000; 0,000; 0,000; 0,000; 0,000; 0,000; 0,000; -0,000; -0,000; -0,000; -0,000; -0,000; -0,000; -0,000; -0,000; -0,000; -0,000; -0,000; -0,000; -0,000; -0,000; -0,000; -0,000; -0,000; -0,000; -0,000; -0,000; -0,000; 0,000; 0,000; 0,000; 0,000; 0,000; 0,000; 0,000; 0,000; 0,000; 0,000; 0,000; -0,000; -0,000; -0,000; -0,000; -0,000; -0,000; -0,000; -0,000; -0,000; -0,000; -0,000; -0,000; -0,000; -0,000; -0,000; -0,000; -0,000; -0,000; -0,000; -0,000; -0,000; -0,000; 0,000; 0,000; 0,000; 0,000; 0,000; 0,000; 0,000; 0,000; 0,000; -0,000; -0,000; -0,000; -0,000; -0,000; -0,000; -0,000; -0,000; -0,000; -0,000; -0,000; -0,000; -0,000; -0,000; -0,000; -0,000; -0,000; -0,000; -0,000; -0,000; -0,000; -0,000; -0,000; 0,000; 0,000; 0,000; 0,000; 0,000; 0,000; 0,000; 0,000; -0,000; -0,000; -0,000; -0,000; -0,000; -0,000; -0,000; -0,000; -0,000; -0,000; -0,000; -0,000; -0,000; -0,000; -0,000; -0,000; -0,000; -0,000; -0,000; -0,000; -0,000; -0,000; -0,000; -0,000; 0,000; 0,000; 0,000; 0,000; 0,000; 0,000; 0,000; 0,000; -0,000; -0,000; -0,000; -0,000; -0,000; -0,000; -0,000; -0,000; -0,000; -0,000; -0,000; -0,000; -0,000; -0,000; -0,000; -0,000; -0,000; -0,000; -0,000; -0,000; -0,000; -0,000; -0,000; -0,000; 0,000; 0,000; 0,000; 0,000; 0,000; 0,000; 0,000; 0,000; -0,000; -0,000; -0,000; -0,000; -0,000; -0,000; -0,000; -0,000; -0,000; -0,000; -0,000; -0,000; -0,000; -0,000; -0,000; -0,000; -0,000; -0,000; -0,000; -0,000; -0,000; -0,000; -0,000; -0,000; 0,000; 0,000; 0,000; 0,000; 0,000; 0,000; 0,000; 0,000; -0,000; -0,000; -0,000; -0,000; -0,000; -0,000; -0,000; -0,000; -0,000; -0,000; -0,000; -0,000; -0,000; -0,000; -0,000; -0,000; -0,000; -0,000; -0,000; -0,000; -0,000; -0,000; -0,000; -0,000; -0,000; 0,000; 0,000; 0,000; 0,000; 0,000; 0,000; 0,000; 0,000; 0,000; 0,000; -0,000; -0,000; -0,000; -0,000; -0,000; -0,000; -0,000; -0,000; -0,000; -0,000; -0,000; -0,000; -0,000; -0,000; -0,000; 0,000; 0,000; -0,000; -0,000; 0,000; 0,000; 0,000; 0,000; 0,000; 0,000; 0,000; 0,000; 0,000; 0,000; 0,000; 0,000; 0,000; 0,000; -0,000; -0,000; -0,000; -0,000; -0,000; -0,000; -0,000; -0,000; 0,000; -0,000; 0,000; 0,000; -0,000; 0,000; 0,000; 0,000; 0,000; 0,000; 0,000; 0,000; 0,000; 0,000; 0,000; 0,000; 0,000; 0,000; 0,000; 0,000; -0,000; -0,000; 0,000; 0,000; -0,000; -0,000; -0,000; -0,000; -0,000; -0,000; -0,000; -0,000; -0,000; -0,000; -0,000; -0,000; -0,000; -0,000; -0,000; -0,000; -0,000; -0,000; -0,000; 0,000; 0,000; 0,000; -0,000; 0,000; -0,000; -0,000; -0,000; -0,000; -0,000; -0,000; -0,000; -0,000; -0,000; -0,000; -0,000; -0,000; -0,000; -0,000; -0,000; -0,000; -0,000; -0,000; -0,000; -0,000; -0,000; -0,000; -0,000; -0,000; -0,000; -0,000; -0,000; -0,000; -0,000; -0,000; -0,000; -0,000; -0,000; -0,000; -0,000; -0,000; -0,000; -0,000; -0,000; -0,000; -0,000; -0,000; -0,000; -0,000; -0,000; -0,000; -0,000; -0,000; -0,000; -0,000; -0,000; -0,000; -0,000; -0,000; -0,000; -0,000; -0,000; -0,000; -0,000; -0,000; -0,000; -0,000; -0,000; -0,000; -0,000; -0,000; -0,000; -0,000; -0,000; -0,000; -0,000; -0,000; -0,000; -0,000; -0,000; -0,000; -0,000; -0,000; -0,000; -0,000; -0,000; -0,000; -0,000; -0,000; -0,000; -0,000; -0,000; -0,000; -0,000; -0,000; -0,000; 0,000; -0,000; -0,000; -0,000; -0,000; -0,000; -0,000; -0,000; -0,000; -0,000; -0,000; -0,000; 0,000; 0,000; -0,000; -0,000; -0,000; -0,000; -0,000; -0,000; -0,000; -0,000; -0,000; -0,000; -0,000; -0,000; -0,000; 0,000; 0,000; -0,000; -0,000; -0,000; -0,000; -0,000; -0,000; -0,000; -0,000; -0,000; -0,000; -0,000; -0,000; -0,000; -0,000; -0,000; 0,000; 0,000; -0,000; -0,000; -0,000; -0,000; -0,000; -0,000; -0,000; -0,000; -0,000; -0,000; -0,000; -0,000; 0,000; 0,000; 0,000; 0,000; 0,000; -0,000; -0,000; -0,000; -0,000; -0,000; -0,000; -0,000; -0,000; -0,000; -0,000; -0,000; -0,000; 0,000; 0,000; 0,000; 0,000; -0,000; -0,000; 0,000; 0,000; -0,000; -0,000; 0,000; 0,000; 0,000; 0,000; 0,000; 0,000; 0,000; 0,000; 0,000; -0,000; -0,000; -0,000; -0,000; -0,000; -0,000; -0,000; -0,000; -0,000; -0,000; -0,000; -0,000; 0,000; 0,000; 0,000; 0,000; 0,000; -0,000; 0,000; -0,000; -0,000; -0,000; -0,000; 0,000; 0,000; 0,000; 0,000; 0,000; 0,000; 0,000; -0,000; 0,000; -0,000; -0,000; -0,000; -0,000; -0,000; -0,000; -0,000; -0,000; -0,000; -0,000; -0,000; -0,000; -0,000; 0,000; 0,000; 0,000; -0,000; -0,000; 0,000; 0,000; 0,000; -0,000; 0,000; 0,000; 0,000; -0,000; 0,000; 0,000; 0,000; 0,000; 0,000; 0,000; 0,000; -0,000; -0,000; -0,000; -0,000; -0,000; -0,000; -0,000; -0,000; -0,000; -0,000; -0,000; -0,000; 0,000; 0,000; 0,000; 0,000; 0,000; 0,000; 0,000; 0,000; 0,000; 0,000; 0,000; -0,000; -0,000; -0,000; 0,000; -0,000; 0,000; 0,000; 0,000; 0,000; -0,000; -0,000; -0,000; -0,000; -0,000; -0,000; -0,000; -0,000; -0,000; -0,000; -0,000; -0,000; -0,000; 0,000; 0,000; 0,000; 0,000; 0,000; 0,000; 0,000; 0,000; 0,000; 0,000; -0,000; -0,000; -0,000; -0,000; -0,000; 0,000; 0,000; 0,000; 0,000; -0,000; -0,000; -0,000; -0,000; -0,000; -0,000; -0,000; -0,000; -0,000; -0,000; -0,000; -0,000; -0,000; 0,000; 0,000; 0,000; 0,000; 0,000; 0,000; 0,000; 0,000; 0,000; 0,000; 0,000; 0,000; -0,000; -0,000; -0,000; 0,000; 0,000; 0,000; -0,000; -0,000; -0,000; -0,000; -0,000; -0,000; -0,000; -0,000; -0,000; -0,000; -0,000; -0,000; -0,000; -0,000; 0,000; 0,000; 0,000; 0,000; 0,000; 0,000; 0,000; 0,000; 0,000; 0,000; 0,000; 0,000; 0,000; 0,000; 0,000; 0,000; 0,000; 0,000; -0,000; -0,000; -0,000; -0,000; -0,000; -0,000; -0,000; -0,000; -0,000; -0,000; -0,000; -0,000; -0,000; -0,000; 0,000; 0,000; 0,000; 0,000; 0,000; 0,000; 0,000; 0,000; 0,000; 0,000; 0,000; 0,000; 0,000; 0,000; 0,000; 0,000; 0,000; 0,000; -0,000; -0,000; -0,000; -0,000; -0,000; -0,000; -0,000; -0,000; -0,000; -0,000; -0,000; -0,000; -0,000; -0,000; 0,000; 0,000; 0,000; 0,000; 0,000; 0,000; 0,000; 0,000; 0,000; 0,000; 0,000; 0,000; 0,000; 0,000; 0,000; 0,000; 0,000; 0,000; -0,000; -0,000; -0,000; -0,000; -0,000; -0,000; -0,000; -0,000; -0,000; -0,000; -0,000; -0,000; -0,000; -0,000; 0,000; 0,000; 0,000; 0,000; 0,000; 0,000; 0,000; 0,000; 0,000; 0,000; 0,000; 0,000; 0,000; 0,000; 0,000; 0,000; 0,000; -0,000; -0,000; -0,000; -0,000; -0,000; -0,000; -0,000; -0,000; -0,000; -0,000; -0,000; -0,000; -0,000; -0,000; 0,000; 0,000; 0,000; 0,000; 0,000; 0,000; 0,000; 0,000; 0,000; 0,000; 0,000; 0,000; 0,000; 0,000; 0,000; 0,000; 0,000; 0,000; -0,000; -0,000; -0,000; -0,000; -0,000; -0,000; -0,000; -0,000; -0,000; -0,000; -0,000; -0,000; -0,000; -0,000; -0,000; 0,000; 0,000; 0,000; 0,000; 0,000; 0,000; 0,000; 0,000; 0,000; 0,000; 0,000; 0,000; 0,000; 0,000; 0,000; 0,000; 0,000; -0,000; -0,000; -0,000; -0,000; -0,000; -0,000; -0,000; -0,000; -0,000; -0,000; -0,000; -0,000; -0,000; -0,000; -0,000; -0,000; -0,000; 0,000; 0,000; 0,000; -0,000; 0,000; 0,000; 0,000; -0,000; -0,000; -0,000; 0,000; 0,000; 0,000; 0,000; -0,000; -0,000; -0,000; -0,000; -0,000; -0,000; -0,000; -0,000; -0,000; -0,000; -0,000; -0,000; -0,000; -0,000; -0,000; -0,000; -0,000; -0,000; -0,000; -0,000; -0,000; -0,000; -0,000; -0,000; -0,000; -0,000; -0,000; -0,000; -0,000; -0,000; 0,000; -0,000; -0,000; -0,000; -0,000; -0,000; -0,000; -0,000; -0,000; -0,000; -0,000; -0,000; -0,000; -0,000; -0,000; -0,000; -0,000; -0,000; -0,000; -0,000; -0,000; -0,000; -0,000; -0,000; -0,000; -0,000; -0,000; -0,000; -0,000; -0,000; -0,000; -0,000; -0,000; -0,000; -0,000; -0,000; -0,000; -0,000; -0,000; -0,000; -0,000; -0,000; -0,000; -0,000; -0,000; -0,000; -0,000; -0,000; -0,000; -0,000; -0,000; -0,000; -0,000; -0,000; -0,000; -0,000; -0,000; -0,000; -0,000; -0,000; -0,000; -0,000; -0,000; -0,000; -0,000; -0,000; -0,000; -0,000; -0,000; -0,000; -0,000; -0,000; -0,000; -0,000; -0,000; -0,000; -0,000; -0,000; -0,000; -0,000; -0,000; -0,000; -0,000; -0,000; -0,000; -0,000; -0,000; -0,000; -0,000; -0,000; -0,000; -0,000; -0,000; -0,000; -0,000; -0,000; -0,000; -0,000; -0,000; -0,000; -0,000; -0,000; -0,000; -0,000; -0,000; -0,000; -0,000; -0,000; -0,000; -0,000; -0,000; -0,000; 0,000; -0,000; -0,000; -0,000; -0,000; -0,000; -0,000; -0,000; -0,000; -0,000; -0,000; -0,000; -0,000; -0,000; -0,000; -0,000; -0,000; -0,000; -0,000; -0,000; -0,000; -0,000; -0,000; -0,000; -0,000; -0,000; -0,000; -0,000; -0,000; -0,000; -0,000; -0,000; -0,000; -0,000; -0,000; -0,000; -0,000; -0,000; -0,000; -0,000; -0,000; -0,000; -0,000; -0,000; -0,000; -0,000; -0,000; -0,000; -0,000; -0,000; -0,000; -0,000; -0,000; -0,000; -0,000; -0,000; -0,000; -0,000; -0,000; -0,000; -0,000; -0,000; -0,000; -0,000; -0,000; -0,000; -0,000; -0,000; -0,000; -0,000; -0,000; -0,000; -0,000; -0,000; 0,000; 0,000; -0,000; -0,000; -0,000; -0,000; -0,000; -0,000; -0,000; -0,000; -0,000; -0,000; -0,000; -0,000; -0,000; -0,000; -0,000; -0,000; -0,000; -0,000; -0,000; -0,000; -0,000; -0,000; -0,000; -0,000; -0,000; -0,000; -0,000; -0,000; -0,000; -0,000; 0,000; 0,000; -0,000; -0,000; -0,000; -0,000; -0,000; -0,000; -0,000; -0,000; -0,000; -0,000; -0,000; -0,000; -0,000; -0,000; -0,000; -0,000; -0,000; -0,000; -0,000; -0,000; -0,000; -0,000; -0,000; -0,000; -0,000; -0,000; -0,000; -0,000; -0,000; -0,000; 0,000; -0,000; -0,000; -0,000; -0,000; -0,000; -0,000; -0,000; -0,000; -0,000; -0,000; -0,000; -0,000; -0,000; -0,000; -0,000; -0,000; -0,000; 0,000; -0,000; -0,000; -0,000; -0,000; -0,000; -0,000; -0,000; -0,000; -0,000; -0,000; -0,000; -0,000; -0,000; -0,000; -0,000; -0,000; -0,000; -0,000; -0,000; -0,000; -0,000; -0,000; -0,000; -0,000; -0,000; -0,000; -0,000; -0,000; -0,000; -0,000; -0,000; -0,000; -0,000; -0,000; -0,000; -0,000; -0,000; -0,000; -0,000; -0,000; -0,000; -0,000; -0,000; -0,000; -0,000; -0,000; -0,000; -0,000; -0,000; -0,000; -0,000; -0,000; -0,000; -0,000; -0,000; -0,000; -0,000; -0,000; -0,000; -0,000; -0,000; -0,000; -0,000; -0,000; -0,000; -0,000; -0,000; -0,000; -0,000; -0,000; -0,000; -0,000; -0,000; -0,000; -0,000; -0,000; -0,000; -0,000; -0,000; -0,000; -0,000; -0,000; -0,000; -0,000; -0,000; -0,000; -0,000; -0,000; -0,000; -0,000; -0,000; -0,000; -0,000; -0,000; -0,000; -0,000; -0,000; -0,000; -0,000; -0,000; 0,000; -0,000; -0,000; -0,000; -0,000; -0,000; -0,000; -0,000; -0,000; 0,000; 0,000; -0,000; 0,000; 0,000; -0,000; -0,000; -0,000; -0,000; -0,000; -0,000; -0,000; -0,000; -0,000; -0,000; -0,000; -0,000; -0,000; -0,000; -0,000; -0,000; -0,000; -0,000; -0,000; -0,000; -0,000; -0,000; -0,000; -0,000; -0,000; -0,000; -0,000; -0,000; -0,000; -0,000; -0,000; -0,000; -0,000; -0,000; -0,000; -0,000; -0,000; -0,000; -0,000; -0,000; -0,000; -0,000; -0,000; -0,000; 0,000; 0,000; 0,000; 0,000; 0,000; 0,000; 0,000; 0,000; 0,000; 0,000; 0,000; 0,000; 0,000; 0,000; 0,000; 0,000; 0,000; 0,000; 0,000; 0,000; 0,000; 0,000; 0,000; 0,000; 0,000; 0,000; 0,000; 0,000; 0,000; 0,000; 0,000; 0,000; 0,000; 0,000; 0,000; 0,000; 0,000; 0,000; 0,000; 0,000; 0,000; 0,000; 0,000; 0,000; 0,000; 0,000; 0,000; 0,000; 0,000; 0,000; 0,000; 0,000; 0,000; 0,000; 0,000; 0,000; 0,000; 0,000; 0,000; 0,000; 0,000; 0,000; 0,000; 0,000; 0,000; 0,000; 0,000; 0,000; 0,000; 0,000; 0,000; 0,000; 0,000; 0,000; 0,000; 0,000; 0,000; 0,000; 0,000; 0,000; 0,000; 0,000; 0,000; 0,000; 0,000; 0,000; 0,000; 0,000; 0,000; 0,000; 0,000; 0,000; 0,000; 0,000; 0,000; 0,000; 0,000; 0,000; 0,000; 0,000; 0,000; 0,000; 0,000; 0,000; 0,000; 0,000; 0,000; 0,000; 0,000; 0,000; 0,000; 0,000; 0,000; 0,000; 0,000; 0,000; 0,000; 0,000; 0,000; 0,000; 0,000; 0,000; 0,000; 0,000; 0,000; 0,000; 0,000; 0,000; 0,000; 0,000; 0,000; 0,000; 0,000; 0,000; 0,000; 0,000; 0,000; 0,000; 0,000; 0,000; 0,000; 0,000; 0,000; 0,000; 0,000; 0,000; 0,000; 0,000; 0,000; 0,000; 0,000; 0,000; 0,000; 0,000; 0,000; 0,000; 0,000; 0,000; 0,000; 0,000; 0,000; 0,000; 0,000; 0,000; 0,000; 0,000; 0,000; 0,000; 0,000; 0,000; 0,000; 0,000; 0,000; 0,000; 0,000; 0,000; 0,000; 0,000; 0,000; 0,000; 0,000; 0,000; 0,000; 0,000; 0,000; 0,000; 0,000; 0,000; 0,000; 0,000; 0,000; 0,000; 0,000; 0,000; 0,000; 0,000; 0,000; 0,000; 0,000; 0,000; 0,000; 0,000; 0,000; 0,000; 0,000; 0,000; 0,000; 0,000; 0,000; 0,000; 0,000; 0,000; 0,000; 0,000; 0,000; 0,000; 0,000; 0,000; 0,000; 0,000; 0,000; 0,000; 0,000; 0,000; 0,000; 0,000; 0,000; 0,000; 0,000; 0,000; 0,000; 0,000; 0,000; 0,000; 0,000; 0,000; 0,000; 0,000; 0,000; 0,000; 0,000; 0,000; 0,000; 0,000; 0,000; 0,000; 0,000; 0,000; 0,000; 0,000; 0,000; 0,000; 0,000; 0,000; 0,000; 0,000; 0,000; 0,000; 0,000; 0,000; 0,000; 0,000; 0,000; 0,000; 0,000; 0,000; 0,000; 0,000; 0,000; 0,000; 0,000; 0,000; 0,000; 0,000; 0,000; 0,000; 0,000; 0,000; 0,000; 0,000; 0,000; 0,000; 0,000; 0,000; 0,000; 0,000; 0,000; 0,000; 0,000; 0,000; 0,000; 0,000; -0,000; 0,000; 0,000; 0,000; 0,000; 0,000; 0,000; 0,000; 0,000; 0,000; 0,000; 0,000; 0,000; 0,000; 0,000; 0,000; 0,000; 0,000; 0,000; 0,000; 0,000; 0,000; 0,000; 0,000; 0,000; 0,000; 0,000; 0,000; 0,000; 0,000; 0,000; 0,000; -0,000; 0,000; 0,000; 0,000; 0,000; 0,000; 0,000; 0,000; 0,000; 0,000; 0,000; 0,000; 0,000; 0,000; 0,000; 0,000; 0,000; 0,000; 0,000; 0,000; 0,000; 0,000; 0,000; 0,000; -0,000; -0,000; 0,000; 0,000; 0,000; 0,000; 0,000; -0,000; -0,000; -0,000; 0,000; 0,000; 0,000; 0,000; 0,000; 0,000; 0,000; 0,000; 0,000; 0,000; 0,000; 0,000; 0,000; 0,000; 0,000; 0,000; 0,000; 0,000; 0,000; 0,000; 0,000; -0,000; -0,000; -0,000; 0,000; 0,000; 0,000; 0,000; -0,000; -0,000; -0,000; -0,000; 0,000; 0,000; 0,000; 0,000; 0,000; 0,000; 0,000; 0,000; 0,000; 0,000; 0,000; 0,000; 0,000; 0,000; 0,000; 0,000; 0,000; 0,000; 0,000; 0,000; 0,000; 0,000; -0,000; -0,000; 0,000; 0,000; 0,000; 0,000; 0,000; -0,000; -0,000; 0,000; 0,000; 0,000; 0,000; 0,000; 0,000; 0,000; 0,000; 0,000; 0,000; 0,000; 0,000; 0,000; 0,000; 0,000; 0,000; 0,000; 0,000; 0,000; 0,000; 0,000; 0,000; 0,000; -0,000; -0,000; 0,000; 0,000; 0,000; 0,000; 0,000; -0,000; -0,000; 0,000; 0,000; 0,000; 0,000; 0,000; 0,000; 0,000; 0,000; 0,000; 0,000; 0,000; 0,000; 0,000; 0,000; 0,000; 0,000; 0,000; 0,000; 0,000; 0,000; 0,000; 0,000; -0,000; -0,000; -0,000; -0,000; -0,000; 0,000; -0,000; -0,000; -0,000; -0,000; -0,000; 0,000; 0,000; 0,000; 0,000; 0,000; 0,000; 0,000; 0,000; 0,000; 0,000; 0,000; 0,000; 0,000; 0,000; 0,000; 0,000; 0,000; 0,000; 0,000; 0,000; 0,000; -0,000; -0,000; -0,000; -0,000; -0,000; -0,000; -0,000; -0,000; -0,000; -0,000; -0,000; 0,000; 0,000; 0,000; 0,000; 0,000; 0,000; 0,000; 0,000; 0,000; 0,000; 0,000; 0,000; 0,000; 0,000; 0,000; 0,000; 0,000; 0,000; 0,000; 0,000; 0,000; 0,000; 0,000; 0,000; -0,000; 0,000; -0,000; -0,000; -0,000; 0,000; 0,000; 0,000; 0,000; 0,000; 0,000; 0,000; 0,000; 0,000; 0,000; 0,000; 0,000; 0,000; 0,000; 0,000; 0,000; 0,000; 0,000; 0,000; 0,000; 0,000; 0,000; 0,000; 0,000; 0,000; 0,000; -0,000; -0,000; -0,000; 0,000; 0,000; 0,000; 0,000; -0,000; -0,000; 0,000; 0,000; 0,000; 0,000; 0,000; 0,000; 0,000; 0,000; 0,000; 0,000; 0,000; 0,000; 0,000; 0,000; 0,000; 0,000; 0,000; 0,000; 0,000; 0,000; 0,000; 0,000; -0,000; -0,000; -0,000; -0,000; 0,000; 0,000; 0,000; -0,000; -0,000; 0,000; 0,000; 0,000; 0,000; 0,000; 0,000; 0,000; 0,000; 0,000; 0,000; 0,000; 0,000; 0,000; 0,000; 0,000; 0,000; 0,000; 0,000; 0,000; 0,000; 0,000; 0,000; 0,000; 0,000; 0,000; -0,000; -0,000; 0,000; 0,000; 0,000; 0,000; -0,000; 0,000; 0,000; 0,000; 0,000; 0,000; 0,000; 0,000; 0,000; 0,000; 0,000; -0,000; -0,000; -0,000; 0,000; 0,000; 0,000; 0,000; 0,000; 0,000; 0,000; 0,000; 0,000; 0,000; 0,000; 0,000; 0,000; 0,000; 0,000; 0,000; 0,000; 0,000; 0,000; 0,000; 0,000; 0,000; 0,000; 0,000; 0,000; 0,000; 0,000; 0,000; 0,000; -0,000; -0,000; -0,000; -0,000; 0,000; 0,000; 0,000; 0,000; 0,000; 0,000; 0,000; 0,000; 0,000; 0,000; 0,000; 0,000; 0,000; 0,000; 0,000; 0,000; 0,000; 0,000; 0,000; 0,000; 0,000; 0,000; 0,000; 0,000; 0,000; 0,000; 0,000; 0,000; 0,000; 0,000; 0,000; 0,000; 0,000; 0,000; 0,000; 0,000; 0,000; 0,000; 0,000; 0,000; 0,000; 0,000; 0,000; 0,000; 0,000; 0,000; 0,000; 0,000; 0,000; 0,000; 0,000; 0,000; 0,000; 0,000; 0,000; 0,000; 0,000; 0,000; 0,000; 0,000; 0,000; 0,000; 0,000; 0,000; 0,000; 0,000; 0,000; 0,000; 0,000; 0,000; 0,000; 0,000; 0,000; 0,000; 0,000; 0,000; 0,000; 0,000; 0,000; 0,000; 0,000; 0,000; 0,000; 0,000; 0,000; 0,000; 0,000; 0,000; 0,000; 0,000; 0,000; 0,000; 0,000; 0,000; 0,000; 0,000; 0,000; 0,000; 0,000; 0,000; 0,000; 0,000; 0,000; 0,000; 0,000; 0,000; 0,000; 0,000; 0,000; 0,000; 0,000; 0,000; 0,000; -0,000; 0,000; 0,000; 0,000; 0,000; 0,000; 0,000; 0,000; 0,000; 0,000; 0,000; 0,000; 0,000; 0,000; 0,000; 0,000; 0,000; 0,000; 0,000; 0,000; 0,000; 0,000; 0,000; 0,000; 0,000; 0,000; 0,000; 0,000; 0,000; 0,000; 0,000; 0,000; -0,000; -0,000; 0,000; 0,000; 0,000; 0,000; 0,000; 0,000; 0,000; 0,000; 0,000; 0,000; 0,000; 0,000; 0,000; 0,000; 0,000; 0,000; 0,000; 0,000; 0,000; 0,000; 0,000; 0,000; 0,000; 0,000; 0,000; 0,000; 0,000; 0,000; 0,000; 0,000; 0,000; 0,000; 0,000; 0,000; 0,000; 0,000; 0,000; 0,000; 0,000; 0,000; 0,000; 0,000; 0,000; 0,000; 0,000; 0,000; 0,000; 0,000; 0,000; 0,000; 0,000; 0,000; 0,000; 0,000; 0,000; 0,000; 0,000; 0,000; 0,000; 0,000; 0,000; 0,000; 0,000; 0,000; 0,000; 0,000; 0,000; 0,000; 0,000; 0,000; 0,000; 0,000; 0,000; 0,000; 0,000; 0,000; 0,000; 0,000; 0,000; 0,000; 0,000; 0,000; 0,000; 0,000; 0,000; 0,000; 0,000; 0,000; 0,000; 0,000; 0,000; 0,000; 0,000; 0,000; 0,000; 0,000; 0,000; 0,000; 0,000; 0,000; 0,000; 0,000; 0,000; 0,000; 0,000; 0,000; 0,000; 0,000; 0,000; 0,000; 0,000; 0,000; 0,000; 0,000; 0,000; 0,000; 0,000; 0,000; 0,000; 0,000; 0,000; 0,000; 0,000; 0,000; 0,000; 0,000; 0,000; 0,000; 0,000; 0,000; 0,000; 0,000; 0,000; 0,000; 0,000; 0,000; 0,000; 0,000; 0,000; 0,000; 0,000; 0,000; 0,000; 0,000; 0,000; 0,000; 0,000; 0,000; 0,000; 0,000; 0,000; 0,000; 0,000; 0,000; 0,000; 0,000; 0,000; 0,000; 0,000; 0,000; 0,000; 0,000; 0,000; 0,000; 0,000; 0,000; 0,000; 0,000; 0,000; 0,000; 0,000; 0,000; 0,000; 0,000; 0,000; 0,000; 0,000; 0,000; 0,000; 0,000; 0,000; 0,000; 0,000; 0,000; 0,000; 0,000; -0,005; 0,000; 0,000; 0,000; 0,000; 0,000; 0,000; 0,000; 0,000; -0,000; -0,000; -0,000; -0,000; 0,000; 0,000; -0,000; -0,000; -0,000; -0,000; -0,000; -0,000; -0,000; -0,000; -0,000; 0,000; 0,000; 0,000; 0,000; 0,000; 0,000; 0,000; 0,000; 0,000; 0,000; 0,000; 0,000; 0,000; 0,000; 0,000; 0,000; 0,000; 0,000; 0,000; 0,000; 0,000; 0,000; 0,000; 0,000; 0,000; 0,000; 0,000; 0,000; -0,000; 0,000; 0,000; 0,000; 0,000; 0,000; 0,000; 0,000; 0,000; 0,000; 0,000; 0,000; 0,000; 0,000; 0,000; 0,000; 0,000; 0,000; 0,000; 0,000; 0,000; 0,000; 0,000; -0,000; 0,000; 0,000; 0,000; -0,000; -0,000; -0,000; -0,000; -0,000; -0,000; -0,000; -0,000; 0,000; 0,000; 0,000; 0,000; 0,000; 0,000; 0,000; 0,000; 0,000; 0,000; 0,000; 0,000; 0,000; 0,000; 0,000; 0,000; 0,000; 0,000; 0,000; -0,000; -0,000; -0,000; -0,000; -0,000; -0,000; -0,000; -0,000; -0,000; -0,000; -0,000; -0,000; 0,000; 0,000; 0,000; 0,000; 0,000; 0,000; 0,000; 0,000; -0,000; 0,000; 0,000; 0,000; 0,000; 0,000; 0,000; 0,000; 0,000; 0,000; 0,000; -0,000; -0,000; -0,000; -0,000; -0,000; -0,000; -0,000; -0,000; -0,000; -0,000; -0,000; -0,000; -0,000; 0,000; 0,000; 0,000; 0,000; 0,000; 0,000; 0,000; 0,000; 0,000; 0,000; 0,000; 0,000; 0,000; 0,000; 0,000; 0,000; 0,000; 0,000; 0,000; -0,000; -0,000; -0,000; -0,000; -0,000; -0,000; -0,000; -0,000; -0,000; -0,000; -0,000; -0,000; -0,000; -0,000; 0,000; 0,000; 0,000; 0,000; 0,000; 0,000; 0,000; 0,000; 0,000; 0,000; 0,000; 0,000; 0,000; 0,000; 0,000; 0,000; 0,000; -0,000; -0,000; -0,000; -0,000; -0,000; -0,000; -0,000; -0,000; -0,000; -0,000; -0,000; -0,000; -0,000; -0,000; -0,000; -0,000; -0,000; -0,000; -0,000; -0,000; 0,000; 0,000; -0,000; 0,000; -0,000; 0,000; 0,000; 0,000; 0,000; 0,000; 0,000; 0,000; -0,000; -0,000; -0,000; -0,000; -0,000; -0,000; -0,000; -0,000; -0,000; -0,000; -0,000; -0,000; -0,000; -0,000; -0,000; -0,000; -0,000; 0,000; 0,000; 0,000; 0,000; -0,000; -0,000; 0,000; 0,000; 0,000; 0,000; 0,000; 0,000; -0,000; -0,000; -0,000; -0,000; -0,000; -0,000; -0,000; -0,000; -0,000; -0,000; -0,000; -0,000; -0,000; -0,000; -0,000; -0,000; -0,000; -0,000; -0,000; -0,000; 0,000; 0,000; 0,000; 0,000; 0,000; 0,000; 0,000; 0,000; 0,000; 0,000; 0,000; 0,000; -0,000; -0,000; -0,000; -0,000; -0,000; -0,000; -0,000; -0,000; -0,000; -0,000; -0,000; -0,000; -0,000; -0,000; -0,000; -0,000; -0,000; -0,000; -0,000; -0,000; -0,000; 0,000; 0,000; 0,000; 0,000; 0,000; 0,000; 0,000; 0,000; 0,000; 0,000; 0,000; -0,000; -0,000; -0,000; -0,000; -0,000; -0,000; -0,000; -0,000; -0,000; -0,000; -0,000; -0,000; -0,000; -0,000; -0,000; -0,000; -0,000; -0,000; -0,000; -0,000; -0,000; 0,000; 0,000; 0,000; 0,000; 0,000; 0,000; 0,000; 0,000; 0,000; 0,000; 0,000; 0,000; -0,000; 0,000; -0,000; -0,000; -0,000; -0,000; -0,000; -0,000; -0,000; -0,000; -0,000; -0,000; -0,000; -0,000; -0,000; -0,000; -0,000; -0,000; 0,000; 0,000; 0,000; 0,000; 0,000; 0,000; 0,000; 0,000; 0,000; 0,000; 0,000; 0,000; 0,000; 0,000; 0,000; -0,000; 0,000; 0,000; -0,000; -0,000; -0,000; -0,000; -0,000; -0,000; -0,000; -0,000; -0,000; -0,000; -0,000; -0,000; -0,000; -0,000; 0,000; 0,000; 0,000; 0,000; 0,000; 0,000; 0,000; 0,000; 0,000; 0,000; 0,000; 0,000; 0,000; 0,000; 0,000; 0,000; 0,000; 0,000; -0,000; -0,000; -0,000; -0,000; -0,000; -0,000; -0,000; -0,000; -0,000; -0,000; -0,000; -0,000; -0,000; -0,000; 0,000; 0,000; 0,000; 0,000; 0,000; 0,000; 0,000; 0,000; 0,000; 0,000; 0,000; 0,000; 0,000; 0,000; 0,000; 0,000; 0,000; 0,000; -0,000; -0,000; -0,000; -0,000; -0,000; -0,000; -0,000; -0,000; -0,000; -0,000; -0,000; -0,000; -0,000; 0,000; 0,000; 0,000; 0,000; 0,000; 0,000; 0,000; 0,000; 0,000; 0,000; 0,000; 0,000; 0,000; 0,000; 0,000; 0,000; 0,000; 0,000; 0,000; 0,000; -0,000; -0,000; -0,000; -0,000; -0,000; -0,000; -0,000; -0,000; -0,000; -0,000; 0,000; 0,000; 0,000; 0,000; 0,000; 0,000; 0,000; 0,000; 0,000; 0,000; 0,000; 0,000; -0,000; 0,000; 0,000; 0,000; 0,000; 0,000; 0,000; 0,000; 0,000; 0,000; 0,000; 0,000; -0,000; -0,000; -0,000; -0,000; -0,000; -0,000; -0,000; -0,000; -0,000; 0,000; 0,000; 0,000; 0,000; 0,000; 0,000; 0,000; 0,000; 0,000; 0,000; 0,000; 0,000; 0,000; 0,000; 0,000; 0,000; 0,000; 0,000; 0,000; 0,000; 0,000; 0,000; -0,000; -0,000; -0,000; -0,000; -0,000; -0,000; -0,000; -0,000; -0,000; -0,000; -0,000; 0,000; 0,000; 0,000; 0,000; 0,000; 0,000; 0,000; 0,000; 0,000; -0,000; 0,000; 0,000; 0,000; 0,000; 0,000; 0,000; 0,000; 0,000; 0,000; 0,000; -0,000; -0,000; -0,000; -0,000; -0,000; -0,000; -0,000; -0,000; -0,000; -0,000; -0,000; -0,000; 0,000; -0,000; -0,000; 0,000; 0,000; 0,000; 0,000; 0,000; 0,000; 0,000; 0,000; 0,000; 0,000; 0,000; -0,000; 0,000; 0,000; 0,000; -0,000; -0,000; -0,000; -0,000; -0,000; -0,000; -0,000; -0,000; -0,000; -0,000; -0,000; -0,000; -0,000; -0,000; -0,000; -0,000; 0,000; 0,000; 0,000; 0,000; 0,000; 0,000; 0,000; 0,000; 0,000; 0,000; 0,000; 0,000; -0,000; 0,000; 0,000; 0,000; -0,000; -0,000; -0,000; -0,000; -0,000; -0,000; -0,000; -0,000; -0,000; -0,000; -0,000; -0,000; -0,000; -0,000; -0,000; -0,000; -0,000; -0,000; -0,000; -0,000; 0,000; 0,000; 0,000; 0,000; 0,000; 0,000; 0,000; 0,000; 0,000; 0,000; 0,000; -0,000; -0,000; -0,000; -0,000; -0,000; -0,000; -0,000; -0,000; -0,000; -0,000; -0,000; -0,000; -0,000; -0,000; -0,000; -0,000; -0,000; -0,000; -0,000; -0,000; -0,000; 0,000; 0,000; 0,000; 0,000; 0,000; 0,000; 0,000; 0,000; 0,000; 0,000; -0,000; -0,000; -0,000; -0,000; -0,000; -0,000; -0,000; -0,000; -0,000; -0,000; -0,000; -0,000; -0,000; -0,000; -0,000; -0,000; -0,000; -0,000; -0,000; -0,000; -0,000; 0,000; 0,000; 0,000; 0,000; 0,000; 0,000; 0,000; 0,000; 0,000; 0,000; 0,000; -0,000; -0,000; -0,000; -0,000; -0,000; -0,000; -0,000; -0,000; -0,000; -0,000; -0,000; -0,000; -0,000; -0,000; -0,000; -0,000; -0,000; -0,000; -0,000; -0,000; -0,000; -0,000; 0,000; 0,000; 0,000; 0,000; 0,000; 0,000; 0,000; 0,000; 0,000; -0,000; -0,000; -0,000; -0,000; -0,000; -0,000; -0,000; -0,000; -0,000; -0,000; -0,000; -0,000; -0,000; -0,000; -0,000; -0,000; -0,000; -0,000; -0,000; -0,000; -0,000; -0,000; -0,000; 0,000; 0,000; 0,000; 0,000; 0,000; 0,000; 0,000; 0,000; -0,000; -0,000; -0,000; -0,000; -0,000; -0,000; -0,000; -0,000; -0,000; -0,000; -0,000; -0,000; -0,000; -0,000; -0,000; -0,000; -0,000; -0,000; -0,000; -0,000; -0,000; -0,000; -0,000; -0,000; 0,000; 0,000; 0,000; 0,000; 0,000; 0,000; 0,000; 0,000; -0,000; -0,000; -0,000; -0,000; -0,000; -0,000; -0,000; -0,000; -0,000; -0,000; -0,000; -0,000; -0,000; -0,000; -0,000; -0,000; -0,000; -0,000; -0,000; -0,000; -0,000; -0,000; -0,000; -0,000; 0,000; 0,000; 0,000; 0,000; 0,000; 0,000; 0,000; 0,000; -0,000; -0,000; -0,000; -0,000; -0,000; -0,000; -0,000; -0,000; -0,000; -0,000; -0,000; -0,000; -0,000; -0,000; -0,000; -0,000; -0,000; -0,000; -0,000; -0,000; -0,000; -0,000; -0,000; -0,000; 0,000; 0,000; 0,000; 0,000; 0,000; 0,000; 0,000; 0,000; -0,000; -0,000; -0,000; -0,000; -0,000; -0,000; -0,000; -0,000; -0,000; -0,000; -0,000; -0,000; -0,000; -0,000; -0,000; -0,000; -0,000; -0,000; -0,000; -0,000; -0,000; -0,000; -0,000; -0,000; -0,000; 0,000; 0,000; 0,000; 0,000; 0,000; 0,000; 0,000; 0,000; 0,000; 0,000; -0,000; -0,000; -0,000; -0,000; -0,000; -0,000; -0,000; -0,000; -0,000; -0,000; -0,000; -0,000; -0,000; -0,000; -0,000; 0,000; 0,000; -0,000; -0,000; 0,000; 0,000; 0,000; 0,000; 0,000; 0,000; 0,000; 0,000; 0,000; 0,000; 0,000; 0,000; 0,000; 0,000; -0,000; -0,000; -0,000; -0,000; -0,000; -0,000; -0,000; -0,000; 0,000; -0,000; 0,000; 0,000; -0,000; 0,000; 0,000; 0,000; 0,000; 0,000; 0,000; 0,000; 0,000; 0,000; 0,000; 0,000; 0,000; 0,000; 0,000; 0,000; -0,000; -0,000; 0,000; 0,000; -0,000; -0,000; -0,000; -0,000; -0,000; -0,000; -0,000; -0,000; -0,000; -0,000; -0,000; -0,000; -0,000; -0,000; -0,000; -0,000; -0,000; -0,000; -0,000; 0,000; 0,000; 0,000; -0,000; 0,000; -0,000; -0,000; -0,000; -0,000; -0,000; -0,000; -0,000; -0,000; -0,000; -0,000; -0,000; -0,000; -0,000; -0,000; -0,000; -0,000; -0,000; -0,000; -0,000; -0,000; -0,000; -0,000; -0,000; -0,000; -0,000; -0,000; -0,000; -0,000; -0,000; -0,000; -0,000; -0,000; -0,000; -0,000; -0,000; -0,000; -0,000; -0,000; -0,000; -0,000; -0,000; -0,000; -0,000; -0,000; -0,000; -0,000; -0,000; -0,000; -0,000; -0,000; -0,000; -0,000; -0,000; -0,000; -0,000; -0,000; -0,000; -0,000; -0,000; -0,000; -0,000; -0,000; -0,000; -0,000; -0,000; -0,000; -0,000; -0,000; -0,000; -0,000; -0,000; -0,000; -0,000; -0,000; -0,000; -0,000; -0,000; -0,000; -0,000; -0,000; -0,000; -0,000; -0,000; -0,000; -0,000; -0,000; -0,000; -0,000; -0,000; -0,000; -0,000; 0,000; -0,000; -0,000; -0,000; -0,000; -0,000; -0,000; -0,000; -0,000; -0,000; -0,000; -0,000; 0,000; 0,000; -0,000; -0,000; -0,000; -0,000; -0,000; -0,000; -0,000; -0,000; -0,000; -0,000; -0,000; -0,000; -0,000; 0,000; 0,000; -0,000; -0,000; -0,000; -0,000; -0,000; -0,000; -0,000; -0,000; -0,000; -0,000; -0,000; -0,000; -0,000; -0,000; -0,000; 0,000; 0,000; -0,000; -0,000; -0,000; -0,000; -0,000; -0,000; -0,000; -0,000; -0,000; -0,000; -0,000; -0,000; 0,000; 0,000; 0,000; 0,000; 0,000; -0,000; -0,000; -0,000; -0,000; -0,000; -0,000; -0,000; -0,000; -0,000; -0,000; -0,000; -0,000; 0,000; 0,000; 0,000; 0,000; -0,000; -0,000; 0,000; 0,000; -0,000; -0,000; 0,000; 0,000; 0,000; 0,000; 0,000; 0,000; 0,000; 0,000; 0,000; -0,000; -0,000; -0,000; -0,000; -0,000; -0,000; -0,000; -0,000; -0,000; -0,000; -0,000; -0,000; 0,000; 0,000; 0,000; 0,000; 0,000; -0,000; 0,000; -0,000; -0,000; -0,000; -0,000; 0,000; 0,000; 0,000; 0,000; 0,000; 0,000; 0,000; -0,000; 0,000; -0,000; -0,000; -0,000; -0,000; -0,000; -0,000; -0,000; -0,000; -0,000; -0,000; -0,000; -0,000; -0,000; 0,000; 0,000; 0,000; -0,000; -0,000; 0,000; 0,000; 0,000; -0,000; 0,000; 0,000; 0,000; -0,000; 0,000; 0,000; 0,000; 0,000; 0,000; 0,000; 0,000; -0,000; -0,000; -0,000; -0,000; -0,000; -0,000; -0,000; -0,000; -0,000; -0,000; -0,000; -0,000; 0,000; 0,000; 0,000; 0,000; 0,000; 0,000; 0,000; 0,000; 0,000; 0,000; 0,000; -0,000; -0,000; -0,000; 0,000; -0,000; 0,000; 0,000; 0,000; 0,000; -0,000; -0,000; -0,000; -0,000; -0,000; -0,000; -0,000; -0,000; -0,000; -0,000; -0,000; -0,000; -0,000; 0,000; 0,000; 0,000; 0,000; 0,000; 0,000; 0,000; 0,000; 0,000; 0,000; -0,000; -0,000; -0,000; -0,000; -0,000; 0,000; 0,000; 0,000; 0,000; -0,000; -0,000; -0,000; -0,000; -0,000; -0,000; -0,000; -0,000; -0,000; -0,000; -0,000; -0,000; -0,000; 0,000; 0,000; 0,000; 0,000; 0,000; 0,000; 0,000; 0,000; 0,000; 0,000; 0,000; 0,000; -0,000; -0,000; -0,000; 0,000; 0,000; 0,000; -0,000; -0,000; -0,000; -0,000; -0,000; -0,000; -0,000; -0,000; -0,000; -0,000; -0,000; -0,000; -0,000; -0,000; 0,000; 0,000; 0,000; 0,000; 0,000; 0,000; 0,000; 0,000; 0,000; 0,000; 0,000; 0,000; 0,000; 0,000; 0,000; 0,000; 0,000; 0,000; -0,000; -0,000; -0,000; -0,000; -0,000; -0,000; -0,000; -0,000; -0,000; -0,000; -0,000; -0,000; -0,000; -0,000; 0,000; 0,000; 0,000; 0,000; 0,000; 0,000; 0,000; 0,000; 0,000; 0,000; 0,000; 0,000; 0,000; 0,000; 0,000; 0,000; 0,000; 0,000; -0,000; -0,000; -0,000; -0,000; -0,000; -0,000; -0,000; -0,000; -0,000; -0,000; -0,000; -0,000; -0,000; -0,000; 0,000; 0,000; 0,000; 0,000; 0,000; 0,000; 0,000; 0,000; 0,000; 0,000; 0,000; 0,000; 0,000; 0,000; 0,000; 0,000; 0,000; 0,000; -0,000; -0,000; -0,000; -0,000; -0,000; -0,000; -0,000; -0,000; -0,000; -0,000; -0,000; -0,000; -0,000; -0,000; 0,000; 0,000; 0,000; 0,000; 0,000; 0,000; 0,000; 0,000; 0,000; 0,000; 0,000; 0,000; 0,000; 0,000; 0,000; 0,000; 0,000; -0,000; -0,000; -0,000; -0,000; -0,000; -0,000; -0,000; -0,000; -0,000; -0,000; -0,000; -0,000; -0,000; -0,000; 0,000; 0,000; 0,000; 0,000; 0,000; 0,000; 0,000; 0,000; 0,000; 0,000; 0,000; 0,000; 0,000; 0,000; 0,000; 0,000; 0,000; 0,000; -0,000; -0,000; -0,000; -0,000; -0,000; -0,000; -0,000; -0,000; -0,000; -0,000; -0,000; -0,000; -0,000; -0,000; -0,000; 0,000; 0,000; 0,000; 0,000; 0,000; 0,000; 0,000; 0,000; 0,000; 0,000; 0,000; 0,000; 0,000; 0,000; 0,000; 0,000; 0,000; -0,000; -0,000; -0,000; -0,000; -0,000; -0,000; -0,000; -0,000; -0,000; -0,000; -0,000; -0,000; -0,000; -0,000; -0,000; -0,000; -0,000; 0,000; 0,000; 0,000; -0,000; 0,000; 0,000; 0,000; -0,000; -0,000; -0,000; 0,000; 0,000; 0,000; 0,000; -0,000; -0,000; -0,000; -0,000; -0,000; -0,000; -0,000; -0,000; -0,000; -0,000; -0,000; -0,000; -0,000; -0,000; -0,000; -0,000; -0,000; -0,000; -0,000; -0,000; -0,000; -0,000; -0,000; -0,000; -0,000; -0,000; -0,000; -0,000; -0,000; -0,000; 0,000; -0,000; -0,000; -0,000; -0,000; -0,000; -0,000; -0,000; -0,000; -0,000; -0,000; -0,000; -0,000; -0,000; -0,000; -0,000; -0,000; -0,000; -0,000; -0,000; -0,000; -0,000; -0,000; -0,000; -0,000; -0,000; -0,000; -0,000; -0,000; -0,000; -0,000; -0,000; -0,000; -0,000; -0,000; -0,000; -0,000; -0,000; -0,000; -0,000; -0,000; -0,000; -0,000; -0,000; -0,000; -0,000; -0,000; -0,000; -0,000; -0,000; -0,000; -0,000; -0,000; -0,000; -0,000; -0,000; -0,000; -0,000; -0,000; -0,000; -0,000; -0,000; -0,000; -0,000; -0,000; -0,000; -0,000; -0,000; -0,000; -0,000; -0,000; -0,000; -0,000; -0,000; -0,000; -0,000; -0,000; -0,000; -0,000; -0,000; -0,000; -0,000; -0,000; -0,000; -0,000; -0,000; -0,000; -0,000; -0,000; -0,000; -0,000; -0,000; -0,000; -0,000; -0,000; -0,000; -0,000; -0,000; -0,000; -0,000; -0,000; -0,000; -0,000; -0,000; -0,000; -0,000; -0,000; -0,000; -0,000; -0,000; -0,000; -0,000; 0,000; -0,000; -0,000; -0,000; -0,000; -0,000; -0,000; -0,000; -0,000; -0,000; -0,000; -0,000; -0,000; -0,000; -0,000; -0,000; -0,000; -0,000; -0,000; -0,000; -0,000; -0,000; -0,000; -0,000; -0,000; -0,000; -0,000; -0,000; -0,000; -0,000; -0,000; -0,000; -0,000; -0,000; -0,000; -0,000; -0,000; -0,000; -0,000; -0,000; -0,000; -0,000; -0,000; -0,000; -0,000; -0,000; -0,000; -0,000; -0,000; -0,000; -0,000; -0,000; -0,000; -0,000; -0,000; -0,000; -0,000; -0,000; -0,000; -0,000; -0,000; -0,000; -0,000; -0,000; -0,000; -0,000; -0,000; -0,000; -0,000; -0,000; -0,000; -0,000; -0,000; -0,000; 0,000; 0,000; -0,000; -0,000; -0,000; -0,000; -0,000; -0,000; -0,000; -0,000; -0,000; -0,000; -0,000; -0,000; -0,000; -0,000; -0,000; -0,000; -0,000; -0,000; -0,000; -0,000; -0,000; -0,000; -0,000; -0,000; -0,000; -0,000; -0,000; -0,000; -0,000; -0,000; 0,000; 0,000; -0,000; -0,000; -0,000; -0,000; -0,000; -0,000; -0,000; -0,000; -0,000; -0,000; -0,000; -0,000; -0,000; -0,000; -0,000; -0,000; -0,000; -0,000; -0,000; -0,000; -0,000; -0,000; -0,000; -0,000; -0,000; -0,000; -0,000; -0,000; -0,000; -0,000; 0,000; -0,000; -0,000; -0,000; -0,000; -0,000; -0,000; -0,000; -0,000; -0,000; -0,000; -0,000; -0,000; -0,000; -0,000; -0,000; -0,000; -0,000; 0,000; -0,000; -0,000; -0,000; -0,000; -0,000; -0,000; -0,000; -0,000; -0,000; -0,000; -0,000; -0,000; -0,000; -0,000; -0,000; -0,000; -0,000; -0,000; -0,000; -0,000; -0,000; -0,000; -0,000; -0,000; -0,000; -0,000; -0,000; -0,000; -0,000; -0,000; -0,000; -0,000; -0,000; -0,000; -0,000; -0,000; -0,000; -0,000; -0,000; -0,000; -0,000; -0,000; -0,000; -0,000; -0,000; -0,000; -0,000; -0,000; -0,000; -0,000; -0,000; -0,000; -0,000; -0,000; -0,000; -0,000; -0,000; -0,000; -0,000; -0,000; -0,000; -0,000; -0,000; -0,000; -0,000; -0,000; -0,000; -0,000; -0,000; -0,000; -0,000; -0,000; -0,000; -0,000; -0,000; -0,000; -0,000; -0,000; -0,000; -0,000; -0,000; -0,000; -0,000; -0,000; -0,000; -0,000; -0,000; -0,000; -0,000; -0,000; -0,000; -0,000; -0,000; -0,000; -0,000; -0,000; -0,000; -0,000; -0,000; -0,000; 0,000; -0,000; -0,000; -0,000; -0,000; -0,000; -0,000; -0,000; -0,000; 0,000; 0,000; -0,000; 0,000; 0,000; -0,000; -0,000; -0,000; -0,000; -0,000; -0,000; -0,000; -0,000; -0,000; -0,000; -0,000; -0,000; -0,000; -0,000; -0,000; -0,000; -0,000; -0,000; -0,000; -0,000; -0,000; -0,000; -0,000; -0,000; -0,000; -0,000; -0,000; -0,000; -0,000; -0,000; -0,000; -0,000; -0,000; -0,000; -0,000; -0,000; -0,000; -0,000; -0,000; -0,000; -0,000; -0,000; -0,000; -0,000; 0,000; 0,000; 0,000; 0,000; 0,000; 0,000; 0,000; 0,000; 0,000; 0,000; 0,000; 0,000; 0,000; 0,000; 0,000; 0,000; 0,000; 0,000; 0,000; 0,000; 0,000; 0,000; 0,000; 0,000; 0,000; 0,000; 0,000; 0,000; 0,000; 0,000; 0,000; 0,000; 0,000; 0,000; 0,000; 0,000; 0,000; 0,000; 0,000; 0,000; 0,000; 0,000; 0,000; 0,000; 0,000; 0,000; 0,000; 0,000; 0,000; 0,000; 0,000; 0,000; 0,000; 0,000; 0,000; 0,000; 0,000; 0,000; 0,000; 0,000; 0,000; 0,000; 0,000; 0,000; 0,000; 0,000; 0,000; 0,000; 0,000; 0,000; 0,000; 0,000; 0,000; 0,000; 0,000; 0,000; 0,000; 0,000; 0,000; 0,000; 0,000; 0,000; 0,000; 0,000; 0,000; 0,000; 0,000; 0,000; 0,000; 0,000; 0,000; 0,000; 0,000; 0,000; 0,000; 0,000; 0,000; 0,000; 0,000; 0,000; 0,000; 0,000; 0,000; 0,000; 0,000; 0,000; 0,000; 0,000; 0,000; 0,000; 0,000; 0,000; 0,000; 0,000; 0,000; 0,000; 0,000; 0,000; 0,000; 0,000; 0,000; 0,000; 0,000; 0,000; 0,000; 0,000; 0,000; 0,000; 0,000; 0,000; 0,000; 0,000; 0,000; 0,000; 0,000; 0,000; 0,000; 0,000; 0,000; 0,000; 0,000; 0,000; 0,000; 0,000; 0,000; 0,000; 0,000; 0,000; 0,000; 0,000; 0,000; 0,000; 0,000; 0,000; 0,000; 0,000; 0,000; 0,000; 0,000; 0,000; 0,000; 0,000; 0,000; 0,000; 0,000; 0,000; 0,000; 0,000; 0,000; 0,000; 0,000; 0,000; 0,000; 0,000; 0,000; 0,000; 0,000; 0,000; 0,000; 0,000; 0,000; 0,000; 0,000; 0,000; 0,000; 0,000; 0,000; 0,000; 0,000; 0,000; 0,000; 0,000; 0,000; 0,000; 0,000; 0,000; 0,000; 0,000; 0,000; 0,000; 0,000; 0,000; 0,000; 0,000; 0,000; 0,000; 0,000; 0,000; 0,000; 0,000; 0,000; 0,000; 0,000; 0,000; 0,000; 0,000; 0,000; 0,000; 0,000; 0,000; 0,000; 0,000; 0,000; 0,000; 0,000; 0,000; 0,000; 0,000; 0,000; 0,000; 0,000; 0,000; 0,000; 0,000; 0,000; 0,000; 0,000; 0,000; 0,000; 0,000; 0,000; 0,000; 0,000; 0,000; 0,000; 0,000; 0,000; 0,000; 0,000; 0,000; 0,000; 0,000; 0,000; 0,000; 0,000; 0,000; 0,000; 0,000; 0,000; 0,000; 0,000; 0,000; 0,000; 0,000; 0,000; 0,000; 0,000; 0,000; 0,000; 0,000; 0,000; 0,000; 0,000; 0,000; 0,000; 0,000; 0,000; 0,000; 0,000; 0,000; 0,000; 0,000; 0,000; 0,000; 0,000; 0,000; 0,000; 0,000; 0,000; 0,000; 0,000; 0,000; -0,000; 0,000; 0,000; 0,000; 0,000; 0,000; 0,000; 0,000; 0,000; 0,000; 0,000; 0,000; 0,000; 0,000; 0,000; 0,000; 0,000; 0,000; 0,000; 0,000; 0,000; 0,000; 0,000; 0,000; 0,000; 0,000; 0,000; 0,000; 0,000; 0,000; 0,000; 0,000; -0,000; 0,000; 0,000; 0,000; 0,000; 0,000; 0,000; 0,000; 0,000; 0,000; 0,000; 0,000; 0,000; 0,000; 0,000; 0,000; 0,000; 0,000; 0,000; 0,000; 0,000; 0,000; 0,000; 0,000; -0,000; -0,000; 0,000; 0,000; 0,000; 0,000; 0,000; -0,000; -0,000; -0,000; 0,000; 0,000; 0,000; 0,000; 0,000; 0,000; 0,000; 0,000; 0,000; 0,000; 0,000; 0,000; 0,000; 0,000; 0,000; 0,000; 0,000; 0,000; 0,000; 0,000; 0,000; -0,000; -0,000; -0,000; 0,000; 0,000; 0,000; 0,000; -0,000; -0,000; -0,000; -0,000; 0,000; 0,000; 0,000; 0,000; 0,000; 0,000; 0,000; 0,000; 0,000; 0,000; 0,000; 0,000; 0,000; 0,000; 0,000; 0,000; 0,000; 0,000; 0,000; 0,000; 0,000; 0,000; -0,000; -0,000; 0,000; 0,000; 0,000; 0,000; 0,000; -0,000; -0,000; 0,000; 0,000; 0,000; 0,000; 0,000; 0,000; 0,000; 0,000; 0,000; 0,000; 0,000; 0,000; 0,000; 0,000; 0,000; 0,000; 0,000; 0,000; 0,000; 0,000; 0,000; 0,000; 0,000; -0,000; -0,000; 0,000; 0,000; 0,000; 0,000; 0,000; -0,000; -0,000; 0,000; 0,000; 0,000; 0,000; 0,000; 0,000; 0,000; 0,000; 0,000; 0,000; 0,000; 0,000; 0,000; 0,000; 0,000; 0,000; 0,000; 0,000; 0,000; 0,000; 0,000; 0,000; -0,000; -0,000; -0,000; -0,000; -0,000; 0,000; -0,000; -0,000; -0,000; -0,000; -0,000; 0,000; 0,000; 0,000; 0,000; 0,000; 0,000; 0,000; 0,000; 0,000; 0,000; 0,000; 0,000; 0,000; 0,000; 0,000; 0,000; 0,000; 0,000; 0,000; 0,000; 0,000; -0,000; -0,000; -0,000; -0,000; -0,000; -0,000; -0,000; -0,000; -0,000; -0,000; -0,000; 0,000; 0,000; 0,000; 0,000; 0,000; 0,000; 0,000; 0,000; 0,000; 0,000; 0,000; 0,000; 0,000; 0,000; 0,000; 0,000; 0,000; 0,000; 0,000; 0,000; 0,000; 0,000; 0,000; 0,000; -0,000; 0,000; -0,000; -0,000; -0,000; 0,000; 0,000; 0,000; 0,000; 0,000; 0,000; 0,000; 0,000; 0,000; 0,000; 0,000; 0,000; 0,000; 0,000; 0,000; 0,000; 0,000; 0,000; 0,000; 0,000; 0,000; 0,000; 0,000; 0,000; 0,000; 0,000; -0,000; -0,000; -0,000; 0,000; 0,000; 0,000; 0,000; -0,000; -0,000; 0,000; 0,000; 0,000; 0,000; 0,000; 0,000; 0,000; 0,000; 0,000; 0,000; 0,000; 0,000; 0,000; 0,000; 0,000; 0,000; 0,000; 0,000; 0,000; 0,000; 0,000; 0,000; -0,000; -0,000; -0,000; -0,000; 0,000; 0,000; 0,000; -0,000; -0,000; 0,000; 0,000; 0,000; 0,000; 0,000; 0,000; 0,000; 0,000; 0,000; 0,000; 0,000; 0,000; 0,000; 0,000; 0,000; 0,000; 0,000; 0,000; 0,000; 0,000; 0,000; 0,000; 0,000; 0,000; 0,000; -0,000; -0,000; 0,000; 0,000; 0,000; 0,000; -0,000; 0,000; 0,000; 0,000; 0,000; 0,000; 0,000; 0,000; 0,000; 0,000; 0,000; -0,000; -0,000; -0,000; 0,000; 0,000; 0,000; 0,000; 0,000; 0,000; 0,000; 0,000; 0,000; 0,000; 0,000; 0,000; 0,000; 0,000; 0,000; 0,000; 0,000; 0,000; 0,000; 0,000; 0,000; 0,000; 0,000; 0,000; 0,000; 0,000; 0,000; 0,000; 0,000; -0,000; -0,000; -0,000; -0,000; 0,000; 0,000; 0,000; 0,000; 0,000; 0,000; 0,000; 0,000; 0,000; 0,000; 0,000; 0,000; 0,000; 0,000; 0,000; 0,000; 0,000; 0,000; 0,000; 0,000; 0,000; 0,000; 0,000; 0,000; 0,000; 0,000; 0,000; 0,000; 0,000; 0,000; 0,000; 0,000; 0,000; 0,000; 0,000; 0,000; 0,000; 0,000; 0,000; 0,000; 0,000; 0,000; 0,000; 0,000; 0,000; 0,000; 0,000; 0,000; 0,000; 0,000; 0,000; 0,000; 0,000; 0,000; 0,000; 0,000; 0,000; 0,000; 0,000; 0,000; 0,000; 0,000; 0,000; 0,000; 0,000; 0,000; 0,000; 0,000; 0,000; 0,000; 0,000; 0,000; 0,000; 0,000; 0,000; 0,000; 0,000; 0,000; 0,000; 0,000; 0,000; 0,000; 0,000; 0,000; 0,000; 0,000; 0,000; 0,000; 0,000; 0,000; 0,000; 0,000; 0,000; 0,000; 0,000; 0,000; 0,000; 0,000; 0,000; 0,000; 0,000; 0,000; 0,000; 0,000; 0,000; 0,000; 0,000; 0,000; 0,000; 0,000; 0,000; 0,000; 0,000; -0,000; 0,000; 0,000; 0,000; 0,000; 0,000; 0,000; 0,000; 0,000; 0,000; 0,000; 0,000; 0,000; 0,000; 0,000; 0,000; 0,000; 0,000; 0,000; 0,000; 0,000; 0,000; 0,000; 0,000; 0,000; 0,000; 0,000; 0,000; 0,000; 0,000; 0,000; 0,000; -0,000; -0,000; 0,000; 0,000; 0,000; 0,000; 0,000; 0,000; 0,000; 0,000; 0,000; 0,000; 0,000; 0,000; 0,000; 0,000; 0,000; 0,000; 0,000; 0,000; 0,000; 0,000; 0,000; 0,000; 0,000; 0,000; 0,000; 0,000; 0,000; 0,000; 0,000; 0,000; 0,000; 0,000; 0,000; 0,000; 0,000; 0,000; 0,000; 0,000; 0,000; 0,000; 0,000; 0,000; 0,000; 0,000; 0,000; 0,000; 0,000; 0,000; 0,000; 0,000; 0,000; 0,000; 0,000; 0,000; 0,000; 0,000; 0,000; 0,000; 0,000; 0,000; 0,000; 0,000; 0,000; 0,000; 0,000; 0,000; 0,000; 0,000; 0,000; 0,000; 0,000; 0,000; 0,000; 0,000; 0,000; 0,000; 0,000; 0,000; 0,000; 0,000; 0,000; 0,000; 0,000; 0,000; 0,000; 0,000; 0,000; 0,000; 0,000; 0,000; 0,000; 0,000; 0,000; 0,000; 0,000; 0,000; 0,000; 0,000; 0,000; 0,000; 0,000; 0,000; 0,000; 0,000; 0,000; 0,000; 0,000; 0,000; 0,000; 0,000; 0,000; 0,000; 0,000; 0,000; 0,000; 0,000; 0,000; 0,000; 0,000; 0,000; 0,000; 0,000; 0,000; 0,000; 0,000; 0,000; 0,000; 0,000; 0,000; 0,000; 0,000; 0,000; 0,000; 0,000; 0,000; 0,000; 0,000; 0,000; 0,000; 0,000; 0,000; 0,000; 0,000; 0,000; 0,000; 0,000; 0,000; 0,000; 0,000; 0,000; 0,000; 0,000; 0,000; 0,000; 0,000; 0,000; 0,000; 0,000; 0,000; 0,000; 0,000; 0,000; 0,000; 0,000; 0,000; 0,000; 0,000; 0,000; 0,000; 0,000; 0,000; 0,000; 0,000; 0,000; 0,000; 0,000; 0,000; 0,000; 0,000; 0,000; 0,000; 0,000; 0,000; 0,000; 0,000; 0,000; -0,005; 0,000; 0,000; 0,000; 0,000; 0,000; 0,000; 0,000; 0,000; -0,000; -0,000; -0,000; -0,000; 0,000; 0,000; -0,000; -0,000; -0,000; -0,000; -0,000; -0,000; -0,000; -0,000; -0,000; 0,000; 0,000; 0,000; 0,000; 0,000; 0,000; 0,000; 0,000; 0,000; 0,000; 0,000; 0,000; 0,000; 0,000; 0,000; 0,000; 0,000; 0,000; 0,000; 0,000; 0,000; 0,000; 0,000; 0,000; 0,000; 0,000; 0,000; 0,000; -0,000; 0,000; 0,000; 0,000; 0,000; 0,000; 0,000; 0,000; 0,000; 0,000; 0,000; 0,000; 0,000; 0,000; 0,000; 0,000; 0,000; 0,000; 0,000; 0,000; 0,000; 0,000; 0,000; -0,000; 0,000; 0,000; 0,000; -0,000; -0,000; -0,000; -0,000; -0,000; -0,000; -0,000; -0,000; 0,000; 0,000; 0,000; 0,000; 0,000; 0,000; 0,000; 0,000; 0,000; 0,000; 0,000; 0,000; 0,000; 0,000; 0,000; 0,000; 0,000; 0,000; 0,000; -0,000; -0,000; -0,000; -0,000; -0,000; -0,000; -0,000; -0,000; -0,000; -0,000; -0,000; -0,000; 0,000; 0,000; 0,000; 0,000; 0,000; 0,000; 0,000; 0,000; -0,000; 0,000; 0,000; 0,000; 0,000; 0,000; 0,000; 0,000; 0,000; 0,000; 0,000; -0,000; -0,000; -0,000; -0,000; -0,000; -0,000; -0,000; -0,000; -0,000; -0,000; -0,000; -0,000; -0,000; 0,000; 0,000; 0,000; 0,000; 0,000; 0,000; 0,000; 0,000; 0,000; 0,000; 0,000; 0,000; 0,000; 0,000; 0,000; 0,000; 0,000; 0,000; 0,000; -0,000; -0,000; -0,000; -0,000; -0,000; -0,000; -0,000; -0,000; -0,000; -0,000; -0,000; -0,000; -0,000; -0,000; 0,000; 0,000; 0,000; 0,000; 0,000; 0,000; 0,000; 0,000; 0,000; 0,000; 0,000; 0,000; 0,000; 0,000; 0,000; 0,000; 0,000; -0,000; -0,000; -0,000; -0,000; -0,000; -0,000; -0,000; -0,000; -0,000; -0,000; -0,000; -0,000; -0,000; -0,000; -0,000; -0,000; -0,000; -0,000; -0,000; -0,000; 0,000; 0,000; -0,000; 0,000; -0,000; 0,000; 0,000; 0,000; 0,000; 0,000; 0,000; 0,000; -0,000; -0,000; -0,000; -0,000; -0,000; -0,000; -0,000; -0,000; -0,000; -0,000; -0,000; -0,000; -0,000; -0,000; -0,000; -0,000; -0,000; 0,000; 0,000; 0,000; 0,000; -0,000; -0,000; 0,000; 0,000; 0,000; 0,000; 0,000; 0,000; -0,000; -0,000; -0,000; -0,000; -0,000; -0,000; -0,000; -0,000; -0,000; -0,000; -0,000; -0,000; -0,000; -0,000; -0,000; -0,000; -0,000; -0,000; -0,000; -0,000; 0,000; 0,000; 0,000; 0,000; 0,000; 0,000; 0,000; 0,000; 0,000; 0,000; 0,000; 0,000; -0,000; -0,000; -0,000; -0,000; -0,000; -0,000; -0,000; -0,000; -0,000; -0,000; -0,000; -0,000; -0,000; -0,000; -0,000; -0,000; -0,000; -0,000; -0,000; -0,000; -0,000; 0,000; 0,000; 0,000; 0,000; 0,000; 0,000; 0,000; 0,000; 0,000; 0,000; 0,000; -0,000; -0,000; -0,000; -0,000; -0,000; -0,000; -0,000; -0,000; -0,000; -0,000; -0,000; -0,000; -0,000; -0,000; -0,000; -0,000; -0,000; -0,000; -0,000; -0,000; -0,000; 0,000; 0,000; 0,000; 0,000; 0,000; 0,000; 0,000; 0,000; 0,000; 0,000; 0,000; 0,000; -0,000; 0,000; -0,000; -0,000; -0,000; -0,000; -0,000; -0,000; -0,000; -0,000; -0,000; -0,000; -0,000; -0,000; -0,000; -0,000; -0,000; -0,000; 0,000; 0,000; 0,000; 0,000; 0,000; 0,000; 0,000; 0,000; 0,000; 0,000; 0,000; 0,000; 0,000; 0,000; 0,000; -0,000; 0,000; 0,000; -0,000; -0,000; -0,000; -0,000; -0,000; -0,000; -0,000; -0,000; -0,000; -0,000; -0,000; -0,000; -0,000; -0,000; 0,000; 0,000; 0,000; 0,000; 0,000; 0,000; 0,000; 0,000; 0,000; 0,000; 0,000; 0,000; 0,000; 0,000; 0,000; 0,000; 0,000; 0,000; -0,000; -0,000; -0,000; -0,000; -0,000; -0,000; -0,000; -0,000; -0,000; -0,000; -0,000; -0,000; -0,000; -0,000; 0,000; 0,000; 0,000; 0,000; 0,000; 0,000; 0,000; 0,000; 0,000; 0,000; 0,000; 0,000; 0,000; 0,000; 0,000; 0,000; 0,000; 0,000; -0,000; -0,000; -0,000; -0,000; -0,000; -0,000; -0,000; -0,000; -0,000; -0,000; -0,000; -0,000; -0,000; 0,000; 0,000; 0,000; 0,000; 0,000; 0,000; 0,000; 0,000; 0,000; 0,000; 0,000; 0,000; 0,000; 0,000; 0,000; 0,000; 0,000; 0,000; 0,000; 0,000; -0,000; -0,000; -0,000; -0,000; -0,000; -0,000; -0,000; -0,000; -0,000; -0,000; 0,000; 0,000; 0,000; 0,000; 0,000; 0,000; 0,000; 0,000; 0,000; 0,000; 0,000; 0,000; -0,000; 0,000; 0,000; 0,000; 0,000; 0,000; 0,000; 0,000; 0,000; 0,000; 0,000; 0,000; -0,000; -0,000; -0,000; -0,000; -0,000; -0,000; -0,000; -0,000; -0,000; 0,000; 0,000; 0,000; 0,000; 0,000; 0,000; 0,000; 0,000; 0,000; 0,000; 0,000; 0,000; 0,000; 0,000; 0,000; 0,000; 0,000; 0,000; 0,000; 0,000; 0,000; 0,000; -0,000; -0,000; -0,000; -0,000; -0,000; -0,000; -0,000; -0,000; -0,000; -0,000; -0,000; 0,000; 0,000; 0,000; 0,000; 0,000; 0,000; 0,000; 0,000; 0,000; -0,000; 0,000; 0,000; 0,000; 0,000; 0,000; 0,000; 0,000; 0,000; 0,000; 0,000; -0,000; -0,000; -0,000; -0,000; -0,000; -0,000; -0,000; -0,000; -0,000; -0,000; -0,000; -0,000; 0,000; -0,000; -0,000; 0,000; 0,000; 0,000; 0,000; 0,000; 0,000; 0,000; 0,000; 0,000; 0,000; 0,000; -0,000; 0,000; 0,000; 0,000; -0,000; -0,000; -0,000; -0,000; -0,000; -0,000; -0,000; -0,000; -0,000; -0,000; -0,000; -0,000; -0,000; -0,000; -0,000; -0,000; 0,000; 0,000; 0,000; 0,000; 0,000; 0,000; 0,000; 0,000; 0,000; 0,000; 0,000; 0,000; -0,000; 0,000; 0,000; 0,000; -0,000; -0,000; -0,000; -0,000; -0,000; -0,000; -0,000; -0,000; -0,000; -0,000; -0,000; -0,000; -0,000; -0,000; -0,000; -0,000; -0,000; -0,000; -0,000; -0,000; 0,000; 0,000; 0,000; 0,000; 0,000; 0,000; 0,000; 0,000; 0,000; 0,000; 0,000; -0,000; -0,000; -0,000; -0,000; -0,000; -0,000; -0,000; -0,000; -0,000; -0,000; -0,000; -0,000; -0,000; -0,000; -0,000; -0,000; -0,000; -0,000; -0,000; -0,000; -0,000; 0,000; 0,000; 0,000; 0,000; 0,000; 0,000; 0,000; 0,000; 0,000; 0,000; -0,000; -0,000; -0,000; -0,000; -0,000; -0,000; -0,000; -0,000; -0,000; -0,000; -0,000; -0,000; -0,000; -0,000; -0,000; -0,000; -0,000; -0,000; -0,000; -0,000; -0,000; 0,000; 0,000; 0,000; 0,000; 0,000; 0,000; 0,000; 0,000; 0,000; 0,000; 0,000; -0,000; -0,000; -0,000; -0,000; -0,000; -0,000; -0,000; -0,000; -0,000; -0,000; -0,000; -0,000; -0,000; -0,000; -0,000; -0,000; -0,000; -0,000; -0,000; -0,000; -0,000; -0,000; 0,000; 0,000; 0,000; 0,000; 0,000; 0,000; 0,000; 0,000; 0,000; -0,000; -0,000; -0,000; -0,000; -0,000; -0,000; -0,000; -0,000; -0,000; -0,000; -0,000; -0,000; -0,000; -0,000; -0,000; -0,000; -0,000; -0,000; -0,000; -0,000; -0,000; -0,000; -0,000; 0,000; 0,000; 0,000; 0,000; 0,000; 0,000; 0,000; 0,000; -0,000; -0,000; -0,000; -0,000; -0,000; -0,000; -0,000; -0,000; -0,000; -0,000; -0,000; -0,000; -0,000; -0,000; -0,000; -0,000; -0,000; -0,000; -0,000; -0,000; -0,000; -0,000; -0,000; -0,000; 0,000; 0,000; 0,000; 0,000; 0,000; 0,000; 0,000; 0,000; -0,000; -0,000; -0,000; -0,000; -0,000; -0,000; -0,000; -0,000; -0,000; -0,000; -0,000; -0,000; -0,000; -0,000; -0,000; -0,000; -0,000; -0,000; -0,000; -0,000; -0,000; -0,000; -0,000; -0,000; 0,000; 0,000; 0,000; 0,000; 0,000; 0,000; 0,000; 0,000; -0,000; -0,000; -0,000; -0,000; -0,000; -0,000; -0,000; -0,000; -0,000; -0,000; -0,000; -0,000; -0,000; -0,000; -0,000; -0,000; -0,000; -0,000; -0,000; -0,000; -0,000; -0,000; -0,000; -0,000; 0,000; 0,000; 0,000; 0,000; 0,000; 0,000; 0,000; 0,000; -0,000; -0,000; -0,000; -0,000; -0,000; -0,000; -0,000; -0,000; -0,000; -0,000; -0,000; -0,000; -0,000; -0,000; -0,000; -0,000; -0,000; -0,000; -0,000; -0,000; -0,000; -0,000; -0,000; -0,000; -0,000; 0,000; 0,000; 0,000; 0,000; 0,000; 0,000; 0,000; 0,000; 0,000; 0,000; -0,000; -0,000; -0,000; -0,000; -0,000; -0,000; -0,000; -0,000; -0,000; -0,000; -0,000; -0,000; -0,000; -0,000; -0,000; 0,000; 0,000; -0,000; -0,000; 0,000; 0,000; 0,000; 0,000; 0,000; 0,000; 0,000; 0,000; 0,000; 0,000; 0,000; 0,000; 0,000; 0,000; -0,000; -0,000; -0,000; -0,000; -0,000; -0,000; -0,000; -0,000; 0,000; -0,000; 0,000; 0,000; -0,000; 0,000; 0,000; 0,000; 0,000; 0,000; 0,000; 0,000; 0,000; 0,000; 0,000; 0,000; 0,000; 0,000; 0,000; 0,000; -0,000; -0,000; 0,000; 0,000; -0,000; -0,000; -0,000; -0,000; -0,000; -0,000; -0,000; -0,000; -0,000; -0,000; -0,000; -0,000; -0,000; -0,000; -0,000; -0,000; -0,000; -0,000; -0,000; 0,000; 0,000; 0,000; -0,000; 0,000; -0,000; -0,000; -0,000; -0,000; -0,000; -0,000; -0,000; -0,000; -0,000; -0,000; -0,000; -0,000; -0,000; -0,000; -0,000; -0,000; -0,000; -0,000; -0,000; -0,000; -0,000; -0,000; -0,000; -0,000; -0,000; -0,000; -0,000; -0,000; -0,000; -0,000; -0,000; -0,000; -0,000; -0,000; -0,000; -0,000; -0,000; -0,000; -0,000; -0,000; -0,000; -0,000; -0,000; -0,000; -0,000; -0,000; -0,000; -0,000; -0,000; -0,000; -0,000; -0,000; -0,000; -0,000; -0,000; -0,000; -0,000; -0,000; -0,000; -0,000; -0,000; -0,000; -0,000; -0,000; -0,000; -0,000; -0,000; -0,000; -0,000; -0,000; -0,000; -0,000; -0,000; -0,000; -0,000; -0,000; -0,000; -0,000; -0,000; -0,000; -0,000; -0,000; -0,000; -0,000; -0,000; -0,000; -0,000; -0,000; -0,000; -0,000; -0,000; 0,000; -0,000; -0,000; -0,000; -0,000; -0,000; -0,000; -0,000; -0,000; -0,000; -0,000; -0,000; 0,000; 0,000; -0,000; -0,000; -0,000; -0,000; -0,000; -0,000; -0,000; -0,000; -0,000; -0,000; -0,000; -0,000; -0,000; 0,000; 0,000; -0,000; -0,000; -0,000; -0,000; -0,000; -0,000; -0,000; -0,000; -0,000; -0,000; -0,000; -0,000; -0,000; -0,000; -0,000; 0,000; 0,000; -0,000; -0,000; -0,000; -0,000; -0,000; -0,000; -0,000; -0,000; -0,000; -0,000; -0,000; -0,000; 0,000; 0,000; 0,000; 0,000; 0,000; -0,000; -0,000; -0,000; -0,000; -0,000; -0,000; -0,000; -0,000; -0,000; -0,000; -0,000; -0,000; 0,000; 0,000; 0,000; 0,000; -0,000; -0,000; 0,000; 0,000; -0,000; -0,000; 0,000; 0,000; 0,000; 0,000; 0,000; 0,000; 0,000; 0,000; 0,000; -0,000; -0,000; -0,000; -0,000; -0,000; -0,000; -0,000; -0,000; -0,000; -0,000; -0,000; -0,000; 0,000; 0,000; 0,000; 0,000; 0,000; -0,000; 0,000; -0,000; -0,000; -0,000; -0,000; 0,000; 0,000; 0,000; 0,000; 0,000; 0,000; 0,000; -0,000; 0,000; -0,000; -0,000; -0,000; -0,000; -0,000; -0,000; -0,000; -0,000; -0,000; -0,000; -0,000; -0,000; -0,000; 0,000; 0,000; 0,000; -0,000; -0,000; 0,000; 0,000; 0,000; -0,000; 0,000; 0,000; 0,000; -0,000; 0,000; 0,000; 0,000; 0,000; 0,000; 0,000; 0,000; -0,000; -0,000; -0,000; -0,000; -0,000; -0,000; -0,000; -0,000; -0,000; -0,000; -0,000; -0,000; 0,000; 0,000; 0,000; 0,000; 0,000; 0,000; 0,000; 0,000; 0,000; 0,000; 0,000; -0,000; -0,000; -0,000; 0,000; -0,000; 0,000; 0,000; 0,000; 0,000; -0,000; -0,000; -0,000; -0,000; -0,000; -0,000; -0,000; -0,000; -0,000; -0,000; -0,000; -0,000; -0,000; 0,000; 0,000; 0,000; 0,000; 0,000; 0,000; 0,000; 0,000; 0,000; 0,000; -0,000; -0,000; -0,000; -0,000; -0,000; 0,000; 0,000; 0,000; 0,000; -0,000; -0,000; -0,000; -0,000; -0,000; -0,000; -0,000; -0,000; -0,000; -0,000; -0,000; -0,000; -0,000; 0,000; 0,000; 0,000; 0,000; 0,000; 0,000; 0,000; 0,000; 0,000; 0,000; 0,000; 0,000; -0,000; -0,000; -0,000; 0,000; 0,000; 0,000; -0,000; -0,000; -0,000; -0,000; -0,000; -0,000; -0,000; -0,000; -0,000; -0,000; -0,000; -0,000; -0,000; -0,000; 0,000; 0,000; 0,000; 0,000; 0,000; 0,000; 0,000; 0,000; 0,000; 0,000; 0,000; 0,000; 0,000; 0,000; 0,000; 0,000; 0,000; 0,000; -0,000; -0,000; -0,000; -0,000; -0,000; -0,000; -0,000; -0,000; -0,000; -0,000; -0,000; -0,000; -0,000; -0,000; 0,000; 0,000; 0,000; 0,000; 0,000; 0,000; 0,000; 0,000; 0,000; 0,000; 0,000; 0,000; 0,000; 0,000; 0,000; 0,000; 0,000; 0,000; -0,000; -0,000; -0,000; -0,000; -0,000; -0,000; -0,000; -0,000; -0,000; -0,000; -0,000; -0,000; -0,000; -0,000; 0,000; 0,000; 0,000; 0,000; 0,000; 0,000; 0,000; 0,000; 0,000; 0,000; 0,000; 0,000; 0,000; 0,000; 0,000; 0,000; 0,000; 0,000; -0,000; -0,000; -0,000; -0,000; -0,000; -0,000; -0,000; -0,000; -0,000; -0,000; -0,000; -0,000; -0,000; -0,000; 0,000; 0,000; 0,000; 0,000; 0,000; 0,000; 0,000; 0,000; 0,000; 0,000; 0,000; 0,000; 0,000; 0,000; 0,000; 0,000; 0,000; -0,000; -0,000; -0,000; -0,000; -0,000; -0,000; -0,000; -0,000; -0,000; -0,000; -0,000; -0,000; -0,000; -0,000; 0,000; 0,000; 0,000; 0,000; 0,000; 0,000; 0,000; 0,000; 0,000; 0,000; 0,000; 0,000; 0,000; 0,000; 0,000; 0,000; 0,000; 0,000; -0,000; -0,000; -0,000; -0,000; -0,000; -0,000; -0,000; -0,000; -0,000; -0,000; -0,000; -0,000; -0,000; -0,000; -0,000; 0,000; 0,000; 0,000; 0,000; 0,000; 0,000; 0,000; 0,000; 0,000; 0,000; 0,000; 0,000; 0,000; 0,000; 0,000; 0,000; 0,000; -0,000; -0,000; -0,000; -0,000; -0,000; -0,000; -0,000; -0,000; -0,000; -0,000; -0,000; -0,000; -0,000; -0,000; -0,000; -0,000; -0,000; 0,000; 0,000; 0,000; -0,000; 0,000; 0,000; 0,000; -0,000; -0,000; -0,000; 0,000; 0,000; 0,000; 0,000; -0,000; -0,000; -0,000; -0,000; -0,000; -0,000; -0,000; -0,000; -0,000; -0,000; -0,000; -0,000; -0,000; -0,000; -0,000; -0,000; -0,000; -0,000; -0,000; -0,000; -0,000; -0,000; -0,000; -0,000; -0,000; -0,000; -0,000; -0,000; -0,000; -0,000; 0,000; -0,000; -0,000; -0,000; -0,000; -0,000; -0,000; -0,000; -0,000; -0,000; -0,000; -0,000; -0,000; -0,000; -0,000; -0,000; -0,000; -0,000; -0,000; -0,000; -0,000; -0,000; -0,000; -0,000; -0,000; -0,000; -0,000; -0,000; -0,000; -0,000; -0,000; -0,000; -0,000; -0,000; -0,000; -0,000; -0,000; -0,000; -0,000; -0,000; -0,000; -0,000; -0,000; -0,000; -0,000; -0,000; -0,000; -0,000; -0,000; -0,000; -0,000; -0,000; -0,000; -0,000; -0,000; -0,000; -0,000; -0,000; -0,000; -0,000; -0,000; -0,000; -0,000; -0,000; -0,000; -0,000; -0,000; -0,000; -0,000; -0,000; -0,000; -0,000; -0,000; -0,000; -0,000; -0,000; -0,000; -0,000; -0,000; -0,000; -0,000; -0,000; -0,000; -0,000; -0,000; -0,000; -0,000; -0,000; -0,000; -0,000; -0,000; -0,000; -0,000; -0,000; -0,000; -0,000; -0,000; -0,000; -0,000; -0,000; -0,000; -0,000; -0,000; -0,000; -0,000; -0,000; -0,000; -0,000; -0,000; -0,000; -0,000; -0,000; 0,000; -0,000; -0,000; -0,000; -0,000; -0,000; -0,000; -0,000; -0,000; -0,000; -0,000; -0,000; -0,000; -0,000; -0,000; -0,000; -0,000; -0,000; -0,000; -0,000; -0,000; -0,000; -0,000; -0,000; -0,000; -0,000; -0,000; -0,000; -0,000; -0,000; -0,000; -0,000; -0,000; -0,000; -0,000; -0,000; -0,000; -0,000; -0,000; -0,000; -0,000; -0,000; -0,000; -0,000; -0,000; -0,000; -0,000; -0,000; -0,000; -0,000; -0,000; -0,000; -0,000; -0,000; -0,000; -0,000; -0,000; -0,000; -0,000; -0,000; -0,000; -0,000; -0,000; -0,000; -0,000; -0,000; -0,000; -0,000; -0,000; -0,000; -0,000; -0,000; -0,000; -0,000; 0,000; 0,000; -0,000; -0,000; -0,000; -0,000; -0,000; -0,000; -0,000; -0,000; -0,000; -0,000; -0,000; -0,000; -0,000; -0,000; -0,000; -0,000; -0,000; -0,000; -0,000; -0,000; -0,000; -0,000; -0,000; -0,000; -0,000; -0,000; -0,000; -0,000; -0,000; -0,000; 0,000; 0,000; -0,000; -0,000; -0,000; -0,000; -0,000; -0,000; -0,000; -0,000; -0,000; -0,000; -0,000; -0,000; -0,000; -0,000; -0,000; -0,000; -0,000; -0,000; -0,000; -0,000; -0,000; -0,000; -0,000; -0,000; -0,000; -0,000; -0,000; -0,000; -0,000; -0,000; 0,000; -0,000; -0,000; -0,000; -0,000; -0,000; -0,000; -0,000; -0,000; -0,000; -0,000; -0,000; -0,000; -0,000; -0,000; -0,000; -0,000; -0,000; 0,000; -0,000; -0,000; -0,000; -0,000; -0,000; -0,000; -0,000; -0,000; -0,000; -0,000; -0,000; -0,000; -0,000; -0,000; -0,000; -0,000; -0,000; -0,000; -0,000; -0,000; -0,000; -0,000; -0,000; -0,000; -0,000; -0,000; -0,000; -0,000; -0,000; -0,000; -0,000; -0,000; -0,000; -0,000; -0,000; -0,000; -0,000; -0,000; -0,000; -0,000; -0,000; -0,000; -0,000; -0,000; -0,000; -0,000; -0,000; -0,000; -0,000; -0,000; -0,000; -0,000; -0,000; -0,000; -0,000; -0,000; -0,000; -0,000; -0,000; -0,000; -0,000; -0,000; -0,000; -0,000; -0,000; -0,000; -0,000; -0,000; -0,000; -0,000; -0,000; -0,000; -0,000; -0,000; -0,000; -0,000; -0,000; -0,000; -0,000; -0,000; -0,000; -0,000; -0,000; -0,000; -0,000; -0,000; -0,000; -0,000; -0,000; -0,000; -0,000; -0,000; -0,000; -0,000; -0,000; -0,000; -0,000; -0,000; -0,000; -0,000; 0,000; -0,000; -0,000; -0,000; -0,000; -0,000; -0,000; -0,000; -0,000; 0,000; 0,000; -0,000; 0,000; 0,000; -0,000; -0,000; -0,000; -0,000; -0,000; -0,000; -0,000; -0,000; -0,000; -0,000; -0,000; -0,000; -0,000; -0,000; -0,000; -0,000; -0,000; -0,000; -0,000; -0,000; -0,000; -0,000; -0,000; -0,000; -0,000; -0,000; -0,000; -0,000; -0,000; -0,000; -0,000; -0,000; -0,000; -0,000; -0,000; -0,000; -0,000; -0,000; -0,000; -0,000; -0,000; -0,000; -0,000; -0,000; 0,000; 0,000; 0,000; 0,000; 0,000; 0,000; 0,000; 0,000; 0,000; 0,000; 0,000; 0,000; 0,000; 0,000; 0,000; 0,000; 0,000; 0,000; 0,000; 0,000; 0,000; 0,000; 0,000; 0,000; 0,000; 0,000; 0,000; 0,000; 0,000; 0,000; 0,000; 0,000; 0,000; 0,000; 0,000; 0,000; 0,000; 0,000; 0,000; 0,000; 0,000; 0,000; 0,000; 0,000; 0,000; 0,000; 0,000; 0,000; 0,000; 0,000; 0,000; 0,000; 0,000; 0,000; 0,000; 0,000; 0,000; 0,000; 0,000; 0,000; 0,000; 0,000; 0,000; 0,000; 0,000; 0,000; 0,000; 0,000; 0,000; 0,000; 0,000; 0,000; 0,000; 0,000; 0,000; 0,000; 0,000; 0,000; 0,000; 0,000; 0,000; 0,000; 0,000; 0,000; 0,000; 0,000; 0,000; 0,000; 0,000; 0,000; 0,000; 0,000; 0,000; 0,000; 0,000; 0,000; 0,000; 0,000; 0,000; 0,000; 0,000; 0,000; 0,000; 0,000; 0,000; 0,000; 0,000; 0,000; 0,000; 0,000; 0,000; 0,000; 0,000; 0,000; 0,000; 0,000; 0,000; 0,000; 0,000; 0,000; 0,000; 0,000; 0,000; 0,000; 0,000; 0,000; 0,000; 0,000; 0,000; 0,000; 0,000; 0,000; 0,000; 0,000; 0,000; 0,000; 0,000; 0,000; 0,000; 0,000; 0,000; 0,000; 0,000; 0,000; 0,000; 0,000; 0,000; 0,000; 0,000; 0,000; 0,000; 0,000; 0,000; 0,000; 0,000; 0,000; 0,000; 0,000; 0,000; 0,000; 0,000; 0,000; 0,000; 0,000; 0,000; 0,000; 0,000; 0,000; 0,000; 0,000; 0,000; 0,000; 0,000; 0,000; 0,000; 0,000; 0,000; 0,000; 0,000; 0,000; 0,000; 0,000; 0,000; 0,000; 0,000; 0,000; 0,000; 0,000; 0,000; 0,000; 0,000; 0,000; 0,000; 0,000; 0,000; 0,000; 0,000; 0,000; 0,000; 0,000; 0,000; 0,000; 0,000; 0,000; 0,000; 0,000; 0,000; 0,000; 0,000; 0,000; 0,000; 0,000; 0,000; 0,000; 0,000; 0,000; 0,000; 0,000; 0,000; 0,000; 0,000; 0,000; 0,000; 0,000; 0,000; 0,000; 0,000; 0,000; 0,000; 0,000; 0,000; 0,000; 0,000; 0,000; 0,000; 0,000; 0,000; 0,000; 0,000; 0,000; 0,000; 0,000; 0,000; 0,000; 0,000; 0,000; 0,000; 0,000; 0,000; 0,000; 0,000; 0,000; 0,000; 0,000; 0,000; 0,000; 0,000; 0,000; 0,000; 0,000; 0,000; 0,000; 0,000; 0,000; 0,000; 0,000; 0,000; 0,000; 0,000; 0,000; 0,000; 0,000; 0,000; 0,000; 0,000; 0,000; 0,000; 0,000; 0,000; 0,000; 0,000; 0,000; 0,000; 0,000; 0,000; 0,000; 0,000; 0,000; 0,000; 0,000; 0,000; 0,000; -0,000; 0,000; 0,000; 0,000; 0,000; 0,000; 0,000; 0,000; 0,000; 0,000; 0,000; 0,000; 0,000; 0,000; 0,000; 0,000; 0,000; 0,000; 0,000; 0,000; 0,000; 0,000; 0,000; 0,000; 0,000; 0,000; 0,000; 0,000; 0,000; 0,000; 0,000; 0,000; -0,000; 0,000; 0,000; 0,000; 0,000; 0,000; 0,000; 0,000; 0,000; 0,000; 0,000; 0,000; 0,000; 0,000; 0,000; 0,000; 0,000; 0,000; 0,000; 0,000; 0,000; 0,000; 0,000; 0,000; -0,000; -0,000; 0,000; 0,000; 0,000; 0,000; 0,000; -0,000; -0,000; -0,000; 0,000; 0,000; 0,000; 0,000; 0,000; 0,000; 0,000; 0,000; 0,000; 0,000; 0,000; 0,000; 0,000; 0,000; 0,000; 0,000; 0,000; 0,000; 0,000; 0,000; 0,000; -0,000; -0,000; -0,000; 0,000; 0,000; 0,000; 0,000; -0,000; -0,000; -0,000; -0,000; 0,000; 0,000; 0,000; 0,000; 0,000; 0,000; 0,000; 0,000; 0,000; 0,000; 0,000; 0,000; 0,000; 0,000; 0,000; 0,000; 0,000; 0,000; 0,000; 0,000; 0,000; 0,000; -0,000; -0,000; 0,000; 0,000; 0,000; 0,000; 0,000; -0,000; -0,000; 0,000; 0,000; 0,000; 0,000; 0,000; 0,000; 0,000; 0,000; 0,000; 0,000; 0,000; 0,000; 0,000; 0,000; 0,000; 0,000; 0,000; 0,000; 0,000; 0,000; 0,000; 0,000; 0,000; -0,000; -0,000; 0,000; 0,000; 0,000; 0,000; 0,000; -0,000; -0,000; 0,000; 0,000; 0,000; 0,000; 0,000; 0,000; 0,000; 0,000; 0,000; 0,000; 0,000; 0,000; 0,000; 0,000; 0,000; 0,000; 0,000; 0,000; 0,000; 0,000; 0,000; 0,000; -0,000; -0,000; -0,000; -0,000; -0,000; 0,000; -0,000; -0,000; -0,000; -0,000; -0,000; 0,000; 0,000; 0,000; 0,000; 0,000; 0,000; 0,000; 0,000; 0,000; 0,000; 0,000; 0,000; 0,000; 0,000; 0,000; 0,000; 0,000; 0,000; 0,000; 0,000; 0,000; -0,000; -0,000; -0,000; -0,000; -0,000; -0,000; -0,000; -0,000; -0,000; -0,000; -0,000; 0,000; 0,000; 0,000; 0,000; 0,000; 0,000; 0,000; 0,000; 0,000; 0,000; 0,000; 0,000; 0,000; 0,000; 0,000; 0,000; 0,000; 0,000; 0,000; 0,000; 0,000; 0,000; 0,000; 0,000; -0,000; 0,000; -0,000; -0,000; -0,000; 0,000; 0,000; 0,000; 0,000; 0,000; 0,000; 0,000; 0,000; 0,000; 0,000; 0,000; 0,000; 0,000; 0,000; 0,000; 0,000; 0,000; 0,000; 0,000; 0,000; 0,000; 0,000; 0,000; 0,000; 0,000; 0,000; -0,000; -0,000; -0,000; 0,000; 0,000; 0,000; 0,000; -0,000; -0,000; 0,000; 0,000; 0,000; 0,000; 0,000; 0,000; 0,000; 0,000; 0,000; 0,000; 0,000; 0,000; 0,000; 0,000; 0,000; 0,000; 0,000; 0,000; 0,000; 0,000; 0,000; 0,000; -0,000; -0,000; -0,000; -0,000; 0,000; 0,000; 0,000; -0,000; -0,000; 0,000; 0,000; 0,000; 0,000; 0,000; 0,000; 0,000; 0,000; 0,000; 0,000; 0,000; 0,000; 0,000; 0,000; 0,000; 0,000; 0,000; 0,000; 0,000; 0,000; 0,000; 0,000; 0,000; 0,000; 0,000; -0,000; -0,000; 0,000; 0,000; 0,000; 0,000; -0,000; 0,000; 0,000; 0,000; 0,000; 0,000; 0,000; 0,000; 0,000; 0,000; 0,000; -0,000; -0,000; -0,000; 0,000; 0,000; 0,000; 0,000; 0,000; 0,000; 0,000; 0,000; 0,000; 0,000; 0,000; 0,000; 0,000; 0,000; 0,000; 0,000; 0,000; 0,000; 0,000; 0,000; 0,000; 0,000; 0,000; 0,000; 0,000; 0,000; 0,000; 0,000; 0,000; -0,000; -0,000; -0,000; -0,000; 0,000; 0,000; 0,000; 0,000; 0,000; 0,000; 0,000; 0,000; 0,000; 0,000; 0,000; 0,000; 0,000; 0,000; 0,000; 0,000; 0,000; 0,000; 0,000; 0,000; 0,000; 0,000; 0,000; 0,000; 0,000; 0,000; 0,000; 0,000; 0,000; 0,000; 0,000; 0,000; 0,000; 0,000; 0,000; 0,000; 0,000; 0,000; 0,000; 0,000; 0,000; 0,000; 0,000; 0,000; 0,000; 0,000; 0,000; 0,000; 0,000; 0,000; 0,000; 0,000; 0,000; 0,000; 0,000; 0,000; 0,000; 0,000; 0,000; 0,000; 0,000; 0,000; 0,000; 0,000; 0,000; 0,000; 0,000; 0,000; 0,000; 0,000; 0,000; 0,000; 0,000; 0,000; 0,000; 0,000; 0,000; 0,000; 0,000; 0,000; 0,000; 0,000; 0,000; 0,000; 0,000; 0,000; 0,000; 0,000; 0,000; 0,000; 0,000; 0,000; 0,000; 0,000; 0,000; 0,000; 0,000; 0,000; 0,000; 0,000; 0,000; 0,000; 0,000; 0,000; 0,000; 0,000; 0,000; 0,000; 0,000; 0,000; 0,000; 0,000; 0,000; -0,000; 0,000; 0,000; 0,000; 0,000; 0,000; 0,000; 0,000; 0,000; 0,000; 0,000; 0,000; 0,000; 0,000; 0,000; 0,000; 0,000; 0,000; 0,000; 0,000; 0,000; 0,000; 0,000; 0,000; 0,000; 0,000; 0,000; 0,000; 0,000; 0,000; 0,000; 0,000; -0,000; -0,000; 0,000; 0,000; 0,000; 0,000; 0,000; 0,000; 0,000; 0,000; 0,000; 0,000; 0,000; 0,000; 0,000; 0,000; 0,000; 0,000; 0,000; 0,000; 0,000; 0,000; 0,000; 0,000; 0,000; 0,000; 0,000; 0,000; 0,000; 0,000; 0,000; 0,000; 0,000; 0,000; 0,000; 0,000; 0,000; 0,000; 0,000; 0,000; 0,000; 0,000; 0,000; 0,000; 0,000; 0,000; 0,000; 0,000; 0,000; 0,000; 0,000; 0,000; 0,000; 0,000; 0,000; 0,000; 0,000; 0,000; 0,000; 0,000; 0,000; 0,000; 0,000; 0,000; 0,000; 0,000; 0,000; 0,000; 0,000; 0,000; 0,000; 0,000; 0,000; 0,000; 0,000; 0,000; 0,000; 0,000; 0,000; 0,000; 0,000; 0,000; 0,000; 0,000; 0,000; 0,000; 0,000; 0,000; 0,000; 0,000; 0,000; 0,000; 0,000; 0,000; 0,000; 0,000; 0,000; 0,000; 0,000; 0,000; 0,000; 0,000; 0,000; 0,000; 0,000; 0,000; 0,000; 0,000; 0,000; 0,000; 0,000; 0,000; 0,000; 0,000; 0,000; 0,000; 0,000; 0,000; 0,000; 0,000; 0,000; 0,000; 0,000; 0,000; 0,000; 0,000; 0,000; 0,000; 0,000; 0,000; 0,000; 0,000; 0,000; 0,000; 0,000; 0,000; 0,000; 0,000; 0,000; 0,000; 0,000; 0,000; 0,000; 0,000; 0,000; 0,000; 0,000; 0,000; 0,000; 0,000; 0,000; 0,000; 0,000; 0,000; 0,000; 0,000; 0,000; 0,000; 0,000; 0,000; 0,000; 0,000; 0,000; 0,000; 0,000; 0,000; 0,000; 0,000; 0,000; 0,000; 0,000; 0,000; 0,000; 0,000; 0,000; 0,000; 0,000; 0,000; 0,000; 0,000; 0,000; 0,000; 0,000; 0,000; 0,000; 0,000; 0,000; 0,000; -0,005; 0,000; 0,000; 0,000; 0,000; 0,000; 0,000; 0,000; 0,000; -0,000; -0,000; -0,000; -0,000; 0,000; 0,000; -0,000; -0,000; -0,000; -0,000; -0,000; -0,000; -0,000; -0,000; -0,000; 0,000; 0,000; 0,000; 0,000; 0,000; 0,000; 0,000; 0,000; 0,000; 0,000; 0,000; 0,000; 0,000; 0,000; 0,000; 0,000; 0,000; 0,000; 0,000; 0,000; 0,000; 0,000; 0,000; 0,000; 0,000; 0,000; 0,000; 0,000; -0,000; 0,000; 0,000; 0,000; 0,000; 0,000; 0,000; 0,000; 0,000; 0,000; 0,000; 0,000; 0,000; 0,000; 0,000; 0,000; 0,000; 0,000; 0,000; 0,000; 0,000; 0,000; 0,000; -0,000; 0,000; 0,000; 0,000; -0,000; -0,000; -0,000; -0,000; -0,000; -0,000; -0,000; -0,000; 0,000; 0,000; 0,000; 0,000; 0,000; 0,000; 0,000; 0,000; 0,000; 0,000; 0,000; 0,000; 0,000; 0,000; 0,000; 0,000; 0,000; 0,000; 0,000; -0,000; -0,000; -0,000; -0,000; -0,000; -0,000; -0,000; -0,000; -0,000; -0,000; -0,000; -0,000; 0,000; 0,000; 0,000; 0,000; 0,000; 0,000; 0,000; 0,000; -0,000; 0,000; 0,000; 0,000; 0,000; 0,000; 0,000; 0,000; 0,000; 0,000; 0,000; -0,000; -0,000; -0,000; -0,000; -0,000; -0,000; -0,000; -0,000; -0,000; -0,000; -0,000; -0,000; -0,000; 0,000; 0,000; 0,000; 0,000; 0,000; 0,000; 0,000; 0,000; 0,000; 0,000; 0,000; 0,000; 0,000; 0,000; 0,000; 0,000; 0,000; 0,000; 0,000; -0,000; -0,000; -0,000; -0,000; -0,000; -0,000; -0,000; -0,000; -0,000; -0,000; -0,000; -0,000; -0,000; -0,000; 0,000; 0,000; 0,000; 0,000; 0,000; 0,000; 0,000; 0,000; 0,000; 0,000; 0,000; 0,000; 0,000; 0,000; 0,000; 0,000; 0,000; -0,000; -0,000; -0,000; -0,000; -0,000; -0,000; -0,000; -0,000; -0,000; -0,000; -0,000; -0,000; -0,000; -0,000; -0,000; -0,000; -0,000; -0,000; -0,000; -0,000; 0,000; 0,000; -0,000; 0,000; -0,000; 0,000; 0,000; 0,000; 0,000; 0,000; 0,000; 0,000; -0,000; -0,000; -0,000; -0,000; -0,000; -0,000; -0,000; -0,000; -0,000; -0,000; -0,000; -0,000; -0,000; -0,000; -0,000; -0,000; -0,000; 0,000; 0,000; 0,000; 0,000; -0,000; -0,000; 0,000; 0,000; 0,000; 0,000; 0,000; 0,000; -0,000; -0,000; -0,000; -0,000; -0,000; -0,000; -0,000; -0,000; -0,000; -0,000; -0,000; -0,000; -0,000; -0,000; -0,000; -0,000; -0,000; -0,000; -0,000; -0,000; 0,000; 0,000; 0,000; 0,000; 0,000; 0,000; 0,000; 0,000; 0,000; 0,000; 0,000; 0,000; -0,000; -0,000; -0,000; -0,000; -0,000; -0,000; -0,000; -0,000; -0,000; -0,000; -0,000; -0,000; -0,000; -0,000; -0,000; -0,000; -0,000; -0,000; -0,000; -0,000; -0,000; 0,000; 0,000; 0,000; 0,000; 0,000; 0,000; 0,000; 0,000; 0,000; 0,000; 0,000; -0,000; -0,000; -0,000; -0,000; -0,000; -0,000; -0,000; -0,000; -0,000; -0,000; -0,000; -0,000; -0,000; -0,000; -0,000; -0,000; -0,000; -0,000; -0,000; -0,000; -0,000; 0,000; 0,000; 0,000; 0,000; 0,000; 0,000; 0,000; 0,000; 0,000; 0,000; 0,000; 0,000; -0,000; 0,000; -0,000; -0,000; -0,000; -0,000; -0,000; -0,000; -0,000; -0,000; -0,000; -0,000; -0,000; -0,000; -0,000; -0,000; -0,000; -0,000; 0,000; 0,000; 0,000; 0,000; 0,000; 0,000; 0,000; 0,000; 0,000; 0,000; 0,000; 0,000; 0,000; 0,000; 0,000; -0,000; 0,000; 0,000; -0,000; -0,000; -0,000; -0,000; -0,000; -0,000; -0,000; -0,000; -0,000; -0,000; -0,000; -0,000; -0,000; -0,000; 0,000; 0,000; 0,000; 0,000; 0,000; 0,000; 0,000; 0,000; 0,000; 0,000; 0,000; 0,000; 0,000; 0,000; 0,000; 0,000; 0,000; 0,000; -0,000; -0,000; -0,000; -0,000; -0,000; -0,000; -0,000; -0,000; -0,000; -0,000; -0,000; -0,000; -0,000; -0,000; 0,000; 0,000; 0,000; 0,000; 0,000; 0,000; 0,000; 0,000; 0,000; 0,000; 0,000; 0,000; 0,000; 0,000; 0,000; 0,000; 0,000; 0,000; -0,000; -0,000; -0,000; -0,000; -0,000; -0,000; -0,000; -0,000; -0,000; -0,000; -0,000; -0,000; -0,000; 0,000; 0,000; 0,000; 0,000; 0,000; 0,000; 0,000; 0,000; 0,000; 0,000; 0,000; 0,000; 0,000; 0,000; 0,000; 0,000; 0,000; 0,000; 0,000; 0,000; -0,000; -0,000; -0,000; -0,000; -0,000; -0,000; -0,000; -0,000; -0,000; -0,000; 0,000; 0,000; 0,000; 0,000; 0,000; 0,000; 0,000; 0,000; 0,000; 0,000; 0,000; 0,000; -0,000; 0,000; 0,000; 0,000; 0,000; 0,000; 0,000; 0,000; 0,000; 0,000; 0,000; 0,000; -0,000; -0,000; -0,000; -0,000; -0,000; -0,000; -0,000; -0,000; -0,000; 0,000; 0,000; 0,000; 0,000; 0,000; 0,000; 0,000; 0,000; 0,000; 0,000; 0,000; 0,000; 0,000; 0,000; 0,000; 0,000; 0,000; 0,000; 0,000; 0,000; 0,000; 0,000; -0,000; -0,000; -0,000; -0,000; -0,000; -0,000; -0,000; -0,000; -0,000; -0,000; -0,000; 0,000; 0,000; 0,000; 0,000; 0,000; 0,000; 0,000; 0,000; 0,000; -0,000; 0,000; 0,000; 0,000; 0,000; 0,000; 0,000; 0,000; 0,000; 0,000; 0,000; -0,000; -0,000; -0,000; -0,000; -0,000; -0,000; -0,000; -0,000; -0,000; -0,000; -0,000; -0,000; 0,000; -0,000; -0,000; 0,000; 0,000; 0,000; 0,000; 0,000; 0,000; 0,000; 0,000; 0,000; 0,000; 0,000; -0,000; 0,000; 0,000; 0,000; -0,000; -0,000; -0,000; -0,000; -0,000; -0,000; -0,000; -0,000; -0,000; -0,000; -0,000; -0,000; -0,000; -0,000; -0,000; -0,000; 0,000; 0,000; 0,000; 0,000; 0,000; 0,000; 0,000; 0,000; 0,000; 0,000; 0,000; 0,000; -0,000; 0,000; 0,000; 0,000; -0,000; -0,000; -0,000; -0,000; -0,000; -0,000; -0,000; -0,000; -0,000; -0,000; -0,000; -0,000; -0,000; -0,000; -0,000; -0,000; -0,000; -0,000; -0,000; -0,000; 0,000; 0,000; 0,000; 0,000; 0,000; 0,000; 0,000; 0,000; 0,000; 0,000; 0,000; -0,000; -0,000; -0,000; -0,000; -0,000; -0,000; -0,000; -0,000; -0,000; -0,000; -0,000; -0,000; -0,000; -0,000; -0,000; -0,000; -0,000; -0,000; -0,000; -0,000; -0,000; 0,000; 0,000; 0,000; 0,000; 0,000; 0,000; 0,000; 0,000; 0,000; 0,000; -0,000; -0,000; -0,000; -0,000; -0,000; -0,000; -0,000; -0,000; -0,000; -0,000; -0,000; -0,000; -0,000; -0,000; -0,000; -0,000; -0,000; -0,000; -0,000; -0,000; -0,000; 0,000; 0,000; 0,000; 0,000; 0,000; 0,000; 0,000; 0,000; 0,000; 0,000; 0,000; -0,000; -0,000; -0,000; -0,000; -0,000; -0,000; -0,000; -0,000; -0,000; -0,000; -0,000; -0,000; -0,000; -0,000; -0,000; -0,000; -0,000; -0,000; -0,000; -0,000; -0,000; -0,000; 0,000; 0,000; 0,000; 0,000; 0,000; 0,000; 0,000; 0,000; 0,000; -0,000; -0,000; -0,000; -0,000; -0,000; -0,000; -0,000; -0,000; -0,000; -0,000; -0,000; -0,000; -0,000; -0,000; -0,000; -0,000; -0,000; -0,000; -0,000; -0,000; -0,000; -0,000; -0,000; 0,000; 0,000; 0,000; 0,000; 0,000; 0,000; 0,000; 0,000; -0,000; -0,000; -0,000; -0,000; -0,000; -0,000; -0,000; -0,000; -0,000; -0,000; -0,000; -0,000; -0,000; -0,000; -0,000; -0,000; -0,000; -0,000; -0,000; -0,000; -0,000; -0,000; -0,000; -0,000; 0,000; 0,000; 0,000; 0,000; 0,000; 0,000; 0,000; 0,000; -0,000; -0,000; -0,000; -0,000; -0,000; -0,000; -0,000; -0,000; -0,000; -0,000; -0,000; -0,000; -0,000; -0,000; -0,000; -0,000; -0,000; -0,000; -0,000; -0,000; -0,000; -0,000; -0,000; -0,000; 0,000; 0,000; 0,000; 0,000; 0,000; 0,000; 0,000; 0,000; -0,000; -0,000; -0,000; -0,000; -0,000; -0,000; -0,000; -0,000; -0,000; -0,000; -0,000; -0,000; -0,000; -0,000; -0,000; -0,000; -0,000; -0,000; -0,000; -0,000; -0,000; -0,000; -0,000; -0,000; 0,000; 0,000; 0,000; 0,000; 0,000; 0,000; 0,000; 0,000; -0,000; -0,000; -0,000; -0,000; -0,000; -0,000; -0,000; -0,000; -0,000; -0,000; -0,000; -0,000; -0,000; -0,000; -0,000; -0,000; -0,000; -0,000; -0,000; -0,000; -0,000; -0,000; -0,000; -0,000; -0,000; 0,000; 0,000; 0,000; 0,000; 0,000; 0,000; 0,000; 0,000; 0,000; 0,000; -0,000; -0,000; -0,000; -0,000; -0,000; -0,000; -0,000; -0,000; -0,000; -0,000; -0,000; -0,000; -0,000; -0,000; -0,000; 0,000; 0,000; -0,000; -0,000; 0,000; 0,000; 0,000; 0,000; 0,000; 0,000; 0,000; 0,000; 0,000; 0,000; 0,000; 0,000; 0,000; 0,000; -0,000; -0,000; -0,000; -0,000; -0,000; -0,000; -0,000; -0,000; 0,000; -0,000; 0,000; 0,000; -0,000; 0,000; 0,000; 0,000; 0,000; 0,000; 0,000; 0,000; 0,000; 0,000; 0,000; 0,000; 0,000; 0,000; 0,000; 0,000; -0,000; -0,000; 0,000; 0,000; -0,000; -0,000; -0,000; -0,000; -0,000; -0,000; -0,000; -0,000; -0,000; -0,000; -0,000; -0,000; -0,000; -0,000; -0,000; -0,000; -0,000; -0,000; -0,000; 0,000; 0,000; 0,000; -0,000; 0,000; -0,000; -0,000; -0,000; -0,000; -0,000; -0,000; -0,000; -0,000; -0,000; -0,000; -0,000; -0,000; -0,000; -0,000; -0,000; -0,000; -0,000; -0,000; -0,000; -0,000; -0,000; -0,000; -0,000; -0,000; -0,000; -0,000; -0,000; -0,000; -0,000; -0,000; -0,000; -0,000; -0,000; -0,000; -0,000; -0,000; -0,000; -0,000; -0,000; -0,000; -0,000; -0,000; -0,000; -0,000; -0,000; -0,000; -0,000; -0,000; -0,000; -0,000; -0,000; -0,000; -0,000; -0,000; -0,000; -0,000; -0,000; -0,000; -0,000; -0,000; -0,000; -0,000; -0,000; -0,000; -0,000; -0,000; -0,000; -0,000; -0,000; -0,000; -0,000; -0,000; -0,000; -0,000; -0,000; -0,000; 