-2,309; 0,123; -0,017; -0,089; -0,049; 0,000; -0,072; -0,091; -0,040; 0,007; -0,025; -0,038; -0,044; 0,018; 0,039; 0,048; 0,041; -0,010; -0,021; -0,028; -0,065; -0,011; -0,000; -0,052; -0,064; -0,111; -0,132; -0,130; -0,092; -0,082; -0,100; 0,004; 0,128; 0,007; -0,038; -0,104; -0,038; -0,012; -0,039; 0,005; -0,037; 0,009; 0,017; -0,019; 0,007; 0,014; 0,029; 0,048; 0,069; 0,025; 0,041; 0,023; 0,002; 0,047; 0,074; 0,001; 0,040; 0,015; 0,004; -0,033; -0,032; -0,032; -0,120; -0,060; -0,004; -0,096; -0,122; -0,120; -0,068; -0,054; -0,040; -0,038; -0,047; 0,027; 0,018; -0,011; 0,019; 0,059; 0,090; -0,005; -0,019; 0,028; 0,064; 0,023; 0,055; 0,020; 0,008; -0,013; -0,010; -0,063; -0,021; -0,016; -0,010; 0,014; -0,071; -0,106; -0,070; -0,035; -0,010; -0,023; -0,049; -0,116; -0,110; -0,095; -0,037; 0,021; -0,017; -0,018; 0,006; 0,039; 0,031; -0,034; -0,040; 0,008; 0,073; -0,004; 0,015; -0,003; -0,004; 0,027; 0,015; -0,066; 0,014; 0,031; 0,059; 0,018; -0,009; -0,044; -0,049; -0,069; -0,003; -0,016; -0,068; -0,067; -0,079; -0,047; 0,008; -0,070; -0,073; -0,029; -0,007; -0,002; 0,045; 0,005; 0,022; -0,000; 0,035; -0,072; 0,009; 0,064; 0,022; 0,042; 0,054; -0,013; -0,002; -0,036; 0,028; 0,030; -0,003; -0,065; -0,076; -0,027; 0,065; 0,056; -0,002; -0,003; -0,023; -0,055; 0,015; -0,080; -0,049; -0,021; 0,011; -0,039; -0,036; -0,050; 0,032; 0,003; -0,030; -0,052; 0,023; 0,022; -0,004; -0,057; -0,057; -0,085; -0,101; -0,111; 0,032; 0,028; -0,033; -0,045; -0,044; -0,025; 0,058; 0,085; 0,011; -0,013; -0,007; -0,054; -0,002; -0,068; -0,075; -0,044; -0,005; -0,106; -0,147; -0,079; -0,024; -0,076; -0,097; -0,093; -0,074; -0,053; -0,075; -0,109; -0,095; -0,057; -0,016; -0,022; 0,041; -0,046; -0,071; -0,031; -0,041; -0,028; 0,063; 0,087; 0,035; -0,004; -0,030; -0,026; -0,050; -0,113; -0,171; -0,115; -0,082; -0,135; -0,177; -0,113; -0,067; -0,128; -0,141; -0,177; -0,139; -0,011; -0,046; -0,083; -0,103; -0,031; -0,037; -0,053; 0,054; -0,018; -0,020; 0,057; 0,012; -0,008; 0,034; 0,102; 0,056; -0,014; -0,068; -0,052; -0,089; -0,083; -0,150; -0,172; -0,162; -0,170; -0,202; -0,162; -0,093; -0,164; -0,179; -0,205; -0,147; -0,090; -0,077; -0,063; -0,047; -0,069; -0,172; -0,140; 0,009; 0,057; 0,047; 0,126; -0,010; 0,051; 0,072; 0,077; 0,005; -0,007; 0,003; -0,036; -0,062; -0,127; -0,220; -0,185; -0,190; -0,182; -0,214; -0,195; -0,176; -0,231; -0,281; -0,277; -0,204; -0,192; -0,151; -0,106; -0,134; -0,084; -0,087; -0,067; -0,034; 0,058; 0,119; 0,151; 0,023; 0,035; 0,084; 0,054; 0,018; -0,014; 0,005; -0,057; -0,021; -0,045; -0,145; -0,163; -0,170; -0,143; -0,167; -0,215; -0,173; -0,203; -0,262; -0,231; -0,113; -0,193; -0,154; -0,142; -0,157; -0,082; -0,001; 0,046; 0,072; 0,078; 0,072; 0,087; -0,002; 0,065; 0,095; 0,075; 0,032; -0,000; 0,004; 0,016; 0,002; -0,005; -0,092; -0,061; -0,086; -0,134; -0,126; -0,201; -0,099; -0,133; -0,148; -0,124; -0,117; -0,171; -0,117; -0,120; -0,031; -0,025; 0,029; 0,062; 0,110; 0,090; 0,024; 0,088; 0,033; 0,028; 0,065; 0,048; 0,034; 0,105; 0,045; -0,049; -0,040; 0,020; -0,075; -0,064; -0,089; -0,182; -0,174; -0,189; -0,086; -0,124; -0,195; -0,093; -0,038; -0,074; -0,123; 0,003; 0,069; 0,010; 0,055; 0,154; 0,183; 0,172; 0,143; 0,177; 0,079; -0,018; 0,071; 0,074; 0,008; 0,112; 0,048; -0,051; -0,002; 0,102; -0,023; -0,042; -0,007; -0,044; -0,077; -0,084; -0,080; -0,098; -0,069; -0,080; -0,052; -0,013; -0,046; -0,013; 0,090; 0,074; 0,123; 0,195; 0,127; 0,112; 0,164; 0,149; 0,066; -0,025; 0,067; 0,058; 0,033; 0,093; 0,077; 0,166; 0,101; 0,077; -0,001; -0,035; 0,026; 0,003; -0,072; -0,049; -0,028; -0,006; 0,029; -0,031; -0,103; -0,105; -0,044; -0,010; 0,025; 0,020; 0,108; 0,110; 0,021; 0,049; 0,112; 0,118; 0,061; -0,047; 0,018; 0,079; 0,066; 0,096; 0,092; 0,241; 0,134; 0,132; 0,108; 0,073; 0,018; 0,034; 0,010; 0,014; -0,046; -0,002; 0,058; 0,065; -0,016; -0,016; 0,122; 0,094; 0,073; 0,114; 0,165; 0,124; 0,076; 0,059; 0,110; 0,087; 0,045; -0,054; 0,008; 0,106; 0,037; 0,126; 0,161; 0,139; 0,048; 0,055; 0,051; 0,128; 0,114; 0,073; 0,087; 0,035; -0,004; 0,013; -0,054; -0,026; 0,075; 0,090; 0,142; 0,089; 0,065; 0,108; 0,160; 0,120; 0,107; 0,105; 0,101; 0,037; 0,007; -0,014; 0,028; 0,114; 0,094; 0,155; 0,102; 0,146; 0,135; 0,111; 0,109; 0,183; 0,192; 0,076; 0,059; -0,029; 0,026; 0,080; 0,003; 0,007; 0,067; 0,051; 0,064; 0,095; 0,057; 0,121; 0,146; 0,061; 0,076; 0,014; 0,045; 0,019; -0,042; 0,036; 0,092; 0,111; 0,112; 0,042; 0,058; 0,184; 0,168; 0,183; 0,227; 0,173; 0,065; 0,062; 0,077; -0,066; -0,031; 0,158; 0,135; 0,023; 0,028; 0,064; 0,058; 0,126; 0,075; 0,084; 0,079; 0,095; 0,095; -0,016; 0,049; 0,075; -0,047; 0,039; 0,006; 0,011; -0,025; 0,004; 0,033; 0,119; 0,098; 0,068; 0,133; 0,027; -0,060; 0,069; 0,035; -0,050; -0,018; 0,071; 0,050; 0,020; 0,066; 0,074; 0,038; 0,004; 0,054; -0,005; 0,019; 0,057; 0,052; -0,004; 0,039; 0,028; -0,105; 0,048; -0,022; 0,034; -0,021; -0,033; 0,002; 0,027; 0,004; -0,002; 0,168; 0,128; 0,029; 0,002; -0,017; -0,015; -0,052; -0,053; 0,001; -0,018; -0,049; 0,041; -0,031; -0,040; 0,041; 0,047; 0,089; 0,048; 0,041; 0,001; 0,016; 0,007; -0,002; 0,022; -0,039; 0,048; 0,022; -0,050; 0,015; -0,033; -0,017; 0,034; 0,173; 0,119; 0,041; 0,049; 0,034; 0,026; -0,031; -0,002; -0,034; -0,072; -0,040; -0,017; -0,031; 0,021; 0,018; 0,051; 0,047; 0,073; 0,013; -0,011; 0,019; 0,045; 0,081; 0,055; 0,032; 0,059; 0,036; -0,059; -0,021; -0,042; -0,045; -0,013; 0,050; 0,067; 0,008; -0,021; -0,062; 0,006; 0,000; -0,043; -0,081; -0,014; 0,093; 0,036; 0,024; 0,103; 0,016; -0,015; -0,039; 0,006; 0,016; -0,048; -0,027; 0,041; 0,044; 0,085; -0,008; 0,071; 0,087; 0,017; -0,017; -0,010; 0,021; 0,068; 0,054; 0,050; -0,007; -0,047; -0,014; 0,019; -0,034; 0,024; 0,051; 0,087; 0,007; -0,079; -0,066; 0,039; 0,008; -0,087; -0,050; -0,063; -0,063; -0,106; -0,048; -0,038; -0,005; 0,107; 0,010; 0,008; 0,117; 0,014; -0,030; 0,060; 0,026; 0,019; 0,017; -0,016; -0,066; -0,010; -0,031; -0,039; -0,056; 0,001; -0,001; -0,009; -0,052; -0,055; -0,054; 0,038; 0,055; -0,019; 0,031; -0,000; -0,027; -0,090; 0,019; 0,019; 0,018; 0,074; 0,058; 0,016; 0,024; -0,015; -0,033; 0,009; 0,006; -0,050; -0,109; -0,030; 0,018; 0,007; -0,110; -0,092; -0,078; -0,056; -0,065; -0,075; 0,004; -0,024; -0,010; 0,023; -0,007; 0,023; 0,049; -0,006; -0,003; -0,025; 0,016; -0,010; 0,023; -0,015; 0,010; 0,017; -0,020; -0,019; -0,029; -0,055; -0,046; 0,007; -0,082; -0,052; 0,013; -0,067; -0,134; -0,082; -0,033; -0,042; -0,113; -0,099; -0,066; -0,068; -0,001; 0,035; -0,041; -0,026; 0,026; -0,001; -0,035; -0,092; -0,008; -0,047; -0,020; -0,032; 0,018; 0,033; -0,024; -0,040; -0,008; 0,020; -0,035; -0,058; -0,057; -0,019; -0,089; -0,057; -0,079; 0,004; -0,016; -0,057; -0,104; -0,055; -0,018; -0,019; -0,048; 0,011; 0,015; -0,052; 0,010; 0,003; -0,043; -0,110; -0,048; -0,039; -0,044; 0,002; -0,011; -0,012; -0,067; -0,125; -0,045; -0,012; -0,020; -0,087; -0,150; -0,072; -0,144; -0,094; -0,105; -0,087; -0,086; -0,131; -0,163; -0,073; -0,057; -0,099; -0,077; 0,001; 0,047; -0,037; -0,048; -0,083; -0,082; -0,145; -0,058; -0,029; -0,055; -0,029; -0,033; -0,060; -0,076; -0,096; -0,054; -0,030; -0,012; -0,036; -0,123; -0,063; -0,084; -0,073; -0,108; -0,142; -0,095; -0,069; -0,141; -0,102; -0,087; -0,075; -0,040; -0,003; 0,062; -0,016; -0,060; -0,096; -0,057; -0,085; -0,061; -0,062; -0,043; -0,071; -0,006; -0,004; 0,005; -0,015; -0,012; -0,028; -0,058; -0,038; -0,057; -0,024; -0,093; -0,046; -0,091; -0,099; -0,062; -0,024; -0,091; -0,018; 0,023; -0,022; 0,009; -0,030; -0,064; -0,040; -0,006; -0,017; -0,037; -0,053; -0,040; -0,068; -0,023; -0,071; -0,048; -0,038; -0,013; -0,044; -0,037; -0,015; -0,072; -0,073; 0,021; 0,066; 0,013; 0,075; 0,026; -0,013; 0,004; 0,045; -0,038; 0,002; -0,025; -0,046; -0,020; -0,051; -0,056; -0,025; -0,042; -0,039; 0,009; 0,028; -0,051; -0,108; -0,100; 0,143; -0,007; -0,074; -0,034; 0,005; -0,059; -0,072; -0,040; -0,019; -0,055; -0,063; -0,083; -0,029; -0,007; 0,013; 0,029; 0,008; -0,028; -0,042; -0,074; -0,040; -0,014; -0,049; -0,045; -0,094; -0,113; -0,084; -0,050; -0,061; -0,084; 0,052; 0,196; 0,045; -0,006; -0,061; 0,014; 0,046; 0,012; 0,035; -0,037; -0,015; -0,014; -0,042; -0,028; -0,023; 0,000; 0,016; 0,052; 0,030; 0,024; 0,002; -0,028; 0,002; 0,056; 0,010; 0,052; 0,022; 0,032; 0,007; 0,005; 0,006; -0,082; 0,006; 0,064; -0,061; -0,091; -0,072; -0,013; 0,023; 0,032; 0,007; -0,032; 0,022; -0,000; -0,036; -0,012; 0,034; 0,080; -0,033; -0,051; -0,020; 0,010; -0,004; 0,008; -0,030; 0,006; 0,026; 0,024; -0,051; -0,007; 0,010; 0,004; 0,048; -0,042; -0,069; -0,035; -0,014; -0,003; 0,025; 0,011; -0,060; -0,027; -0,017; 0,022; 0,063; 0,010; -0,024; -0,014; 0,027; 0,059; -0,021; -0,056; -0,035; 0,041; -0,022; -0,003; -0,021; 0,012; 0,088; 0,060; -0,035; 0,025; 0,046; 0,055; 0,014; -0,025; -0,042; -0,030; -0,079; -0,023; 0,016; -0,019; -0,034; -0,013; 0,033; 0,082; 0,005; -0,009; 0,010; 0,011; 0,020; 0,092; 0,054; 0,050; 0,047; 0,101; -0,024; 0,041; 0,090; 0,086; 0,137; 0,141; 0,074; 0,048; -0,000; 0,047; 0,026; -0,014; -0,048; -0,046; -0,058; 0,029; 0,064; 0,048; 0,047; 0,035; 0,037; 0,119; 0,022; 0,043; 0,040; 0,071; 0,037; 0,027; -0,002; 0,081; 0,109; 0,073; 0,010; 0,075; 0,069; 0,076; 0,045; 0,061; 0,028; -0,030; -0,058; 0,084; 0,063; -0,028; -0,035; -0,033; -0,075; -0,004; 0,060; 0,055; 0,040; 0,054; 0,057; 0,128; 0,080; 0,073; 0,049; 0,087; 0,010; -0,028; -0,006; 0,051; 0,057; 0,022; -0,014; 0,012; 0,029; 0,024; 0,012; 0,043; 0,064; 0,069; 0,025; 0,082; -0,019; -0,091; -0,053; -0,048; -0,108; -0,037; 0,038; 0,060; 0,057; 0,065; 0,098; 0,090; 0,051; 0,011; 0,056; 0,105; 0,047; 0,008; 0,018; 0,049; 0,033; 0,001; -0,052; 0,004; 0,126; 0,092; 0,081; 0,052; 0,108; 0,106; 0,034; 0,092; -0,014; -0,068; 0,011; 0,005; -0,098; -0,070; 0,061; 0,098; 0,054; 0,013; 0,047; 0,046; 0,098; 0,082; 0,087; 0,124; 0,081; 0,039; 0,064; 0,121; 0,066; 0,055; 0,027; 0,072; 0,128; 0,096; 0,112; 0,104; 0,078; -0,022; -0,023; 0,058; 0,020; -0,028; 0,066; -0,036; -0,036; -0,026; 0,047; 0,052; 0,051; 0,059; 0,051; 0,062; 0,066; 0,025; 0,066; 0,111; 0,076; 0,022; 0,058; 0,065; 0,047; 0,038; 0,012; 0,013; 0,031; 0,055; 0,075; 0,029; 0,055; 0,015; 0,009; -0,008; -0,003; 0,032; 0,075; -0,025; -0,067; -0,020; 0,021; 0,044; 0,024; 0,025; -0,011; 0,068; 0,110; 0,075; 0,037; 0,051; 0,050; 0,014; -0,000; 0,017; 0,035; 0,028; 0,011; 0,050; -0,002; 0,053; 0,037; -0,002; 0,027; 0,043; 0,044; 0,043; 0,001; -0,019; -0,003; -0,056; -0,047; -0,011; 0,033; 0,052; -0,002; -0,061; -0,027; 0,026; 0,070; 0,039; 0,045; 0,025; -0,009; 0,002; -0,037; 0,017; -0,004; 0,032; 0,056; -0,001; -0,024; 0,038; -0,002; 0,066; 0,022; -0,026; -0,065; -0,029; -0,058; -0,119; -0,039; -0,045; -0,069; -0,018; -0,007; 0,026; 0,058; -0,075; -0,123; -0,073; 0,002; -0,040; -0,033; -0,038; -0,076; -0,073; -0,080; 0,008; -0,031; -0,094; 0,010; 0,035; -0,019; -0,083; 0,022; 0,070; -0,044; -0,088; -0,060; -0,015; -0,011; -0,048; 0,012; -0,025; -0,043; 0,030; 0,002; -0,076; 0,004; -0,094; -0,178; -0,110; -0,004; -0,067; -0,057; 0,006; 0,007; -0,026; -0,032; -0,042; -0,032; -0,017; -0,032; -0,029; -0,014; -0,080; -0,052; 0,038; -0,031; -0,026; -0,012; -0,058; -0,053; -0,046; -0,058; -0,083; -0,032; 0,009; -0,046; -0,111; -0,098; -0,160; -0,063; -0,077; -0,090; -0,126; -0,121; -0,040; -0,034; -0,081; -0,030; -0,047; -0,009; 0,033; -0,003; -0,061; -0,084; -0,079; -0,067; -0,075; -0,120; -0,045; -0,067; -0,157; -0,131; -0,074; -0,080; -0,099; -0,085; -0,105; -0,066; -0,098; -0,126; -0,205; -0,025; -0,056; -0,045; -0,062; -0,067; -0,099; -0,070; -0,062; -0,023; -0,111; -0,036; -0,004; 0,026; -0,049; -0,066; 0,034; -0,018; -0,105; -0,097; -0,026; -0,058; -0,091; -0,105; -0,065; -0,057; -0,044; -0,071; -0,120; -0,085; -0,168; -0,108; -0,124; -0,121; -0,158; -0,156; -0,167; -0,082; -0,074; -0,086; -0,025; -0,035; -0,068; -0,045; -0,171; -0,146; -0,071; -0,058; -0,008; -0,080; -0,143; -0,114; -0,042; -0,067; -0,063; -0,052; -0,064; -0,058; -0,002; -0,052; -0,127; -0,116; -0,147; -0,098; -0,180; -0,132; -0,105; -0,144; -0,147; -0,072; -0,029; -0,082; -0,066; -0,092; -0,011; -0,016; -0,130; -0,126; -0,107; -0,119; -0,091; -0,059; -0,140; -0,096; -0,067; -0,162; -0,117; -0,118; -0,088; -0,039; -0,017; -0,025; -0,063; -0,119; -0,114; -0,159; -0,141; -0,066; -0,087; -0,072; -0,035; -0,078; -0,125; -0,076; -0,014; -0,113; -0,074; 0,059; 0,023; -0,107; -0,157; -0,119; -0,124; -0,041; -0,121; -0,128; -0,154; -0,162; -0,120; -0,162; -0,081; 0,009; -0,038; -0,004; -0,112; -0,160; -0,187; -0,136; -0,082; -0,047; -0,101; -0,167; -0,136; -0,220; -0,226; -0,052; -0,046; -0,095; -0,058; 0,004; -0,041; -0,073; -0,060; -0,082; -0,107; -0,137; -0,124; -0,198; -0,167; -0,129; -0,132; -0,157; -0,103; -0,057; -0,117; 0,064; -0,066; -0,048; -0,111; -0,131; -0,083; -0,080; -0,130; -0,187; -0,083; -0,083; -0,107; -0,114; -0,103; -0,079; -0,111; -0,084; -0,046; -0,090; -0,130; -0,049; -0,120; -0,153; -0,109; -0,127; -0,053; -0,085; -0,092; -0,114; -0,086; -0,061; -0,026; 0,044; -0,084; -0,020; -0,048; -0,105; -0,029; -0,101; -0,118; -0,110; -0,026; -0,050; -0,050; -0,013; -0,027; -0,065; -0,117; -0,058; -0,082; -0,137; -0,113; -0,072; -0,111; -0,082; -0,097; -0,097; -0,077; -0,048; -0,101; -0,082; -0,028; -0,003; 0,041; 0,053; -0,029; -0,024; -0,034; -0,097; -0,046; -0,087; -0,093; -0,109; -0,095; -0,057; -0,051; -0,043; -0,092; -0,076; -0,074; -0,107; -0,143; -0,094; 0,008; -0,029; -0,062; 0,001; -0,077; -0,119; -0,123; -0,061; -0,046; -0,080; -0,048; 0,006; -0,015; 0,068; -0,086; -0,030; 0,004; -0,063; -0,075; -0,068; -0,027; -0,011; -0,045; -0,046; -0,058; -0,069; -0,027; -0,010; -0,094; -0,029; 0,011; 0,003; -0,089; -0,127; -0,139; -0,044; -0,041; -0,122; -0,086; -0,076; -0,062; -0,101; -0,040; -0,046; -0,039; 0,086; -0,056; -0,055; 0,049; -0,053; -0,098; -0,036; -0,048; -0,054; -0,058; -0,077; -0,098; -0,025; -0,026; -0,008; -0,051; 0,007; 0,015; -0,050; -0,095; -0,057; -0,089; -0,024; -0,005; -0,092; -0,048; -0,057; -0,057; -0,076; 0,034; 0,021; 0,005; 0,062; 0,022; -0,016; -0,013; -0,047; -0,058; -0,059; -0,047; -0,089; -0,150; -0,054; 0,012; 0,002; -0,074; 0,003; -0,011; 0,002; -0,006; -0,044; -0,000; -0,025; -0,036; -0,051; -0,090; -0,075; -0,055; -0,095; -0,052; -0,020; 0,035; 0,004; 0,035; -0,018; -0,003; 0,001; -0,044; -0,038; -0,014; -0,043; -0,034; 0,052; -0,025; 0,008; 0,067; -0,045; -0,077; 0,027; 0,053; 0,030; -0,038; -0,024; -0,036; -0,072; -0,021; -0,020; -0,081; -0,071; -0,037; -0,046; -0,043; -0,064; 0,046; 0,003; 0,017; -0,017; 0,030; 0,041; -0,027; -0,041; 0,025; 0,071; 0,036; 0,058; 0,073; 0,102; 0,021; 0,013; 0,005; 0,105; 0,059; 0,017; -0,004; 0,032; 0,019; -0,012; -0,046; 0,005; 0,016; -0,046; -0,006; -0,003; -0,010; -0,038; 0,043; 0,041; 0,009; 0,050; 0,041; 0,044; -0,034; -0,107; -0,011; 0,050; 0,080; 0,028; -0,025; 0,044; -0,027; 0,019; 0,028; 0,035; 0,013; -0,010; -0,012; 0,057; 0,002; -0,062; -0,056; 0,018; 0,066; -0,010; -0,013; -0,042; -0,034; -0,072; 0,030; 0,042; -0,020; 0,033; 0,036; 0,006; -0,034; -0,052; 0,005; 0,049; 0,084; 0,058; -0,012; 0,040; 0,021; 0,038; 0,026; -0,000; 0,050; 0,089; 0,022; 0,043; 0,009; -0,002; 0,014; 0,034; 0,107; 0,025; -0,012; -0,048; -0,029; -0,054; -0,003; 0,009; -0,001; 0,002; 0,066; 0,061; 0,047; 0,023; 0,039; 0,039; 0,017; 0,043; 0,043; 0,083; 0,017; 0,052; 0,020; 0,010; 0,067; 0,109; 0,035; 0,098; 0,100; 0,039; 0,062; 0,016; -0,022; 0,001; 0,046; 0,038; -0,005; -0,029; 0,022; 0,020; 0,034; 0,010; 0,020; 0,021; 0,026; -0,016; -0,015; 0,016; -0,020; -0,005; 0,094; 0,146; 0,101; 0,156; 0,120; 0,060; 0,092; 0,141; 0,056; 0,090; 0,040; 0,002; 0,025; -0,015; -0,038; -0,010; -0,004; 0,015; 0,040; 0,047; -0,006; -0,042; -0,064; 0,438; 0,232; 0,148; 0,157; 0,198; 0,140; 0,094; 0,099; 0,127; 0,062; 0,025; 0,001; 0,048; 0,069; 0,111; 0,122; 0,064; 0,016; 0,032; 0,016; 0,068; 0,105; 0,101; 0,134; 0,086; 0,065; 0,066; 0,089; 0,129; 0,132; 0,285; 0,452; 0,258; 0,179; 0,105; 0,163; 0,188; 0,129; 0,131; 0,057; 0,073; 0,047; -0,022; -0,036; -0,040; -0,030; 0,019; 0,052; -0,028; -0,041; -0,030; -0,045; -0,010; 0,053; 0,046; 0,134; 0,102; 0,089; 0,075; 0,090; 0,138; 0,083; 0,183; 0,258; 0,100; 0,044; 0,044; 0,086; 0,115; 0,107; 0,062; 0,012; 0,062; 0,029; -0,042; -0,050; -0,023; 0,024; -0,061; -0,093; -0,111; -0,074; -0,059; -0,049; -0,094; -0,073; -0,021; 0,032; -0,026; 0,011; 0,059; 0,048; 0,111; 0,068; 0,063; 0,106; 0,087; 0,073; 0,067; 0,060; -0,011; 0,012; 0,012; 0,037; 0,082; 0,012; -0,027; -0,035; -0,020; 0,008; -0,067; -0,108; -0,094; -0,016; -0,070; -0,073; -0,121; -0,096; 0,010; 0,039; -0,025; 0,035; 0,070; 0,089; 0,068; 0,063; 0,049; 0,049; -0,020; -0,004; 0,023; -0,004; -0,017; -0,008; 0,045; 0,102; 0,011; -0,015; -0,019; -0,022; -0,024; 0,012; -0,026; -0,005; -0,013; 0,045; -0,084; -0,042; -0,039; -0,057; 0,027; 0,082; 0,065; 0,050; -0,014; 0,076; 0,089; 0,032; -0,010; -0,015; -0,049; -0,004; 0,040; 0,017; 0,018; 0,008; 0,029; 0,123; 0,003; 0,022; -0,002; 0,035; -0,006; -0,053; -0,077; 0,042; 0,072; 0,041; -0,019; 0,025; -0,023; -0,032; -0,065; -0,039; -0,020; -0,044; -0,081; 0,106; 0,113; -0,011; -0,031; -0,029; -0,098; -0,054; 0,009; -0,023; -0,049; -0,015; -0,005; 0,065; 0,002; 0,035; 0,037; 0,092; 0,017; -0,040; -0,007; 0,072; 0,083; 0,046; 0,005; 0,019; 0,004; -0,015; -0,072; -0,057; -0,012; 0,022; 0,001; 0,096; 0,001; -0,091; -0,074; -0,063; -0,135; -0,091; -0,015; -0,013; -0,038; 0,003; 0,028; -0,008; -0,063; -0,046; 0,038; 0,119; 0,086; 0,046; 0,068; 0,092; 0,066; 0,047; -0,010; 0,031; 0,127; 0,057; -0,002; -0,034; 0,035; 0,057; 0,003; 0,085; -0,032; -0,070; 0,008; -0,020; -0,114; -0,118; 0,010; 0,022; -0,049; -0,057; -0,006; -0,021; -0,000; 0,024; 0,078; 0,141; 0,114; 0,094; 0,137; 0,183; 0,131; 0,152; 0,129; 0,129; 0,137; 0,086; 0,074; 0,059; 0,029; -0,057; -0,061; 0,043; -0,005; -0,063; 0,040; -0,071; -0,071; -0,079; -0,021; -0,034; -0,044; 0,001; -0,001; 0,021; -0,003; -0,025; 0,079; 0,157; 0,148; 0,117; 0,175; 0,196; 0,191; 0,190; 0,145; 0,100; 0,078; 0,078; 0,081; 0,037; 0,033; -0,024; -0,031; -0,024; -0,044; -0,034; 0,016; -0,066; -0,102; -0,069; -0,047; -0,041; -0,009; 0,032; -0,021; 0,058; 0,084; 0,057; 0,080; 0,138; 0,185; 0,151; 0,164; 0,186; 0,227; 0,223; 0,155; 0,142; 0,069; 0,126; 0,114; 0,053; 0,031; 0,027; 0,033; 0,033; -0,059; -0,097; -0,076; -0,112; -0,087; -0,077; -0,054; -0,017; 0,004; -0,025; 0,018; 0,058; 0,087; 0,052; 0,098; 0,130; 0,163; 0,193; 0,176; 0,222; 0,180; 0,208; 0,162; 0,058; 0,018; 0,114; 0,112; 0,129; 0,024; -0,026; -0,049; -0,016; -0,100; -0,194; -0,132; -0,119; -0,105; -0,090; -0,084; -0,009; 0,094; 0,015; 0,000; 0,044; 0,088; 0,039; 0,072; 0,098; 0,118; 0,156; 0,139; 0,199; 0,127; 0,071; 0,129; 0,133; 0,084; 0,011; 0,116; 0,125; -0,037; -0,075; -0,044; 0,008; -0,007; -0,075; -0,054; -0,093; -0,067; -0,008; -0,013; -0,033; 0,098; 0,045; -0,024; 0,032; 0,133; 0,084; 0,092; 0,176; 0,188; 0,162; 0,141; 0,108; 0,088; 0,141; 0,139; 0,135; 0,143; 0,037; 0,037; 0,105; 0,041; 0,049; 0,019; -0,036; -0,031; -0,068; -0,125; -0,167; -0,078; -0,013; 0,004; 0,025; 0,060; -0,005; 0,059; 0,027; 0,021; 0,010; -0,001; 0,123; 0,138; 0,099; 0,148; 0,143; 0,142; 0,188; 0,169; 0,129; 0,100; 0,060; 0,048; 0,013; -0,041; 0,040; -0,000; -0,113; -0,106; -0,098; -0,147; -0,205; -0,125; -0,103; 0,014; 0,069; 0,073; -0,040; 0,102; 0,069; 0,097; 0,082; 0,052; 0,043; 0,073; 0,131; 0,194; 0,098; 0,129; 0,171; 0,196; 0,106; 0,066; 0,155; 0,100; -0,005; -0,006; 0,067; 0,015; -0,033; -0,055; 0,006; -0,052; -0,126; -0,073; -0,077; 0,018; 0,009; 0,092; 0,054; 0,033; 0,011; 0,018; -0,009; 0,050; 0,041; 0,020; 0,115; 0,143; 0,088; 0,084; 0,003; 0,045; 0,085; 0,061; 0,145; 0,091; -0,009; -0,004; 0,066; 0,052; 0,074; 0,096; 0,090; 0,003; -0,068; -0,068; -0,056; 0,026; 0,041; 0,115; -0,005; -0,004; 0,027; 0,019; 0,016; 0,046; 0,080; 0,012; 0,035; 0,024; 0,097; 0,069; -0,010; 0,025; 0,034; 0,010; 0,062; 0,105; 0,011; 0,031; 0,051; -0,015; 0,054; 0,080; 0,096; 0,020; -0,080; -0,052; 0,041; 0,093; 0,104; 0,061; 0,031; 0,069; 0,055; 0,085; 0,137; 0,074; -0,017; 0,047; 0,111; 0,022; 0,054; 0,142; 0,114; 0,030; -0,009; 0,014; 0,013; 0,101; 0,036; 0,028; -0,003; 0,009; 0,065; 0,038; 0,099; 0,110; -0,045; -0,026; -0,002; 0,069; 0,030; 0,044; 0,081; 0,098; 0,058; -0,017; 0,005; -0,069; -0,103; 0,089; 0,087; 0,054; 0,105; 0,114; 0,053; 0,061; 0,104; 0,058; 0,037; 0,024; 0,050; -0,021; -0,005; 0,030; 0,049; 0,037; 0,067; 0,050; -0,113; 0,008; 0,007; 0,138; 0,072; 0,026; 0,068; 0,056; 0,027; -0,026; 0,036; 0,014; 0,011; 0,021; 0,049; 0,082; 0,082; 0,063; 0,068; 0,041; 0,032; 0,125; 0,055; 0,018; 0,073; 0,056; 0,104; 0,060; 0,051; 0,053; 0,071; 0,034; -0,027; -0,018; -0,049; 0,112; 0,092; 0,030; 0,077; -0,013; 0,027; 0,019; 0,030; -0,021; 0,024; 0,078; 0,100; 0,093; 0,060; 0,086; 0,035; 0,005; 0,066; 0,099; 0,030; 0,057; 0,052; 0,053; 0,054; 0,067; 0,008; 0,044; 0,122; 0,107; 0,060; 0,019; 0,004; 0,078; 0,088; 0,020; 0,055; 0,003; 0,042; 0,005; -0,075; -0,066; -0,025; 0,017; -0,007; 0,050; 0,057; -0,006; -0,063; 0,011; 0,162; 0,115; 0,043; 0,112; 0,034; 0,005; 0,015; 0,061; 0,069; 0,035; 0,081; 0,104; -0,002; 0,049; -0,059; 0,059; 0,109; 0,041; 0,019; 0,026; 0,087; 0,099; -0,008; -0,031; -0,016; 0,004; 0,056; 0,090; 0,012; 0,026; 0,064; 0,095; 0,041; 0,006; -0,039; 0,043; 0,042; -0,047; 0,013; 0,034; 0,045; -0,008; 0,043; 0,006; -0,039; 0,084; -0,037; 0,013; 0,129; 0,023; -0,012; 0,051; 0,033; 0,010; -0,015; -0,037; -0,017; 0,058; 0,058; 0,102; 0,060; 0,080; 0,086; 0,040; 0,005; 0,028; -0,005; 0,040; 0,053; -0,042; 0,005; 0,017; 0,017; -0,031; 0,066; 0,058; 0,014; 0,078; 0,040; 0,004; 0,027; -0,017; -0,031; -0,007; 0,001; -0,058; -0,122; -0,023; 0,074; 0,060; -0,004; 0,110; 0,087; 0,083; 0,073; 0,021; 0,053; 0,014; 0,017; 0,005; -0,027; -0,010; -0,002; -0,024; 0,016; 0,029; 0,088; 0,092; 0,103; 0,014; 0,013; 0,002; -0,027; -0,037; -0,030; -0,029; -0,016; 0,051; -0,024; -0,002; 0,074; -0,017; -0,037; 0,085; 0,087; 0,065; 0,006; 0,016; 0,007; -0,040; 0,033; 0,030; -0,043; -0,033; 0,007; -0,004; 0,010; -0,002; 0,138; 0,122; 0,118; 0,051; 0,079; 0,063; -0,003; -0,023; 0,019; 0,060; 0,016; 0,024; 0,062; 0,079; 0,013; 0,012; 0,012; 0,123; 0,046; -0,012; -0,031; 0,018; 0,019; -0,008; -0,009; 0,048; 0,037; -0,047; -0,007; 0,009; 0,006; 0,007; 0,133; 0,157; 0,130; 0,152; 0,115; 0,090; -0,004; -0,082; 0,006; 0,047; 0,059; -0,011; -0,054; 0,009; -0,048; -0,004; 0,014; 0,041; 0,002; -0,031; -0,052; 0,025; -0,014; -0,092; -0,058; 0,040; 0,076; -0,028; -0,045; -0,063; -0,022; -0,023; 0,116; 0,166; 0,132; 0,158; 0,122; 0,060; -0,009; -0,052; -0,006; 0,025; 0,043; -0,000; -0,076; -0,028; -0,036; -0,021; -0,004; 0,000; 0,051; 0,096; 0,010; 0,035; 0,008; -0,018; 0,023; 0,055; 0,101; 0,007; -0,040; -0,083; 0,003; 0,039; 0,111; 0,149; 0,158; 0,149; 0,150; 0,105; 0,063; 0,016; 0,005; -0,014; -0,050; -0,042; -0,053; -0,020; -0,085; -0,049; -0,042; -0,019; 0,037; 0,097; 0,022; 0,083; 0,092; 0,037; 0,064; 0,020; -0,036; -0,014; 0,029; 0,004; 0,012; 0,047; 0,136; 0,155; 0,184; 0,147; 0,104; 0,059; 0,045; -0,033; -0,072; -0,059; -0,103; -0,106; -0,031; 0,013; -0,034; 0,014; -0,006; -0,043; -0,009; 0,050; -0,022; 0,023; -0,027; -0,038; -0,004; -0,053; -0,092; -0,056; -0,040; -0,023; 0,037; 0,086; 0,084; 0,080; 0,074; -2,309; 0,123; -0,017; -0,089; -0,049; 0,000; -0,072; -0,091; -0,040; 0,007; -0,025; -0,038; -0,044; 0,018; 0,039; 0,048; 0,041; -0,010; -0,021; -0,028; -0,065; -0,011; -0,000; -0,052; -0,064; -0,111; -0,132; -0,130; -0,092; -0,082; -0,100; 0,004; 0,128; 0,007; -0,038; -0,104; -0,038; -0,012; -0,039; 0,005; -0,037; 0,009; 0,017; -0,019; 0,007; 0,014; 0,029; 0,048; 0,069; 0,025; 0,041; 0,023; 0,002; 0,047; 0,074; 0,001; 0,040; 0,015; 0,004; -0,033; -0,032; -0,032; -0,120; -0,060; -0,004; -0,096; -0,122; -0,120; -0,068; -0,054; -0,040; -0,038; -0,047; 0,027; 0,018; -0,011; 0,019; 0,059; 0,090; -0,005; -0,019; 0,028; 0,064; 0,023; 0,055; 0,020; 0,008; -0,013; -0,010; -0,063; -0,021; -0,016; -0,010; 0,014; -0,071; -0,106; -0,070; -0,035; -0,010; -0,023; -0,049; -0,116; -0,110; -0,095; -0,037; 0,021; -0,017; -0,018; 0,006; 0,039; 0,031; -0,034; -0,040; 0,008; 0,073; -0,004; 0,015; -0,003; -0,004; 0,027; 0,015; -0,066; 0,014; 0,031; 0,059; 0,018; -0,009; -0,044; -0,049; -0,069; -0,003; -0,016; -0,068; -0,067; -0,079; -0,047; 0,008; -0,070; -0,073; -0,029; -0,007; -0,002; 0,045; 0,005; 0,022; -0,000; 0,035; -0,072; 0,009; 0,064; 0,022; 0,042; 0,054; -0,013; -0,002; -0,036; 0,028; 0,030; -0,003; -0,065; -0,076; -0,027; 0,065; 0,056; -0,002; -0,003; -0,023; -0,055; 0,015; -0,080; -0,049; -0,021; 0,011; -0,039; -0,036; -0,050; 0,032; 0,003; -0,030; -0,052; 0,023; 0,022; -0,004; -0,057; -0,057; -0,085; -0,101; -0,111; 0,032; 0,028; -0,033; -0,045; -0,044; -0,025; 0,058; 0,085; 0,011; -0,013; -0,007; -0,054; -0,002; -0,068; -0,075; -0,044; -0,005; -0,106; -0,147; -0,079; -0,024; -0,076; -0,097; -0,093; -0,074; -0,053; -0,075; -0,109; -0,095; -0,057; -0,016; -0,022; 0,041; -0,046; -0,071; -0,031; -0,041; -0,028; 0,063; 0,087; 0,035; -0,004; -0,030; -0,026; -0,050; -0,113; -0,171; -0,115; -0,082; -0,135; -0,177; -0,113; -0,067; -0,128; -0,141; -0,177; -0,139; -0,011; -0,046; -0,083; -0,103; -0,031; -0,037; -0,053; 0,054; -0,018; -0,020; 0,057; 0,012; -0,008; 0,034; 0,102; 0,056; -0,014; -0,068; -0,052; -0,089; -0,083; -0,150; -0,172; -0,162; -0,170; -0,202; -0,162; -0,093; -0,164; -0,179; -0,205; -0,147; -0,090; -0,077; -0,063; -0,047; -0,069; -0,172; -0,140; 0,009; 0,057; 0,047; 0,126; -0,010; 0,051; 0,072; 0,077; 0,005; -0,007; 0,003; -0,036; -0,062; -0,127; -0,220; -0,185; -0,190; -0,182; -0,214; -0,195; -0,176; -0,231; -0,281; -0,277; -0,204; -0,192; -0,151; -0,106; -0,134; -0,084; -0,087; -0,067; -0,034; 0,058; 0,119; 0,151; 0,023; 0,035; 0,084; 0,054; 0,018; -0,014; 0,005; -0,057; -0,021; -0,045; -0,145; -0,163; -0,170; -0,143; -0,167; -0,215; -0,173; -0,203; -0,262; -0,231; -0,113; -0,193; -0,154; -0,142; -0,157; -0,082; -0,001; 0,046; 0,072; 0,078; 0,072; 0,087; -0,002; 0,065; 0,095; 0,075; 0,032; -0,000; 0,004; 0,016; 0,002; -0,005; -0,092; -0,061; -0,086; -0,134; -0,126; -0,201; -0,099; -0,133; -0,148; -0,124; -0,117; -0,171; -0,117; -0,120; -0,031; -0,025; 0,029; 0,062; 0,110; 0,090; 0,024; 0,088; 0,033; 0,028; 0,065; 0,048; 0,034; 0,105; 0,045; -0,049; -0,040; 0,020; -0,075; -0,064; -0,089; -0,182; -0,174; -0,189; -0,086; -0,124; -0,195; -0,093; -0,038; -0,074; -0,123; 0,003; 0,069; 0,010; 0,055; 0,154; 0,183; 0,172; 0,143; 0,177; 0,079; -0,018; 0,071; 0,074; 0,008; 0,112; 0,048; -0,051; -0,002; 0,102; -0,023; -0,042; -0,007; -0,044; -0,077; -0,084; -0,080; -0,098; -0,069; -0,080; -0,052; -0,013; -0,046; -0,013; 0,090; 0,074; 0,123; 0,195; 0,127; 0,112; 0,164; 0,149; 0,066; -0,025; 0,067; 0,058; 0,033; 0,093; 0,077; 0,166; 0,101; 0,077; -0,001; -0,035; 0,026; 0,003; -0,072; -0,049; -0,028; -0,006; 0,029; -0,031; -0,103; -0,105; -0,044; -0,010; 0,025; 0,020; 0,108; 0,110; 0,021; 0,049; 0,112; 0,118; 0,061; -0,047; 0,018; 0,079; 0,066; 0,096; 0,092; 0,241; 0,134; 0,132; 0,108; 0,073; 0,018; 0,034; 0,010; 0,014; -0,046; -0,002; 0,058; 0,065; -0,016; -0,016; 0,122; 0,094; 0,073; 0,114; 0,165; 0,124; 0,076; 0,059; 0,110; 0,087; 0,045; -0,054; 0,008; 0,106; 0,037; 0,126; 0,161; 0,139; 0,048; 0,055; 0,051; 0,128; 0,114; 0,073; 0,087; 0,035; -0,004; 0,013; -0,054; -0,026; 0,075; 0,090; 0,142; 0,089; 0,065; 0,108; 0,160; 0,120; 0,107; 0,105; 0,101; 0,037; 0,007; -0,014; 0,028; 0,114; 0,094; 0,155; 0,102; 0,146; 0,135; 0,111; 0,109; 0,183; 0,192; 0,076; 0,059; -0,029; 0,026; 0,080; 0,003; 0,007; 0,067; 0,051; 0,064; 0,095; 0,057; 0,121; 0,146; 0,061; 0,076; 0,014; 0,045; 0,019; -0,042; 0,036; 0,092; 0,111; 0,112; 0,042; 0,058; 0,184; 0,168; 0,183; 0,227; 0,173; 0,065; 0,062; 0,077; -0,066; -0,031; 0,158; 0,135; 0,023; 0,028; 0,064; 0,058; 0,126; 0,075; 0,084; 0,079; 0,095; 0,095; -0,016; 0,049; 0,075; -0,047; 0,039; 0,006; 0,011; -0,025; 0,004; 0,033; 0,119; 0,098; 0,068; 0,133; 0,027; -0,060; 0,069; 0,035; -0,050; -0,018; 0,071; 0,050; 0,020; 0,066; 0,074; 0,038; 0,004; 0,054; -0,005; 0,019; 0,057; 0,052; -0,004; 0,039; 0,028; -0,105; 0,048; -0,022; 0,034; -0,021; -0,033; 0,002; 0,027; 0,004; -0,002; 0,168; 0,128; 0,029; 0,002; -0,017; -0,015; -0,052; -0,053; 0,001; -0,018; -0,049; 0,041; -0,031; -0,040; 0,041; 0,047; 0,089; 0,048; 0,041; 0,001; 0,016; 0,007; -0,002; 0,022; -0,039; 0,048; 0,022; -0,050; 0,015; -0,033; -0,017; 0,034; 0,173; 0,119; 0,041; 0,049; 0,034; 0,026; -0,031; -0,002; -0,034; -0,072; -0,040; -0,017; -0,031; 0,021; 0,018; 0,051; 0,047; 0,073; 0,013; -0,011; 0,019; 0,045; 0,081; 0,055; 0,032; 0,059; 0,036; -0,059; -0,021; -0,042; -0,045; -0,013; 0,050; 0,067; 0,008; -0,021; -0,062; 0,006; 0,000; -0,043; -0,081; -0,014; 0,093; 0,036; 0,024; 0,103; 0,016; -0,015; -0,039; 0,006; 0,016; -0,048; -0,027; 0,041; 0,044; 0,085; -0,008; 0,071; 0,087; 0,017; -0,017; -0,010; 0,021; 0,068; 0,054; 0,050; -0,007; -0,047; -0,014; 0,019; -0,034; 0,024; 0,051; 0,087; 0,007; -0,079; -0,066; 0,039; 0,008; -0,087; -0,050; -0,063; -0,063; -0,106; -0,048; -0,038; -0,005; 0,107; 0,010; 0,008; 0,117; 0,014; -0,030; 0,060; 0,026; 0,019; 0,017; -0,016; -0,066; -0,010; -0,031; -0,039; -0,056; 0,001; -0,001; -0,009; -0,052; -0,055; -0,054; 0,038; 0,055; -0,019; 0,031; -0,000; -0,027; -0,090; 0,019; 0,019; 0,018; 0,074; 0,058; 0,016; 0,024; -0,015; -0,033; 0,009; 0,006; -0,050; -0,109; -0,030; 0,018; 0,007; -0,110; -0,092; -0,078; -0,056; -0,065; -0,075; 0,004; -0,024; -0,010; 0,023; -0,007; 0,023; 0,049; -0,006; -0,003; -0,025; 0,016; -0,010; 0,023; -0,015; 0,010; 0,017; -0,020; -0,019; -0,029; -0,055; -0,046; 0,007; -0,082; -0,052; 0,013; -0,067; -0,134; -0,082; -0,033; -0,042; -0,113; -0,099; -0,066; -0,068; -0,001; 0,035; -0,041; -0,026; 0,026; -0,001; -0,035; -0,092; -0,008; -0,047; -0,020; -0,032; 0,018; 0,033; -0,024; -0,040; -0,008; 0,020; -0,035; -0,058; -0,057; -0,019; -0,089; -0,057; -0,079; 0,004; -0,016; -0,057; -0,104; -0,055; -0,018; -0,019; -0,048; 0,011; 0,015; -0,052; 0,010; 0,003; -0,043; -0,110; -0,048; -0,039; -0,044; 0,002; -0,011; -0,012; -0,067; -0,125; -0,045; -0,012; -0,020; -0,087; -0,150; -0,072; -0,144; -0,094; -0,105; -0,087; -0,086; -0,131; -0,163; -0,073; -0,057; -0,099; -0,077; 0,001; 0,047; -0,037; -0,048; -0,083; -0,082; -0,145; -0,058; -0,029; -0,055; -0,029; -0,033; -0,060; -0,076; -0,096; -0,054; -0,030; -0,012; -0,036; -0,123; -0,063; -0,084; -0,073; -0,108; -0,142; -0,095; -0,069; -0,141; -0,102; -0,087; -0,075; -0,040; -0,003; 0,062; -0,016; -0,060; -0,096; -0,057; -0,085; -0,061; -0,062; -0,043; -0,071; -0,006; -0,004; 0,005; -0,015; -0,012; -0,028; -0,058; -0,038; -0,057; -0,024; -0,093; -0,046; -0,091; -0,099; -0,062; -0,024; -0,091; -0,018; 0,023; -0,022; 0,009; -0,030; -0,064; -0,040; -0,006; -0,017; -0,037; -0,053; -0,040; -0,068; -0,023; -0,071; -0,048; -0,038; -0,013; -0,044; -0,037; -0,015; -0,072; -0,073; 0,021; 0,066; 0,013; 0,075; 0,026; -0,013; 0,004; 0,045; -0,038; 0,002; -0,025; -0,046; -0,020; -0,051; -0,056; -0,025; -0,042; -0,039; 0,009; 0,028; -0,051; -0,108; -0,100; 0,143; -0,007; -0,074; -0,034; 0,005; -0,059; -0,072; -0,040; -0,019; -0,055; -0,063; -0,083; -0,029; -0,007; 0,013; 0,029; 0,008; -0,028; -0,042; -0,074; -0,040; -0,014; -0,049; -0,045; -0,094; -0,113; -0,084; -0,050; -0,061; -0,084; 0,052; 0,196; 0,045; -0,006; -0,061; 0,014; 0,046; 0,012; 0,035; -0,037; -0,015; -0,014; -0,042; -0,028; -0,023; 0,000; 0,016; 0,052; 0,030; 0,024; 0,002; -0,028; 0,002; 0,056; 0,010; 0,052; 0,022; 0,032; 0,007; 0,005; 0,006; -0,082; 0,006; 0,064; -0,061; -0,091; -0,072; -0,013; 0,023; 0,032; 0,007; -0,032; 0,022; -0,000; -0,036; -0,012; 0,034; 0,080; -0,033; -0,051; -0,020; 0,010; -0,004; 0,008; -0,030; 0,006; 0,026; 0,024; -0,051; -0,007; 0,010; 0,004; 0,048; -0,042; -0,069; -0,035; -0,014; -0,003; 0,025; 0,011; -0,060; -0,027; -0,017; 0,022; 0,063; 0,010; -0,024; -0,014; 0,027; 0,059; -0,021; -0,056; -0,035; 0,041; -0,022; -0,003; -0,021; 0,012; 0,088; 0,060; -0,035; 0,025; 0,046; 0,055; 0,014; -0,025; -0,042; -0,030; -0,079; -0,023; 0,016; -0,019; -0,034; -0,013; 0,033; 0,082; 0,005; -0,009; 0,010; 0,011; 0,020; 0,092; 0,054; 0,050; 0,047; 0,101; -0,024; 0,041; 0,090; 0,086; 0,137; 0,141; 0,074; 0,048; -0,000; 0,047; 0,026; -0,014; -0,048; -0,046; -0,058; 0,029; 0,064; 0,048; 0,047; 0,035; 0,037; 0,119; 0,022; 0,043; 0,040; 0,071; 0,037; 0,027; -0,002; 0,081; 0,109; 0,073; 0,010; 0,075; 0,069; 0,076; 0,045; 0,061; 0,028; -0,030; -0,058; 0,084; 0,063; -0,028; -0,035; -0,033; -0,075; -0,004; 0,060; 0,055; 0,040; 0,054; 0,057; 0,128; 0,080; 0,073; 0,049; 0,087; 0,010; -0,028; -0,006; 0,051; 0,057; 0,022; -0,014; 0,012; 0,029; 0,024; 0,012; 0,043; 0,064; 0,069; 0,025; 0,082; -0,019; -0,091; -0,053; -0,048; -0,108; -0,037; 0,038; 0,060; 0,057; 0,065; 0,098; 0,090; 0,051; 0,011; 0,056; 0,105; 0,047; 0,008; 0,018; 0,049; 0,033; 0,001; -0,052; 0,004; 0,126; 0,092; 0,081; 0,052; 0,108; 0,106; 0,034; 0,092; -0,014; -0,068; 0,011; 0,005; -0,098; -0,070; 0,061; 0,098; 0,054; 0,013; 0,047; 0,046; 0,098; 0,082; 0,087; 0,124; 0,081; 0,039; 0,064; 0,121; 0,066; 0,055; 0,027; 0,072; 0,128; 0,096; 0,112; 0,104; 0,078; -0,022; -0,023; 0,058; 0,020; -0,028; 0,066; -0,036; -0,036; -0,026; 0,047; 0,052; 0,051; 0,059; 0,051; 0,062; 0,066; 0,025; 0,066; 0,111; 0,076; 0,022; 0,058; 0,065; 0,047; 0,038; 0,012; 0,013; 0,031; 0,055; 0,075; 0,029; 0,055; 0,015; 0,009; -0,008; -0,003; 0,032; 0,075; -0,025; -0,067; -0,020; 0,021; 0,044; 0,024; 0,025; -0,011; 0,068; 0,110; 0,075; 0,037; 0,051; 0,050; 0,014; -0,000; 0,017; 0,035; 0,028; 0,011; 0,050; -0,002; 0,053; 0,037; -0,002; 0,027; 0,043; 0,044; 0,043; 0,001; -0,019; -0,003; -0,056; -0,047; -0,011; 0,033; 0,052; -0,002; -0,061; -0,027; 0,026; 0,070; 0,039; 0,045; 0,025; -0,009; 0,002; -0,037; 0,017; -0,004; 0,032; 0,056; -0,001; -0,024; 0,038; -0,002; 0,066; 0,022; -0,026; -0,065; -0,029; -0,058; -0,119; -0,039; -0,045; -0,069; -0,018; -0,007; 0,026; 0,058; -0,075; -0,123; -0,073; 0,002; -0,040; -0,033; -0,038; -0,076; -0,073; -0,080; 0,008; -0,031; -0,094; 0,010; 0,035; -0,019; -0,083; 0,022; 0,070; -0,044; -0,088; -0,060; -0,015; -0,011; -0,048; 0,012; -0,025; -0,043; 0,030; 0,002; -0,076; 0,004; -0,094; -0,178; -0,110; -0,004; -0,067; -0,057; 0,006; 0,007; -0,026; -0,032; -0,042; -0,032; -0,017; -0,032; -0,029; -0,014; -0,080; -0,052; 0,038; -0,031; -0,026; -0,012; -0,058; -0,053; -0,046; -0,058; -0,083; -0,032; 0,009; -0,046; -0,111; -0,098; -0,160; -0,063; -0,077; -0,090; -0,126; -0,121; -0,040; -0,034; -0,081; -0,030; -0,047; -0,009; 0,033; -0,003; -0,061; -0,084; -0,079; -0,067; -0,075; -0,120; -0,045; -0,067; -0,157; -0,131; -0,074; -0,080; -0,099; -0,085; -0,105; -0,066; -0,098; -0,126; -0,205; -0,025; -0,056; -0,045; -0,062; -0,067; -0,099; -0,070; -0,062; -0,023; -0,111; -0,036; -0,004; 0,026; -0,049; -0,066; 0,034; -0,018; -0,105; -0,097; -0,026; -0,058; -0,091; -0,105; -0,065; -0,057; -0,044; -0,071; -0,120; -0,085; -0,168; -0,108; -0,124; -0,121; -0,158; -0,156; -0,167; -0,082; -0,074; -0,086; -0,025; -0,035; -0,068; -0,045; -0,171; -0,146; -0,071; -0,058; -0,008; -0,080; -0,143; -0,114; -0,042; -0,067; -0,063; -0,052; -0,064; -0,058; -0,002; -0,052; -0,127; -0,116; -0,147; -0,098; -0,180; -0,132; -0,105; -0,144; -0,147; -0,072; -0,029; -0,082; -0,066; -0,092; -0,011; -0,016; -0,130; -0,126; -0,107; -0,119; -0,091; -0,059; -0,140; -0,096; -0,067; -0,162; -0,117; -0,118; -0,088; -0,039; -0,017; -0,025; -0,063; -0,119; -0,114; -0,159; -0,141; -0,066; -0,087; -0,072; -0,035; -0,078; -0,125; -0,076; -0,014; -0,113; -0,074; 0,059; 0,023; -0,107; -0,157; -0,119; -0,124; -0,041; -0,121; -0,128; -0,154; -0,162; -0,120; -0,162; -0,081; 0,009; -0,038; -0,004; -0,112; -0,160; -0,187; -0,136; -0,082; -0,047; -0,101; -0,167; -0,136; -0,220; -0,226; -0,052; -0,046; -0,095; -0,058; 0,004; -0,041; -0,073; -0,060; -0,082; -0,107; -0,137; -0,124; -0,198; -0,167; -0,129; -0,132; -0,157; -0,103; -0,057; -0,117; 0,064; -0,066; -0,048; -0,111; -0,131; -0,083; -0,080; -0,130; -0,187; -0,083; -0,083; -0,107; -0,114; -0,103; -0,079; -0,111; -0,084; -0,046; -0,090; -0,130; -0,049; -0,120; -0,153; -0,109; -0,127; -0,053; -0,085; -0,092; -0,114; -0,086; -0,061; -0,026; 0,044; -0,084; -0,020; -0,048; -0,105; -0,029; -0,101; -0,118; -0,110; -0,026; -0,050; -0,050; -0,013; -0,027; -0,065; -0,117; -0,058; -0,082; -0,137; -0,113; -0,072; -0,111; -0,082; -0,097; -0,097; -0,077; -0,048; -0,101; -0,082; -0,028; -0,003; 0,041; 0,053; -0,029; -0,024; -0,034; -0,097; -0,046; -0,087; -0,093; -0,109; -0,095; -0,057; -0,051; -0,043; -0,092; -0,076; -0,074; -0,107; -0,143; -0,094; 0,008; -0,029; -0,062; 0,001; -0,077; -0,119; -0,123; -0,061; -0,046; -0,080; -0,048; 0,006; -0,015; 0,068; -0,086; -0,030; 0,004; -0,063; -0,075; -0,068; -0,027; -0,011; -0,045; -0,046; -0,058; -0,069; -0,027; -0,010; -0,094; -0,029; 0,011; 0,003; -0,089; -0,127; -0,139; -0,044; -0,041; -0,122; -0,086; -0,076; -0,062; -0,101; -0,040; -0,046; -0,039; 0,086; -0,056; -0,055; 0,049; -0,053; -0,098; -0,036; -0,048; -0,054; -0,058; -0,077; -0,098; -0,025; -0,026; -0,008; -0,051; 0,007; 0,015; -0,050; -0,095; -0,057; -0,089; -0,024; -0,005; -0,092; -0,048; -0,057; -0,057; -0,076; 0,034; 0,021; 0,005; 0,062; 0,022; -0,016; -0,013; -0,047; -0,058; -0,059; -0,047; -0,089; -0,150; -0,054; 0,012; 0,002; -0,074; 0,003; -0,011; 0,002; -0,006; -0,044; -0,000; -0,025; -0,036; -0,051; -0,090; -0,075; -0,055; -0,095; -0,052; -0,020; 0,035; 0,004; 0,035; -0,018; -0,003; 0,001; -0,044; -0,038; -0,014; -0,043; -0,034; 0,052; -0,025; 0,008; 0,067; -0,045; -0,077; 0,027; 0,053; 0,030; -0,038; -0,024; -0,036; -0,072; -0,021; -0,020; -0,081; -0,071; -0,037; -0,046; -0,043; -0,064; 0,046; 0,003; 0,017; -0,017; 0,030; 0,041; -0,027; -0,041; 0,025; 0,071; 0,036; 0,058; 0,073; 0,102; 0,021; 0,013; 0,005; 0,105; 0,059; 0,017; -0,004; 0,032; 0,019; -0,012; -0,046; 0,005; 0,016; -0,046; -0,006; -0,003; -0,010; -0,038; 0,043; 0,041; 0,009; 0,050; 0,041; 0,044; -0,034; -0,107; -0,011; 0,050; 0,080; 0,028; -0,025; 0,044; -0,027; 0,019; 0,028; 0,035; 0,013; -0,010; -0,012; 0,057; 0,002; -0,062; -0,056; 0,018; 0,066; -0,010; -0,013; -0,042; -0,034; -0,072; 0,030; 0,042; -0,020; 0,033; 0,036; 0,006; -0,034; -0,052; 0,005; 0,049; 0,084; 0,058; -0,012; 0,040; 0,021; 0,038; 0,026; -0,000; 0,050; 0,089; 0,022; 0,043; 0,009; -0,002; 0,014; 0,034; 0,107; 0,025; -0,012; -0,048; -0,029; -0,054; -0,003; 0,009; -0,001; 0,002; 0,066; 0,061; 0,047; 0,023; 0,039; 0,039; 0,017; 0,043; 0,043; 0,083; 0,017; 0,052; 0,020; 0,010; 0,067; 0,109; 0,035; 0,098; 0,100; 0,039; 0,062; 0,016; -0,022; 0,001; 0,046; 0,038; -0,005; -0,029; 0,022; 0,020; 0,034; 0,010; 0,020; 0,021; 0,026; -0,016; -0,015; 0,016; -0,020; -0,005; 0,094; 0,146; 0,101; 0,156; 0,120; 0,060; 0,092; 0,141; 0,056; 0,090; 0,040; 0,002; 0,025; -0,015; -0,038; -0,010; -0,004; 0,015; 0,040; 0,047; -0,006; -0,042; -0,064; 0,438; 0,232; 0,148; 0,157; 0,198; 0,140; 0,094; 0,099; 0,127; 0,062; 0,025; 0,001; 0,048; 0,069; 0,111; 0,122; 0,064; 0,016; 0,032; 0,016; 0,068; 0,105; 0,101; 0,134; 0,086; 0,065; 0,066; 0,089; 0,129; 0,132; 0,285; 0,452; 0,258; 0,179; 0,105; 0,163; 0,188; 0,129; 0,131; 0,057; 0,073; 0,047; -0,022; -0,036; -0,040; -0,030; 0,019; 0,052; -0,028; -0,041; -0,030; -0,045; -0,010; 0,053; 0,046; 0,134; 0,102; 0,089; 0,075; 0,090; 0,138; 0,083; 0,183; 0,258; 0,100; 0,044; 0,044; 0,086; 0,115; 0,107; 0,062; 0,012; 0,062; 0,029; -0,042; -0,050; -0,023; 0,024; -0,061; -0,093; -0,111; -0,074; -0,059; -0,049; -0,094; -0,073; -0,021; 0,032; -0,026; 0,011; 0,059; 0,048; 0,111; 0,068; 0,063; 0,106; 0,087; 0,073; 0,067; 0,060; -0,011; 0,012; 0,012; 0,037; 0,082; 0,012; -0,027; -0,035; -0,020; 0,008; -0,067; -0,108; -0,094; -0,016; -0,070; -0,073; -0,121; -0,096; 0,010; 0,039; -0,025; 0,035; 0,070; 0,089; 0,068; 0,063; 0,049; 0,049; -0,020; -0,004; 0,023; -0,004; -0,017; -0,008; 0,045; 0,102; 0,011; -0,015; -0,019; -0,022; -0,024; 0,012; -0,026; -0,005; -0,013; 0,045; -0,084; -0,042; -0,039; -0,057; 0,027; 0,082; 0,065; 0,050; -0,014; 0,076; 0,089; 0,032; -0,010; -0,015; -0,049; -0,004; 0,040; 0,017; 0,018; 0,008; 0,029; 0,123; 0,003; 0,022; -0,002; 0,035; -0,006; -0,053; -0,077; 0,042; 0,072; 0,041; -0,019; 0,025; -0,023; -0,032; -0,065; -0,039; -0,020; -0,044; -0,081; 0,106; 0,113; -0,011; -0,031; -0,029; -0,098; -0,054; 0,009; -0,023; -0,049; -0,015; -0,005; 0,065; 0,002; 0,035; 0,037; 0,092; 0,017; -0,040; -0,007; 0,072; 0,083; 0,046; 0,005; 0,019; 0,004; -0,015; -0,072; -0,057; -0,012; 0,022; 0,001; 0,096; 0,001; -0,091; -0,074; -0,063; -0,135; -0,091; -0,015; -0,013; -0,038; 0,003; 0,028; -0,008; -0,063; -0,046; 0,038; 0,119; 0,086; 0,046; 0,068; 0,092; 0,066; 0,047; -0,010; 0,031; 0,127; 0,057; -0,002; -0,034; 0,035; 0,057; 0,003; 0,085; -0,032; -0,070; 0,008; -0,020; -0,114; -0,118; 0,010; 0,022; -0,049; -0,057; -0,006; -0,021; -0,000; 0,024; 0,078; 0,141; 0,114; 0,094; 0,137; 0,183; 0,131; 0,152; 0,129; 0,129; 0,137; 0,086; 0,074; 0,059; 0,029; -0,057; -0,061; 0,043; -0,005; -0,063; 0,040; -0,071; -0,071; -0,079; -0,021; -0,034; -0,044; 0,001; -0,001; 0,021; -0,003; -0,025; 0,079; 0,157; 0,148; 0,117; 0,175; 0,196; 0,191; 0,190; 0,145; 0,100; 0,078; 0,078; 0,081; 0,037; 0,033; -0,024; -0,031; -0,024; -0,044; -0,034; 0,016; -0,066; -0,102; -0,069; -0,047; -0,041; -0,009; 0,032; -0,021; 0,058; 0,084; 0,057; 0,080; 0,138; 0,185; 0,151; 0,164; 0,186; 0,227; 0,223; 0,155; 0,142; 0,069; 0,126; 0,114; 0,053; 0,031; 0,027; 0,033; 0,033; -0,059; -0,097; -0,076; -0,112; -0,087; -0,077; -0,054; -0,017; 0,004; -0,025; 0,018; 0,058; 0,087; 0,052; 0,098; 0,130; 0,163; 0,193; 0,176; 0,222; 0,180; 0,208; 0,162; 0,058; 0,018; 0,114; 0,112; 0,129; 0,024; -0,026; -0,049; -0,016; -0,100; -0,194; -0,132; -0,119; -0,105; -0,090; -0,084; -0,009; 0,094; 0,015; 0,000; 0,044; 0,088; 0,039; 0,072; 0,098; 0,118; 0,156; 0,139; 0,199; 0,127; 0,071; 0,129; 0,133; 0,084; 0,011; 0,116; 0,125; -0,037; -0,075; -0,044; 0,008; -0,007; -0,075; -0,054; -0,093; -0,067; -0,008; -0,013; -0,033; 0,098; 0,045; -0,024; 0,032; 0,133; 0,084; 0,092; 0,176; 0,188; 0,162; 0,141; 0,108; 0,088; 0,141; 0,139; 0,135; 0,143; 0,037; 0,037; 0,105; 0,041; 0,049; 0,019; -0,036; -0,031; -0,068; -0,125; -0,167; -0,078; -0,013; 0,004; 0,025; 0,060; -0,005; 0,059; 0,027; 0,021; 0,010; -0,001; 0,123; 0,138; 0,099; 0,148; 0,143; 0,142; 0,188; 0,169; 0,129; 0,100; 0,060; 0,048; 0,013; -0,041; 0,040; -0,000; -0,113; -0,106; -0,098; -0,147; -0,205; -0,125; -0,103; 0,014; 0,069; 0,073; -0,040; 0,102; 0,069; 0,097; 0,082; 0,052; 0,043; 0,073; 0,131; 0,194; 0,098; 0,129; 0,171; 0,196; 0,106; 0,066; 0,155; 0,100; -0,005; -0,006; 0,067; 0,015; -0,033; -0,055; 0,006; -0,052; -0,126; -0,073; -0,077; 0,018; 0,009; 0,092; 0,054; 0,033; 0,011; 0,018; -0,009; 0,050; 0,041; 0,020; 0,115; 0,143; 0,088; 0,084; 0,003; 0,045; 0,085; 0,061; 0,145; 0,091; -0,009; -0,004; 0,066; 0,052; 0,074; 0,096; 0,090; 0,003; -0,068; -0,068; -0,056; 0,026; 0,041; 0,115; -0,005; -0,004; 0,027; 0,019; 0,016; 0,046; 0,080; 0,012; 0,035; 0,024; 0,097; 0,069; -0,010; 0,025; 0,034; 0,010; 0,062; 0,105; 0,011; 0,031; 0,051; -0,015; 0,054; 0,080; 0,096; 0,020; -0,080; -0,052; 0,041; 0,093; 0,104; 0,061; 0,031; 0,069; 0,055; 0,085; 0,137; 0,074; -0,017; 0,047; 0,111; 0,022; 0,054; 0,142; 0,114; 0,030; -0,009; 0,014; 0,013; 0,101; 0,036; 0,028; -0,003; 0,009; 0,065; 0,038; 0,099; 0,110; -0,045; -0,026; -0,002; 0,069; 0,030; 0,044; 0,081; 0,098; 0,058; -0,017; 0,005; -0,069; -0,103; 0,089; 0,087; 0,054; 0,105; 0,114; 0,053; 0,061; 0,104; 0,058; 0,037; 0,024; 0,050; -0,021; -0,005; 0,030; 0,049; 0,037; 0,067; 0,050; -0,113; 0,008; 0,007; 0,138; 0,072; 0,026; 0,068; 0,056; 0,027; -0,026; 0,036; 0,014; 0,011; 0,021; 0,049; 0,082; 0,082; 0,063; 0,068; 0,041; 0,032; 0,125; 0,055; 0,018; 0,073; 0,056; 0,104; 0,060; 0,051; 0,053; 0,071; 0,034; -0,027; -0,018; -0,049; 0,112; 0,092; 0,030; 0,077; -0,013; 0,027; 0,019; 0,030; -0,021; 0,024; 0,078; 0,100; 0,093; 0,060; 0,086; 0,035; 0,005; 0,066; 0,099; 0,030; 0,057; 0,052; 0,053; 0,054; 0,067; 0,008; 0,044; 0,122; 0,107; 0,060; 0,019; 0,004; 0,078; 0,088; 0,020; 0,055; 0,003; 0,042; 0,005; -0,075; -0,066; -0,025; 0,017; -0,007; 0,050; 0,057; -0,006; -0,063; 0,011; 0,162; 0,115; 0,043; 0,112; 0,034; 0,005; 0,015; 0,061; 0,069; 0,035; 0,081; 0,104; -0,002; 0,049; -0,059; 0,059; 0,109; 0,041; 0,019; 0,026; 0,087; 0,099; -0,008; -0,031; -0,016; 0,004; 0,056; 0,090; 0,012; 0,026; 0,064; 0,095; 0,041; 0,006; -0,039; 0,043; 0,042; -0,047; 0,013; 0,034; 0,045; -0,008; 0,043; 0,006; -0,039; 0,084; -0,037; 0,013; 0,129; 0,023; -0,012; 0,051; 0,033; 0,010; -0,015; -0,037; -0,017; 0,058; 0,058; 0,102; 0,060; 0,080; 0,086; 0,040; 0,005; 0,028; -0,005; 0,040; 0,053; -0,042; 0,005; 0,017; 0,017; -0,031; 0,066; 0,058; 0,014; 0,078; 0,040; 0,004; 0,027; -0,017; -0,031; -0,007; 0,001; -0,058; -0,122; -0,023; 0,074; 0,060; -0,004; 0,110; 0,087; 0,083; 0,073; 0,021; 0,053; 0,014; 0,017; 0,005; -0,027; -0,010; -0,002; -0,024; 0,016; 0,029; 0,088; 0,092; 0,103; 0,014; 0,013; 0,002; -0,027; -0,037; -0,030; -0,029; -0,016; 0,051; -0,024; -0,002; 0,074; -0,017; -0,037; 0,085; 0,087; 0,065; 0,006; 0,016; 0,007; -0,040; 0,033; 0,030; -0,043; -0,033; 0,007; -0,004; 0,010; -0,002; 0,138; 0,122; 0,118; 0,051; 0,079; 0,063; -0,003; -0,023; 0,019; 0,060; 0,016; 0,024; 0,062; 0,079; 0,013; 0,012; 0,012; 0,123; 0,046; -0,012; -0,031; 0,018; 0,019; -0,008; -0,009; 0,048; 0,037; -0,047; -0,007; 0,009; 0,006; 0,007; 0,133; 0,157; 0,130; 0,152; 0,115; 0,090; -0,004; -0,082; 0,006; 0,047; 0,059; -0,011; -0,054; 0,009; -0,048; -0,004; 0,014; 0,041; 0,002; -0,031; -0,052; 0,025; -0,014; -0,092; -0,058; 0,040; 0,076; -0,028; -0,045; -0,063; -0,022; -0,023; 0,116; 0,166; 0,132; 0,158; 0,122; 0,060; -0,009; -0,052; -0,006; 0,025; 0,043; -0,000; -0,076; -0,028; -0,036; -0,021; -0,004; 0,000; 0,051; 0,096; 0,010; 0,035; 0,008; -0,018; 0,023; 0,055; 0,101; 0,007; -0,040; -0,083; 0,003; 0,039; 0,111; 0,149; 0,158; 0,149; 0,150; 0,105; 0,063; 0,016; 0,005; -0,014; -0,050; -0,042; -0,053; -0,020; -0,085; -0,049; -0,042; -0,019; 0,037; 0,097; 0,022; 0,083; 0,092; 0,037; 0,064; 0,020; -0,036; -0,014; 0,029; 0,004; 0,012; 0,047; 0,136; 0,155; 0,184; 0,147; 0,104; 0,059; 0,045; -0,033; -0,072; -0,059; -0,103; -0,106; -0,031; 0,013; -0,034; 0,014; -0,006; -0,043; -0,009; 0,050; -0,022; 0,023; -0,027; -0,038; -0,004; -0,053; -0,092; -0,056; -0,040; -0,023; 0,037; 0,086; 0,084; 0,080; 0,074; -2,309; 0,123; -0,017; -0,089; -0,049; 0,000; -0,072; -0,091; -0,040; 0,007; -0,025; -0,038; -0,044; 0,018; 0,039; 0,048; 0,041; -0,010; -0,021; -0,028; -0,065; -0,011; -0,000; -0,052; -0,064; -0,111; -0,132; -0,130; -0,092; -0,082; -0,100; 0,004; 0,128; 0,007; -0,038; -0,104; -0,038; -0,012; -0,039; 0,005; -0,037; 0,009; 0,017; -0,019; 0,007; 0,014; 0,029; 0,048; 0,069; 0,025; 0,041; 0,023; 0,002; 0,047; 0,074; 0,001; 0,040; 0,015; 0,004; -0,033; -0,032; -0,032; -0,120; -0,060; -0,004; -0,096; -0,122; -0,120; -0,068; -0,054; -0,040; -0,038; -0,047; 0,027; 0,018; -0,011; 0,019; 0,059; 0,090; -0,005; -0,019; 0,028; 0,064; 0,023; 0,055; 0,020; 0,008; -0,013; -0,010; -0,063; -0,021; -0,016; -0,010; 0,014; -0,071; -0,106; -0,070; -0,035; -0,010; -0,023; -0,049; -0,116; -0,110; -0,095; -0,037; 0,021; -0,017; -0,018; 0,006; 0,039; 0,031; -0,034; -0,040; 0,008; 0,073; -0,004; 0,015; -0,003; -0,004; 0,027; 0,015; -0,066; 0,014; 0,031; 0,059; 0,018; -0,009; -0,044; -0,049; -0,069; -0,003; -0,016; -0,068; -0,067; -0,079; -0,047; 0,008; -0,070; -0,073; -0,029; -0,007; -0,002; 0,045; 0,005; 0,022; -0,000; 0,035; -0,072; 0,009; 0,064; 0,022; 0,042; 0,054; -0,013; -0,002; -0,036; 0,028; 0,030; -0,003; -0,065; -0,076; -0,027; 0,065; 0,056; -0,002; -0,003; -0,023; -0,055; 0,015; -0,080; -0,049; -0,021; 0,011; -0,039; -0,036; -0,050; 0,032; 0,003; -0,030; -0,052; 0,023; 0,022; -0,004; -0,057; -0,057; -0,085; -0,101; -0,111; 0,032; 0,028; -0,033; -0,045; -0,044; -0,025; 0,058; 0,085; 0,011; -0,013; -0,007; -0,054; -0,002; -0,068; -0,075; -0,044; -0,005; -0,106; -0,147; -0,079; -0,024; -0,076; -0,097; -0,093; -0,074; -0,053; -0,075; -0,109; -0,095; -0,057; -0,016; -0,022; 0,041; -0,046; -0,071; -0,031; -0,041; -0,028; 0,063; 0,087; 0,035; -0,004; -0,030; -0,026; -0,050; -0,113; -0,171; -0,115; -0,082; -0,135; -0,177; -0,113; -0,067; -0,128; -0,141; -0,177; -0,139; -0,011; -0,046; -0,083; -0,103; -0,031; -0,037; -0,053; 0,054; -0,018; -0,020; 0,057; 0,012; -0,008; 0,034; 0,102; 0,056; -0,014; -0,068; -0,052; -0,089; -0,083; -0,150; -0,172; -0,162; -0,170; -0,202; -0,162; -0,093; -0,164; -0,179; -0,205; -0,147; -0,090; -0,077; -0,063; -0,047; -0,069; -0,172; -0,140; 0,009; 0,057; 0,047; 0,126; -0,010; 0,051; 0,072; 0,077; 0,005; -0,007; 0,003; -0,036; -0,062; -0,127; -0,220; -0,185; -0,190; -0,182; -0,214; -0,195; -0,176; -0,231; -0,281; -0,277; -0,204; -0,192; -0,151; -0,106; -0,134; -0,084; -0,087; -0,067; -0,034; 0,058; 0,119; 0,151; 0,023; 0,035; 0,084; 0,054; 0,018; -0,014; 0,005; -0,057; -0,021; -0,045; -0,145; -0,163; -0,170; -0,143; -0,167; -0,215; -0,173; -0,203; -0,262; -0,231; -0,113; -0,193; -0,154; -0,142; -0,157; -0,082; -0,001; 0,046; 0,072; 0,078; 0,072; 0,087; -0,002; 0,065; 0,095; 0,075; 0,032; -0,000; 0,004; 0,016; 0,002; -0,005; -0,092; -0,061; -0,086; -0,134; -0,126; -0,201; -0,099; -0,133; -0,148; -0,124; -0,117; -0,171; -0,117; -0,120; -0,031; -0,025; 0,029; 0,062; 0,110; 0,090; 0,024; 0,088; 0,033; 0,028; 0,065; 0,048; 0,034; 0,105; 0,045; -0,049; -0,040; 0,020; -0,075; -0,064; -0,089; -0,182; -0,174; -0,189; -0,086; -0,124; -0,195; -0,093; -0,038; -0,074; -0,123; 0,003; 0,069; 0,010; 0,055; 0,154; 0,183; 0,172; 0,143; 0,177; 0,079; -0,018; 0,071; 0,074; 0,008; 0,112; 0,048; -0,051; -0,002; 0,102; -0,023; -0,042; -0,007; -0,044; -0,077; -0,084; -0,080; -0,098; -0,069; -0,080; -0,052; -0,013; -0,046; -0,013; 0,090; 0,074; 0,123; 0,195; 0,127; 0,112; 0,164; 0,149; 0,066; -0,025; 0,067; 0,058; 0,033; 0,093; 0,077; 0,166; 0,101; 0,077; -0,001; -0,035; 0,026; 0,003; -0,072; -0,049; -0,028; -0,006; 0,029; -0,031; -0,103; -0,105; -0,044; -0,010; 0,025; 0,020; 0,108; 0,110; 0,021; 0,049; 0,112; 0,118; 0,061; -0,047; 0,018; 0,079; 0,066; 0,096; 0,092; 0,241; 0,134; 0,132; 0,108; 0,073; 0,018; 0,034; 0,010; 0,014; -0,046; -0,002; 0,058; 0,065; -0,016; -0,016; 0,122; 0,094; 0,073; 0,114; 0,165; 0,124; 0,076; 0,059; 0,110; 0,087; 0,045; -0,054; 0,008; 0,106; 0,037; 0,126; 0,161; 0,139; 0,048; 0,055; 0,051; 0,128; 0,114; 0,073; 0,087; 0,035; -0,004; 0,013; -0,054; -0,026; 0,075; 0,090; 0,142; 0,089; 0,065; 0,108; 0,160; 0,120; 0,107; 0,105; 0,101; 0,037; 0,007; -0,014; 0,028; 0,114; 0,094; 0,155; 0,102; 0,146; 0,135; 0,111; 0,109; 0,183; 0,192; 0,076; 0,059; -0,029; 0,026; 0,080; 0,003; 0,007; 0,067; 0,051; 0,064; 0,095; 0,057; 0,121; 0,146; 0,061; 0,076; 0,014; 0,045; 0,019; -0,042; 0,036; 0,092; 0,111; 0,112; 0,042; 0,058; 0,184; 0,168; 0,183; 0,227; 0,173; 0,065; 0,062; 0,077; -0,066; -0,031; 0,158; 0,135; 0,023; 0,028; 0,064; 0,058; 0,126; 0,075; 0,084; 0,079; 0,095; 0,095; -0,016; 0,049; 0,075; -0,047; 0,039; 0,006; 0,011; -0,025; 0,004; 0,033; 0,119; 0,098; 0,068; 0,133; 0,027; -0,060; 0,069; 0,035; -0,050; -0,018; 0,071; 0,050; 0,020; 0,066; 0,074; 0,038; 0,004; 0,054; -0,005; 0,019; 0,057; 0,052; -0,004; 0,039; 0,028; -0,105; 0,048; -0,022; 0,034; -0,021; -0,033; 0,002; 0,027; 0,004; -0,002; 0,168; 0,128; 0,029; 0,002; -0,017; -0,015; -0,052; -0,053; 0,001; -0,018; -0,049; 0,041; -0,031; -0,040; 0,041; 0,047; 0,089; 0,048; 0,041; 0,001; 0,016; 0,007; -0,002; 0,022; -0,039; 0,048; 0,022; -0,050; 0,015; -0,033; -0,017; 0,034; 0,173; 0,119; 0,041; 0,049; 0,034; 0,026; -0,031; -0,002; -0,034; -0,072; -0,040; -0,017; -0,031; 0,021; 0,018; 0,051; 0,047; 0,073; 0,013; -0,011; 0,019; 0,045; 0,081; 0,055; 0,032; 0,059; 0,036; -0,059; -0,021; -0,042; -0,045; -0,013; 0,050; 0,067; 0,008; -0,021; -0,062; 0,006; 0,000; -0,043; -0,081; -0,014; 0,093; 0,036; 0,024; 0,103; 0,016; -0,015; -0,039; 0,006; 0,016; -0,048; -0,027; 0,041; 0,044; 0,085; -0,008; 0,071; 0,087; 0,017; -0,017; -0,010; 0,021; 0,068; 0,054; 0,050; -0,007; -0,047; -0,014; 0,019; -0,034; 0,024; 0,051; 0,087; 0,007; -0,079; -0,066; 0,039; 0,008; -0,087; -0,050; -0,063; -0,063; -0,106; -0,048; -0,038; -0,005; 0,107; 0,010; 0,008; 0,117; 0,014; -0,030; 0,060; 0,026; 0,019; 0,017; -0,016; -0,066; -0,010; -0,031; -0,039; -0,056; 0,001; -0,001; -0,009; -0,052; -0,055; -0,054; 0,038; 0,055; -0,019; 0,031; -0,000; -0,027; -0,090; 0,019; 0,019; 0,018; 0,074; 0,058; 0,016; 0,024; -0,015; -0,033; 0,009; 0,006; -0,050; -0,109; -0,030; 0,018; 0,007; -0,110; -0,092; -0,078; -0,056; -0,065; -0,075; 0,004; -0,024; -0,010; 0,023; -0,007; 0,023; 0,049; -0,006; -0,003; -0,025; 0,016; -0,010; 0,023; -0,015; 0,010; 0,017; -0,020; -0,019; -0,029; -0,055; -0,046; 0,007; -0,082; -0,052; 0,013; -0,067; -0,134; -0,082; -0,033; -0,042; -0,113; -0,099; -0,066; -0,068; -0,001; 0,035; -0,041; -0,026; 0,026; -0,001; -0,035; -0,092; -0,008; -0,047; -0,020; -0,032; 0,018; 0,033; -0,024; -0,040; -0,008; 0,020; -0,035; -0,058; -0,057; -0,019; -0,089; -0,057; -0,079; 0,004; -0,016; -0,057; -0,104; -0,055; -0,018; -0,019; -0,048; 0,011; 0,015; -0,052; 0,010; 0,003; -0,043; -0,110; -0,048; -0,039; -0,044; 0,002; -0,011; -0,012; -0,067; -0,125; -0,045; -0,012; -0,020; -0,087; -0,150; -0,072; -0,144; -0,094; -0,105; -0,087; -0,086; -0,131; -0,163; -0,073; -0,057; -0,099; -0,077; 0,001; 0,047; -0,037; -0,048; -0,083; -0,082; -0,145; -0,058; -0,029; -0,055; -0,029; -0,033; -0,060; -0,076; -0,096; -0,054; -0,030; -0,012; -0,036; -0,123; -0,063; -0,084; -0,073; -0,108; -0,142; -0,095; -0,069; -0,141; -0,102; -0,087; -0,075; -0,040; -0,003; 0,062; -0,016; -0,060; -0,096; -0,057; -0,085; -0,061; -0,062; -0,043; -0,071; -0,006; -0,004; 0,005; -0,015; -0,012; -0,028; -0,058; -0,038; -0,057; -0,024; -0,093; -0,046; -0,091; -0,099; -0,062; -0,024; -0,091; -0,018; 0,023; -0,022; 0,009; -0,030; -0,064; -0,040; -0,006; -0,017; -0,037; -0,053; -0,040; -0,068; -0,023; -0,071; -0,048; -0,038; -0,013; -0,044; -0,037; -0,015; -0,072; -0,073; 0,021; 0,066; 0,013; 0,075; 0,026; -0,013; 0,004; 0,045; -0,038; 0,002; -0,025; -0,046; -0,020; -0,051; -0,056; -0,025; -0,042; -0,039; 0,009; 0,028; -0,051; -0,108; -0,100; 0,143; -0,007; -0,074; -0,034; 0,005; -0,059; -0,072; -0,040; -0,019; -0,055; -0,063; -0,083; -0,029; -0,007; 0,013; 0,029; 0,008; -0,028; -0,042; -0,074; -0,040; -0,014; -0,049; -0,045; -0,094; -0,113; -0,084; -0,050; -0,061; -0,084; 0,052; 0,196; 0,045; -0,006; -0,061; 0,014; 0,046; 0,012; 0,035; -0,037; -0,015; -0,014; -0,042; -0,028; -0,023; 0,000; 0,016; 0,052; 0,030; 0,024; 0,002; -0,028; 0,002; 0,056; 0,010; 0,052; 0,022; 0,032; 0,007; 0,005; 0,006; -0,082; 0,006; 0,064; -0,061; -0,091; -0,072; -0,013; 0,023; 0,032; 0,007; -0,032; 0,022; -0,000; -0,036; -0,012; 0,034; 0,080; -0,033; -0,051; -0,020; 0,010; -0,004; 0,008; -0,030; 0,006; 0,026; 0,024; -0,051; -0,007; 0,010; 0,004; 0,048; -0,042; -0,069; -0,035; -0,014; -0,003; 0,025; 0,011; -0,060; -0,027; -0,017; 0,022; 0,063; 0,010; -0,024; -0,014; 0,027; 0,059; -0,021; -0,056; -0,035; 0,041; -0,022; -0,003; -0,021; 0,012; 0,088; 0,060; -0,035; 0,025; 0,046; 0,055; 0,014; -0,025; -0,042; -0,030; -0,079; -0,023; 0,016; -0,019; -0,034; -0,013; 0,033; 0,082; 0,005; -0,009; 0,010; 0,011; 0,020; 0,092; 0,054; 0,050; 0,047; 0,101; -0,024; 0,041; 0,090; 0,086; 0,137; 0,141; 0,074; 0,048; -0,000; 0,047; 0,026; -0,014; -0,048; -0,046; -0,058; 0,029; 0,064; 0,048; 0,047; 0,035; 0,037; 0,119; 0,022; 0,043; 0,040; 0,071; 0,037; 0,027; -0,002; 0,081; 0,109; 0,073; 0,010; 0,075; 0,069; 0,076; 0,045; 0,061; 0,028; -0,030; -0,058; 0,084; 0,063; -0,028; -0,035; -0,033; -0,075; -0,004; 0,060; 0,055; 0,040; 0,054; 0,057; 0,128; 0,080; 0,073; 0,049; 0,087; 0,010; -0,028; -0,006; 0,051; 0,057; 0,022; -0,014; 0,012; 0,029; 0,024; 0,012; 0,043; 0,064; 0,069; 0,025; 0,082; -0,019; -0,091; -0,053; -0,048; -0,108; -0,037; 0,038; 0,060; 0,057; 0,065; 0,098; 0,090; 0,051; 0,011; 0,056; 0,105; 0,047; 0,008; 0,018; 0,049; 0,033; 0,001; -0,052; 0,004; 0,126; 0,092; 0,081; 0,052; 0,108; 0,106; 0,034; 0,092; -0,014; -0,068; 0,011; 0,005; -0,098; -0,070; 0,061; 0,098; 0,054; 0,013; 0,047; 0,046; 0,098; 0,082; 0,087; 0,124; 0,081; 0,039; 0,064; 0,121; 0,066; 0,055; 0,027; 0,072; 0,128; 0,096; 0,112; 0,104; 0,078; -0,022; -0,023; 0,058; 0,020; -0,028; 0,066; -0,036; -0,036; -0,026; 0,047; 0,052; 0,051; 0,059; 0,051; 0,062; 0,066; 0,025; 0,066; 0,111; 0,076; 0,022; 0,058; 0,065; 0,047; 0,038; 0,012; 0,013; 0,031; 0,055; 0,075; 0,029; 0,055; 0,015; 0,009; -0,008; -0,003; 0,032; 0,075; -0,025; -0,067; -0,020; 0,021; 0,044; 0,024; 0,025; -0,011; 0,068; 0,110; 0,075; 0,037; 0,051; 0,050; 0,014; -0,000; 0,017; 0,035; 0,028; 0,011; 0,050; -0,002; 0,053; 0,037; -0,002; 0,027; 0,043; 0,044; 0,043; 0,001; -0,019; -0,003; -0,056; -0,047; -0,011; 0,033; 0,052; -0,002; -0,061; -0,027; 0,026; 0,070; 0,039; 0,045; 0,025; -0,009; 0,002; -0,037; 0,017; -0,004; 0,032; 0,056; -0,001; -0,024; 0,038; -0,002; 0,066; 0,022; -0,026; -0,065; -0,029; -0,058; -0,119; -0,039; -0,045; -0,069; -0,018; -0,007; 0,026; 0,058; -0,075; -0,123; -0,073; 0,002; -0,040; -0,033; -0,038; -0,076; -0,073; -0,080; 0,008; -0,031; -0,094; 0,010; 0,035; -0,019; -0,083; 0,022; 0,070; -0,044; -0,088; -0,060; -0,015; -0,011; -0,048; 0,012; -0,025; -0,043; 0,030; 0,002; -0,076; 0,004; -0,094; -0,178; -0,110; -0,004; -0,067; -0,057; 0,006; 0,007; -0,026; -0,032; -0,042; -0,032; -0,017; -0,032; -0,029; -0,014; -0,080; -0,052; 0,038; -0,031; -0,026; -0,012; -0,058; -0,053; -0,046; -0,058; -0,083; -0,032; 0,009; -0,046; -0,111; -0,098; -0,160; -0,063; -0,077; -0,090; -0,126; -0,121; -0,040; -0,034; -0,081; -0,030; -0,047; -0,009; 0,033; -0,003; -0,061; -0,084; -0,079; -0,067; -0,075; -0,120; -0,045; -0,067; -0,157; -0,131; -0,074; -0,080; -0,099; -0,085; -0,105; -0,066; -0,098; -0,126; -0,205; -0,025; -0,056; -0,045; -0,062; -0,067; -0,099; -0,070; -0,062; -0,023; -0,111; -0,036; -0,004; 0,026; -0,049; -0,066; 0,034; -0,018; -0,105; -0,097; -0,026; -0,058; -0,091; -0,105; -0,065; -0,057; -0,044; -0,071; -0,120; -0,085; -0,168; -0,108; -0,124; -0,121; -0,158; -0,156; -0,167; -0,082; -0,074; -0,086; -0,025; -0,035; -0,068; -0,045; -0,171; -0,146; -0,071; -0,058; -0,008; -0,080; -0,143; -0,114; -0,042; -0,067; -0,063; -0,052; -0,064; -0,058; -0,002; -0,052; -0,127; -0,116; -0,147; -0,098; -0,180; -0,132; -0,105; -0,144; -0,147; -0,072; -0,029; -0,082; -0,066; -0,092; -0,011; -0,016; -0,130; -0,126; -0,107; -0,119; -0,091; -0,059; -0,140; -0,096; -0,067; -0,162; -0,117; -0,118; -0,088; -0,039; -0,017; -0,025; -0,063; -0,119; -0,114; -0,159; -0,141; -0,066; -0,087; -0,072; -0,035; -0,078; -0,125; -0,076; -0,014; -0,113; -0,074; 0,059; 0,023; -0,107; -0,157; -0,119; -0,124; -0,041; -0,121; -0,128; -0,154; -0,162; -0,120; -0,162; -0,081; 0,009; -0,038; -0,004; -0,112; -0,160; -0,187; -0,136; -0,082; -0,047; -0,101; -0,167; -0,136; -0,220; -0,226; -0,052; -0,046; -0,095; -0,058; 0,004; -0,041; -0,073; -0,060; -0,082; -0,107; -0,137; -0,124; -0,198; -0,167; -0,129; -0,132; -0,157; -0,103; -0,057; -0,117; 0,064; -0,066; -0,048; -0,111; -0,131; -0,083; -0,080; -0,130; -0,187; -0,083; -0,083; -0,107; -0,114; -0,103; -0,079; -0,111; -0,084; -0,046; -0,090; -0,130; -0,049; -0,120; -0,153; -0,109; -0,127; -0,053; -0,085; -0,092; -0,114; -0,086; -0,061; -0,026; 0,044; -0,084; -0,020; -0,048; -0,105; -0,029; -0,101; -0,118; -0,110; -0,026; -0,050; -0,050; -0,013; -0,027; -0,065; -0,117; -0,058; -0,082; -0,137; -0,113; -0,072; -0,111; -0,082; -0,097; -0,097; -0,077; -0,048; -0,101; -0,082; -0,028; -0,003; 0,041; 0,053; -0,029; -0,024; -0,034; -0,097; -0,046; -0,087; -0,093; -0,109; -0,095; -0,057; -0,051; -0,043; -0,092; -0,076; -0,074; -0,107; -0,143; -0,094; 0,008; -0,029; -0,062; 0,001; -0,077; -0,119; -0,123; -0,061; -0,046; -0,080; -0,048; 0,006; -0,015; 0,068; -0,086; -0,030; 0,004; -0,063; -0,075; -0,068; -0,027; -0,011; -0,045; -0,046; -0,058; -0,069; -0,027; -0,010; -0,094; -0,029; 0,011; 0,003; -0,089; -0,127; -0,139; -0,044; -0,041; -0,122; -0,086; -0,076; -0,062; -0,101; -0,040; -0,046; -0,039; 0,086; -0,056; -0,055; 0,049; -0,053; -0,098; -0,036; -0,048; -0,054; -0,058; -0,077; -0,098; -0,025; -0,026; -0,008; -0,051; 0,007; 0,015; -0,050; -0,095; -0,057; -0,089; -0,024; -0,005; -0,092; -0,048; -0,057; -0,057; -0,076; 0,034; 0,021; 0,005; 0,062; 0,022; -0,016; -0,013; -0,047; -0,058; -0,059; -0,047; -0,089; -0,150; -0,054; 0,012; 0,002; -0,074; 0,003; -0,011; 0,002; -0,006; -0,044; -0,000; -0,025; -0,036; -0,051; -0,090; -0,075; -0,055; -0,095; -0,052; -0,020; 0,035; 0,004; 0,035; -0,018; -0,003; 0,001; -0,044; -0,038; -0,014; -0,043; -0,034; 0,052; -0,025; 0,008; 0,067; -0,045; -0,077; 0,027; 0,053; 0,030; -0,038; -0,024; -0,036; -0,072; -0,021; -0,020; -0,081; -0,071; -0,037; -0,046; -0,043; -0,064; 0,046; 0,003; 0,017; -0,017; 0,030; 0,041; -0,027; -0,041; 0,025; 0,071; 0,036; 0,058; 0,073; 0,102; 0,021; 0,013; 0,005; 0,105; 0,059; 0,017; -0,004; 0,032; 0,019; -0,012; -0,046; 0,005; 0,016; -0,046; -0,006; -0,003; -0,010; -0,038; 0,043; 0,041; 0,009; 0,050; 0,041; 0,044; -0,034; -0,107; -0,011; 0,050; 0,080; 0,028; -0,025; 0,044; -0,027; 0,019; 0,028; 0,035; 0,013; -0,010; -0,012; 0,057; 0,002; -0,062; -0,056; 0,018; 0,066; -0,010; -0,013; -0,042; -0,034; -0,072; 0,030; 0,042; -0,020; 0,033; 0,036; 0,006; -0,034; -0,052; 0,005; 0,049; 0,084; 0,058; -0,012; 0,040; 0,021; 0,038; 0,026; -0,000; 0,050; 0,089; 0,022; 0,043; 0,009; -0,002; 0,014; 0,034; 0,107; 0,025; -0,012; -0,048; -0,029; -0,054; -0,003; 0,009; -0,001; 0,002; 0,066; 0,061; 0,047; 0,023; 0,039; 0,039; 0,017; 0,043; 0,043; 0,083; 0,017; 0,052; 0,020; 0,010; 0,067; 0,109; 0,035; 0,098; 0,100; 0,039; 0,062; 0,016; -0,022; 0,001; 0,046; 0,038; -0,005; -0,029; 0,022; 0,020; 0,034; 0,010; 0,020; 0,021; 0,026; -0,016; -0,015; 0,016; -0,020; -0,005; 0,094; 0,146; 0,101; 0,156; 0,120; 0,060; 0,092; 0,141; 0,056; 0,090; 0,040; 0,002; 0,025; -0,015; -0,038; -0,010; -0,004; 0,015; 0,040; 0,047; -0,006; -0,042; -0,064; 0,438; 0,232; 0,148; 0,157; 0,198; 0,140; 0,094; 0,099; 0,127; 0,062; 0,025; 0,001; 0,048; 0,069; 0,111; 0,122; 0,064; 0,016; 0,032; 0,016; 0,068; 0,105; 0,101; 0,134; 0,086; 0,065; 0,066; 0,089; 0,129; 0,132; 0,285; 0,452; 0,258; 0,179; 0,105; 0,163; 0,188; 0,129; 0,131; 0,057; 0,073; 0,047; -0,022; -0,036; -0,040; -0,030; 0,019; 0,052; -0,028; -0,041; -0,030; -0,045; -0,010; 0,053; 0,046; 0,134; 0,102; 0,089; 0,075; 0,090; 0,138; 0,083; 0,183; 0,258; 0,100; 0,044; 0,044; 0,086; 0,115; 0,107; 0,062; 0,012; 0,062; 0,029; -0,042; -0,050; -0,023; 0,024; -0,061; -0,093; -0,111; -0,074; -0,059; -0,049; -0,094; -0,073; -0,021; 0,032; -0,026; 0,011; 0,059; 0,048; 0,111; 0,068; 0,063; 0,106; 0,087; 0,073; 0,067; 0,060; -0,011; 0,012; 0,012; 0,037; 0,082; 0,012; -0,027; -0,035; -0,020; 0,008; -0,067; -0,108; -0,094; -0,016; -0,070; -0,073; -0,121; -0,096; 0,010; 0,039; -0,025; 0,035; 0,070; 0,089; 0,068; 0,063; 0,049; 0,049; -0,020; -0,004; 0,023; -0,004; -0,017; -0,008; 0,045; 0,102; 0,011; -0,015; -0,019; -0,022; -0,024; 0,012; -0,026; -0,005; -0,013; 0,045; -0,084; -0,042; -0,039; -0,057; 0,027; 0,082; 0,065; 0,050; -0,014; 0,076; 0,089; 0,032; -0,010; -0,015; -0,049; -0,004; 0,040; 0,017; 0,018; 0,008; 0,029; 0,123; 0,003; 0,022; -0,002; 0,035; -0,006; -0,053; -0,077; 0,042; 0,072; 0,041; -0,019; 0,025; -0,023; -0,032; -0,065; -0,039; -0,020; -0,044; -0,081; 0,106; 0,113; -0,011; -0,031; -0,029; -0,098; -0,054; 0,009; -0,023; -0,049; -0,015; -0,005; 0,065; 0,002; 0,035; 0,037; 0,092; 0,017; -0,040; -0,007; 0,072; 0,083; 0,046; 0,005; 0,019; 0,004; -0,015; -0,072; -0,057; -0,012; 0,022; 0,001; 0,096; 0,001; -0,091; -0,074; -0,063; -0,135; -0,091; -0,015; -0,013; -0,038; 0,003; 0,028; -0,008; -0,063; -0,046; 0,038; 0,119; 0,086; 0,046; 0,068; 0,092; 0,066; 0,047; -0,010; 0,031; 0,127; 0,057; -0,002; -0,034; 0,035; 0,057; 0,003; 0,085; -0,032; -0,070; 0,008; -0,020; -0,114; -0,118; 0,010; 0,022; -0,049; -0,057; -0,006; -0,021; -0,000; 0,024; 0,078; 0,141; 0,114; 0,094; 0,137; 0,183; 0,131; 0,152; 0,129; 0,129; 0,137; 0,086; 0,074; 0,059; 0,029; -0,057; -0,061; 0,043; -0,005; -0,063; 0,040; -0,071; -0,071; -0,079; -0,021; -0,034; -0,044; 0,001; -0,001; 0,021; -0,003; -0,025; 0,079; 0,157; 0,148; 0,117; 0,175; 0,196; 0,191; 0,190; 0,145; 0,100; 0,078; 0,078; 0,081; 0,037; 0,033; -0,024; -0,031; -0,024; -0,044; -0,034; 0,016; -0,066; -0,102; -0,069; -0,047; -0,041; -0,009; 0,032; -0,021; 0,058; 0,084; 0,057; 0,080; 0,138; 0,185; 0,151; 0,164; 0,186; 0,227; 0,223; 0,155; 0,142; 0,069; 0,126; 0,114; 0,053; 0,031; 0,027; 0,033; 0,033; -0,059; -0,097; -0,076; -0,112; -0,087; -0,077; -0,054; -0,017; 0,004; -0,025; 0,018; 0,058; 0,087; 0,052; 0,098; 0,130; 0,163; 0,193; 0,176; 0,222; 0,180; 0,208; 0,162; 0,058; 0,018; 0,114; 0,112; 0,129; 0,024; -0,026; -0,049; -0,016; -0,100; -0,194; -0,132; -0,119; -0,105; -0,090; -0,084; -0,009; 0,094; 0,015; 0,000; 0,044; 0,088; 0,039; 0,072; 0,098; 0,118; 0,156; 0,139; 0,199; 0,127; 0,071; 0,129; 0,133; 0,084; 0,011; 0,116; 0,125; -0,037; -0,075; -0,044; 0,008; -0,007; -0,075; -0,054; -0,093; -0,067; -0,008; -0,013; -0,033; 0,098; 0,045; -0,024; 0,032; 0,133; 0,084; 0,092; 0,176; 0,188; 0,162; 0,141; 0,108; 0,088; 0,141; 0,139; 0,135; 0,143; 0,037; 0,037; 0,105; 0,041; 0,049; 0,019; -0,036; -0,031; -0,068; -0,125; -0,167; -0,078; -0,013; 0,004; 0,025; 0,060; -0,005; 0,059; 0,027; 0,021; 0,010; -0,001; 0,123; 0,138; 0,099; 0,148; 0,143; 0,142; 0,188; 0,169; 0,129; 0,100; 0,060; 0,048; 0,013; -0,041; 0,040; -0,000; -0,113; -0,106; -0,098; -0,147; -0,205; -0,125; -0,103; 0,014; 0,069; 0,073; -0,040; 0,102; 0,069; 0,097; 0,082; 0,052; 0,043; 0,073; 0,131; 0,194; 0,098; 0,129; 0,171; 0,196; 0,106; 0,066; 0,155; 0,100; -0,005; -0,006; 0,067; 0,015; -0,033; -0,055; 0,006; -0,052; -0,126; -0,073; -0,077; 0,018; 0,009; 0,092; 0,054; 0,033; 0,011; 0,018; -0,009; 0,050; 0,041; 0,020; 0,115; 0,143; 0,088; 0,084; 0,003; 0,045; 0,085; 0,061; 0,145; 0,091; -0,009; -0,004; 0,066; 0,052; 0,074; 0,096; 0,090; 0,003; -0,068; -0,068; -0,056; 0,026; 0,041; 0,115; -0,005; -0,004; 0,027; 0,019; 0,016; 0,046; 0,080; 0,012; 0,035; 0,024; 0,097; 0,069; -0,010; 0,025; 0,034; 0,010; 0,062; 0,105; 0,011; 0,031; 0,051; -0,015; 0,054; 0,080; 0,096; 0,020; -0,080; -0,052; 0,041; 0,093; 0,104; 0,061; 0,031; 0,069; 0,055; 0,085; 0,137; 0,074; -0,017; 0,047; 0,111; 0,022; 0,054; 0,142; 0,114; 0,030; -0,009; 0,014; 0,013; 0,101; 0,036; 0,028; -0,003; 0,009; 0,065; 0,038; 0,099; 0,110; -0,045; -0,026; -0,002; 0,069; 0,030; 0,044; 0,081; 0,098; 0,058; -0,017; 0,005; -0,069; -0,103; 0,089; 0,087; 0,054; 0,105; 0,114; 0,053; 0,061; 0,104; 0,058; 0,037; 0,024; 0,050; -0,021; -0,005; 0,030; 0,049; 0,037; 0,067; 0,050; -0,113; 0,008; 0,007; 0,138; 0,072; 0,026; 0,068; 0,056; 0,027; -0,026; 0,036; 0,014; 0,011; 0,021; 0,049; 0,082; 0,082; 0,063; 0,068; 0,041; 0,032; 0,125; 0,055; 0,018; 0,073; 0,056; 0,104; 0,060; 0,051; 0,053; 0,071; 0,034; -0,027; -0,018; -0,049; 0,112; 0,092; 0,030; 0,077; -0,013; 0,027; 0,019; 0,030; -0,021; 0,024; 0,078; 0,100; 0,093; 0,060; 0,086; 0,035; 0,005; 0,066; 0,099; 0,030; 0,057; 0,052; 0,053; 0,054; 0,067; 0,008; 0,044; 0,122; 0,107; 0,060; 0,019; 0,004; 0,078; 0,088; 0,020; 0,055; 0,003; 0,042; 0,005; -0,075; -0,066; -0,025; 0,017; -0,007; 0,050; 0,057; -0,006; -0,063; 0,011; 0,162; 0,115; 0,043; 0,112; 0,034; 0,005; 0,015; 0,061; 0,069; 0,035; 0,081; 0,104; -0,002; 0,049; -0,059; 0,059; 0,109; 0,041; 0,019; 0,026; 0,087; 0,099; -0,008; -0,031; -0,016; 0,004; 0,056; 0,090; 0,012; 0,026; 0,064; 0,095; 0,041; 0,006; -0,039; 0,043; 0,042; -0,047; 0,013; 0,034; 0,045; -0,008; 0,043; 0,006; -0,039; 0,084; -0,037; 0,013; 0,129; 0,023; -0,012; 0,051; 0,033; 0,010; -0,015; -0,037; -0,017; 0,058; 0,058; 0,102; 0,060; 0,080; 0,086; 0,040; 0,005; 0,028; -0,005; 0,040; 0,053; -0,042; 0,005; 0,017; 0,017; -0,031; 0,066; 0,058; 0,014; 0,078; 0,040; 0,004; 0,027; -0,017; -0,031; -0,007; 0,001; -0,058; -0,122; -0,023; 0,074; 0,060; -0,004; 0,110; 0,087; 0,083; 0,073; 0,021; 0,053; 0,014; 0,017; 0,005; -0,027; -0,010; -0,002; -0,024; 0,016; 0,029; 0,088; 0,092; 0,103; 0,014; 0,013; 0,002; -0,027; -0,037; -0,030; -0,029; -0,016; 0,051; -0,024; -0,002; 0,074; -0,017; -0,037; 0,085; 0,087; 0,065; 0,006; 0,016; 0,007; -0,040; 0,033; 0,030; -0,043; -0,033; 0,007; -0,004; 0,010; -0,002; 0,138; 0,122; 0,118; 0,051; 0,079; 0,063; -0,003; -0,023; 0,019; 0,060; 0,016; 0,024; 0,062; 0,079; 0,013; 0,012; 0,012; 0,123; 0,046; -0,012; -0,031; 0,018; 0,019; -0,008; -0,009; 0,048; 0,037; -0,047; -0,007; 0,009; 0,006; 0,007; 0,133; 0,157; 0,130; 0,152; 0,115; 0,090; -0,004; -0,082; 0,006; 0,047; 0,059; -0,011; -0,054; 0,009; -0,048; -0,004; 0,014; 0,041; 0,002; -0,031; -0,052; 0,025; -0,014; -0,092; -0,058; 0,040; 0,076; -0,028; -0,045; -0,063; -0,022; -0,023; 0,116; 0,166; 0,132; 0,158; 0,122; 0,060; -0,009; -0,052; -0,006; 0,025; 0,043; -0,000; -0,076; -0,028; -0,036; -0,021; -0,004; 0,000; 0,051; 0,096; 0,010; 0,035; 0,008; -0,018; 0,023; 0,055; 0,101; 0,007; -0,040; -0,083; 0,003; 0,039; 0,111; 0,149; 0,158; 0,149; 0,150; 0,105; 0,063; 0,016; 0,005; -0,014; -0,050; -0,042; -0,053; -0,020; -0,085; -0,049; -0,042; -0,019; 0,037; 0,097; 0,022; 0,083; 0,092; 0,037; 0,064; 0,020; -0,036; -0,014; 0,029; 0,004; 0,012; 0,047; 0,136; 0,155; 0,184; 0,147; 0,104; 0,059; 0,045; -0,033; -0,072; -0,059; -0,103; -0,106; -0,031; 0,013; -0,034; 0,014; -0,006; -0,043; -0,009; 0,050; -0,022; 0,023; -0,027; -0,038; -0,004; -0,053; -0,092; -0,056; -0,040; -0,023; 0,037; 0,086; 0,084; 0,080; 0,074; -2,309; 0,123; -0,017; -0,089; -0,049; 0,000; -0,072; -0,091; -0,040; 0,007; -0,025; -0,038; -0,044; 0,018; 0,039; 0,048; 0,041; -0,010; -0,021; -0,028; -0,065; -0,011; -0,000; -0,052; -0,064; -0,111; -0,132; -0,130; -0,092; -0,082; -0,100; 0,004; 0,128; 0,007; -0,038; -0,104; -0,038; -0,012; -0,039; 0,005; -0,037; 0,009; 0,017; -0,019; 0,007; 0,014; 0,029; 0,048; 0,069; 0,025; 0,041; 0,023; 0,002; 0,047; 0,074; 0,001; 0,040; 0,015; 0,004; -0,033; -0,032; -0,032; -0,120; -0,060; -0,004; -0,096; -0,122; -0,120; -0,068; -0,054; -0,040; -0,038; -0,047; 0,027; 0,018; -0,011; 0,019; 0,059; 0,090; -0,005; -0,019; 0,028; 0,064; 0,023; 0,055; 0,020; 0,008; -0,013; -0,010; -0,063; -0,021; -0,016; -0,010; 0,014; -0,071; -0,106; -0,070; -0,035; -0,010; -0,023; -0,049; -0,116; -0,110; -0,095; -0,037; 0,021; -0,017; -0,018; 0,006; 0,039; 0,031; -0,034; -0,040; 0,008; 0,073; -0,004; 0,015; -0,003; -0,004; 0,027; 0,015; -0,066; 0,014; 0,031; 0,059; 0,018; -0,009; -0,044; -0,049; -0,069; -0,003; -0,016; -0,068; -0,067; -0,079; -0,047; 0,008; -0,070; -0,073; -0,029; -0,007; -0,002; 0,045; 0,005; 0,022; -0,000; 0,035; -0,072; 0,009; 0,064; 0,022; 0,042; 0,054; -0,013; -0,002; -0,036; 0,028; 0,030; -0,003; -0,065; -0,076; -0,027; 0,065; 0,056; -0,002; -0,003; -0,023; -0,055; 0,015; -0,080; -0,049; -0,021; 0,011; -0,039; -0,036; -0,050; 0,032; 0,003; -0,030; -0,052; 0,023; 0,022; -0,004; -0,057; -0,057; -0,085; -0,101; -0,111; 0,032; 0,028; -0,033; -0,045; -0,044; -0,025; 0,058; 0,085; 0,011; -0,013; -0,007; -0,054; -0,002; -0,068; -0,075; -0,044; -0,005; -0,106; -0,147; -0,079; -0,024; -0,076; -0,097; -0,093; -0,074; -0,053; -0,075; -0,109; -0,095; -0,057; -0,016; -0,022; 0,041; -0,046; -0,071; -0,031; -0,041; -0,028; 0,063; 0,087; 0,035; -0,004; -0,030; -0,026; -0,050; -0,113; -0,171; -0,115; -0,082; -0,135; -0,177; -0,113; -0,067; -0,128; -0,141; -0,177; -0,139; -0,011; -0,046; -0,083; -0,103; -0,031; -0,037; -0,053; 0,054; -0,018; -0,020; 0,057; 0,012; -0,008; 0,034; 0,102; 0,056; -0,014; -0,068; -0,052; -0,089; -0,083; -0,150; -0,172; -0,162; -0,170; -0,202; -0,162; -0,093; -0,164; -0,179; -0,205; -0,147; -0,090; -0,077; -0,063; -0,047; -0,069; -0,172; -0,140; 0,009; 0,057; 0,047; 0,126; -0,010; 0,051; 0,072; 0,077; 0,005; -0,007; 0,003; -0,036; -0,062; -0,127; -0,220; -0,185; -0,190; -0,182; -0,214; -0,195; -0,176; -0,231; -0,281; -0,277; -0,204; -0,192; -0,151; -0,106; -0,134; -0,084; -0,087; -0,067; -0,034; 0,058; 0,119; 0,151; 0,023; 0,035; 0,084; 0,054; 0,018; -0,014; 0,005; -0,057; -0,021; -0,045; -0,145; -0,163; -0,170; -0,143; -0,167; -0,215; -0,173; -0,203; -0,262; -0,231; -0,113; -0,193; -0,154; -0,142; -0,157; -0,082; -0,001; 0,046; 0,072; 0,078; 0,072; 0,087; -0,002; 0,065; 0,095; 0,075; 0,032; -0,000; 0,004; 0,016; 0,002; -0,005; -0,092; -0,061; -0,086; -0,134; -0,126; -0,201; -0,099; -0,133; -0,148; -0,124; -0,117; -0,171; -0,117; -0,120; -0,031; -0,025; 0,029; 0,062; 0,110; 0,090; 0,024; 0,088; 0,033; 0,028; 0,065; 0,048; 0,034; 0,105; 0,045; -0,049; -0,040; 0,020; -0,075; -0,064; -0,089; -0,182; -0,174; -0,189; -0,086; -0,124; -0,195; -0,093; -0,038; -0,074; -0,123; 0,003; 0,069; 0,010; 0,055; 0,154; 0,183; 0,172; 0,143; 0,177; 0,079; -0,018; 0,071; 0,074; 0,008; 0,112; 0,048; -0,051; -0,002; 0,102; -0,023; -0,042; -0,007; -0,044; -0,077; -0,084; -0,080; -0,098; -0,069; -0,080; -0,052; -0,013; -0,046; -0,013; 0,090; 0,074; 0,123; 0,195; 0,127; 0,112; 0,164; 0,149; 0,066; -0,025; 0,067; 0,058; 0,033; 0,093; 0,077; 0,166; 0,101; 0,077; -0,001; -0,035; 0,026; 0,003; -0,072; -0,049; -0,028; -0,006; 0,029; -0,031; -0,103; -0,105; -0,044; -0,010; 0,025; 0,020; 0,108; 0,110; 0,021; 0,049; 0,112; 0,118; 0,061; -0,047; 0,018; 0,079; 0,066; 0,096; 0,092; 0,241; 0,134; 0,132; 0,108; 0,073; 0,018; 0,034; 0,010; 0,014; -0,046; -0,002; 0,058; 0,065; -0,016; -0,016; 0,122; 0,094; 0,073; 0,114; 0,165; 0,124; 0,076; 0,059; 0,110; 0,087; 0,045; -0,054; 0,008; 0,106; 0,037; 0,126; 0,161; 0,139; 0,048; 0,055; 0,051; 0,128; 0,114; 0,073; 0,087; 0,035; -0,004; 0,013; -0,054; -0,026; 0,075; 0,090; 0,142; 0,089; 0,065; 0,108; 0,160; 0,120; 0,107; 0,105; 0,101; 0,037; 0,007; -0,014; 0,028; 0,114; 0,094; 0,155; 0,102; 0,146; 0,135; 0,111; 0,109; 0,183; 0,192; 0,076; 0,059; -0,029; 0,026; 0,080; 0,003; 0,007; 0,067; 0,051; 0,064; 0,095; 0,057; 0,121; 0,146; 0,061; 0,076; 0,014; 0,045; 0,019; -0,042; 0,036; 0,092; 0,111; 0,112; 0,042; 0,058; 0,184; 0,168; 0,183; 0,227; 0,173; 0,065; 0,062; 0,077; -0,066; -0,031; 0,158; 0,135; 0,023; 0,028; 0,064; 0,058; 0,126; 0,075; 0,084; 0,079; 0,095; 0,095; -0,016; 0,049; 0,075; -0,047; 0,039; 0,006; 0,011; -0,025; 0,004; 0,033; 0,119; 0,098; 0,068; 0,133; 0,027; -0,060; 0,069; 0,035; -0,050; -0,018; 0,071; 0,050; 0,020; 0,066; 0,074; 0,038; 0,004; 0,054; -0,005; 0,019; 0,057; 0,052; -0,004; 0,039; 0,028; -0,105; 0,048; -0,022; 0,034; -0,021; -0,033; 0,002; 0,027; 0,004; -0,002; 0,168; 0,128; 0,029; 0,002; -0,017; -0,015; -0,052; -0,053; 0,001; -0,018; -0,049; 0,041; -0,031; -0,040; 0,041; 0,047; 0,089; 0,048; 0,041; 0,001; 0,016; 0,007; -0,002; 0,022; -0,039; 0,048; 0,022; -0,050; 0,015; -0,033; -0,017; 0,034; 0,173; 0,119; 0,041; 0,049; 0,034; 0,026; -0,031; -0,002; -0,034; -0,072; -0,040; -0,017; -0,031; 0,021; 0,018; 0,051; 0,047; 0,073; 0,013; -0,011; 0,019; 0,045; 0,081; 0,055; 0,032; 0,059; 0,036; -0,059; -0,021; -0,042; -0,045; -0,013; 0,050; 0,067; 0,008; -0,021; -0,062; 0,006; 0,000; -0,043; -0,081; -0,014; 0,093; 0,036; 0,024; 0,103; 0,016; -0,015; -0,039; 0,006; 0,016; -0,048; -0,027; 0,041; 0,044; 0,085; -0,008; 0,071; 0,087; 0,017; -0,017; -0,010; 0,021; 0,068; 0,054; 0,050; -0,007; -0,047; -0,014; 0,019; -0,034; 0,024; 0,051; 0,087; 0,007; -0,079; -0,066; 0,039; 0,008; -0,087; -0,050; -0,063; -0,063; -0,106; -0,048; -0,038; -0,005; 0,107; 0,010; 0,008; 0,117; 0,014; -0,030; 0,060; 0,026; 0,019; 0,017; -0,016; -0,066; -0,010; -0,031; -0,039; -0,056; 0,001; -0,001; -0,009; -0,052; -0,055; -0,054; 0,038; 0,055; -0,019; 0,031; -0,000; -0,027; -0,090; 0,019; 0,019; 0,018; 0,074; 0,058; 0,016; 0,024; -0,015; -0,033; 0,009; 0,006; -0,050; -0,109; -0,030; 0,018; 0,007; -0,110; -0,092; -0,078; -0,056; -0,065; -0,075; 0,004; -0,024; -0,010; 0,023; -0,007; 0,023; 0,049; -0,006; -0,003; -0,025; 0,016; -0,010; 0,023; -0,015; 0,010; 0,017; -0,020; -0,019; -0,029; -0,055; -0,046; 0,007; -0,082; -0,052; 0,013; -0,067; -0,134; -0,082; -0,033; -0,042; -0,113; -0,099; -0,066; -0,068; -0,001; 0,035; -0,041; -0,026; 0,026; -0,001; -0,035; -0,092; -0,008; -0,047; -0,020; -0,032; 0,018; 0,033; -0,024; -0,040; -0,008; 0,020; -0,035; -0,058; -0,057; -0,019; -0,089; -0,057; -0,079; 0,004; -0,016; -0,057; -0,104; -0,055; -0,018; -0,019; -0,048; 0,011; 0,015; -0,052; 0,010; 0,003; -0,043; -0,110; -0,048; -0,039; -0,044; 0,002; -0,011; -0,012; -0,067; -0,125; -0,045; -0,012; -0,020; -0,087; -0,150; -0,072; -0,144; -0,094; -0,105; -0,087; -0,086; -0,131; -0,163; -0,073; -0,057; -0,099; -0,077; 0,001; 0,047; -0,037; -0,048; -0,083; -0,082; -0,145; -0,058; -0,029; -0,055; -0,029; -0,033; -0,060; -0,076; -0,096; -0,054; -0,030; -0,012; -0,036; -0,123; -0,063; -0,084; -0,073; -0,108; -0,142; -0,095; -0,069; -0,141; -0,102; -0,087; -0,075; -0,040; -0,003; 0,062; -0,016; -0,060; -0,096; -0,057; -0,085; -0,061; -0,062; -0,043; -0,071; -0,006; -0,004; 0,005; -0,015; -0,012; -0,028; -0,058; -0,038; -0,057; -0,024; -0,093; -0,046; -0,091; -0,099; -0,062; -0,024; -0,091; -0,018; 0,023; -0,022; 0,009; -0,030; -0,064; -0,040; -0,006; -0,017; -0,037; -0,053; -0,040; -0,068; -0,023; -0,071; -0,048; -0,038; -0,013; -0,044; -0,037; -0,015; -0,072; -0,073; 0,021; 0,066; 0,013; 0,075; 0,026; -0,013; 0,004; 0,045; -0,038; 0,002; -0,025; -0,046; -0,020; -0,051; -0,056; -0,025; -0,042; -0,039; 0,009; 0,028; -0,051; -0,108; -0,100; 0,143; -0,007; -0,074; -0,034; 0,005; -0,059; -0,072; -0,040; -0,019; -0,055; -0,063; -0,083; -0,029; -0,007; 0,013; 0,029; 0,008; -0,028; -0,042; -0,074; -0,040; -0,014; -0,049; -0,045; -0,094; -0,113; -0,084; -0,050; -0,061; -0,084; 0,052; 0,196; 0,045; -0,006; -0,061; 0,014; 0,046; 0,012; 0,035; -0,037; -0,015; -0,014; -0,042; -0,028; -0,023; 0,000; 0,016; 0,052; 0,030; 0,024; 0,002; -0,028; 0,002; 0,056; 0,010; 0,052; 0,022; 0,032; 0,007; 0,005; 0,006; -0,082; 0,006; 0,064; -0,061; -0,091; -0,072; -0,013; 0,023; 0,032; 0,007; -0,032; 0,022; -0,000; -0,036; -0,012; 0,034; 0,080; -0,033; -0,051; -0,020; 0,010; -0,004; 0,008; -0,030; 0,006; 0,026; 0,024; -0,051; -0,007; 0,010; 0,004; 0,048; -0,042; -0,069; -0,035; -0,014; -0,003; 0,025; 0,011; -0,060; -0,027; -0,017; 0,022; 0,063; 0,010; -0,024; -0,014; 0,027; 0,059; -0,021; -0,056; -0,035; 0,041; -0,022; -0,003; -0,021; 0,012; 0,088; 0,060; -0,035; 0,025; 0,046; 0,055; 0,014; -0,025; -0,042; -0,030; -0,079; -0,023; 0,016; -0,019; -0,034; -0,013; 0,033; 0,082; 0,005; -0,009; 0,010; 0,011; 0,020; 0,092; 0,054; 0,050; 0,047; 0,101; -0,024; 0,041; 0,090; 0,086; 0,137; 0,141; 0,074; 0,048; -0,000; 0,047; 0,026; -0,014; -0,048; -0,046; -0,058; 0,029; 0,064; 0,048; 0,047; 0,035; 0,037; 0,119; 0,022; 0,043; 0,040; 0,071; 0,037; 0,027; -0,002; 0,081; 0,109; 0,073; 0,010; 0,075; 0,069; 0,076; 0,045; 0,061; 0,028; -0,030; -0,058; 0,084; 0,063; -0,028; -0,035; -0,033; -0,075; -0,004; 0,060; 0,055; 0,040; 0,054; 0,057; 0,128; 0,080; 0,073; 0,049; 0,087; 0,010; -0,028; -0,006; 0,051; 0,057; 0,022; -0,014; 0,012; 0,029; 0,024; 0,012; 0,043; 0,064; 0,069; 0,025; 0,082; -0,019; -0,091; -0,053; -0,048; -0,108; -0,037; 0,038; 0,060; 0,057; 0,065; 0,098; 0,090; 0,051; 0,011; 0,056; 0,105; 0,047; 0,008; 0,018; 0,049; 0,033; 0,001; -0,052; 0,004; 0,126; 0,092; 0,081; 0,052; 0,108; 0,106; 0,034; 0,092; -0,014; -0,068; 0,011; 0,005; -0,098; -0,070; 0,061; 0,098; 0,054; 0,013; 0,047; 0,046; 0,098; 0,082; 0,087; 0,124; 0,081; 0,039; 0,064; 0,121; 0,066; 0,055; 0,027; 0,072; 0,128; 0,096; 0,112; 0,104; 0,078; -0,022; -0,023; 0,058; 0,020; -0,028; 0,066; -0,036; -0,036; -0,026; 0,047; 0,052; 0,051; 0,059; 0,051; 0,062; 0,066; 0,025; 0,066; 0,111; 0,076; 0,022; 0,058; 0,065; 0,047; 0,038; 0,012; 0,013; 0,031; 0,055; 0,075; 0,029; 0,055; 0,015; 0,009; -0,008; -0,003; 0,032; 0,075; -0,025; -0,067; -0,020; 0,021; 0,044; 0,024; 0,025; -0,011; 0,068; 0,110; 0,075; 0,037; 0,051; 0,050; 0,014; -0,000; 0,017; 0,035; 0,028; 0,011; 0,050; -0,002; 0,053; 0,037; -0,002; 0,027; 0,043; 0,044; 0,043; 0,001; -0,019; -0,003; -0,056; -0,047; -0,011; 0,033; 0,052; -0,002; -0,061; -0,027; 0,026; 0,070; 0,039; 0,045; 0,025; -0,009; 0,002; -0,037; 0,017; -0,004; 0,032; 0,056; -0,001; -0,024; 0,038; -0,002; 0,066; 0,022; -0,026; -0,065; -0,029; -0,058; -0,119; -0,039; -0,045; -0,069; -0,018; -0,007; 0,026; 0,058; -0,075; -0,123; -0,073; 0,002; -0,040; -0,033; -0,038; -0,076; -0,073; -0,080; 0,008; -0,031; -0,094; 0,010; 0,035; -0,019; -0,083; 0,022; 0,070; -0,044; -0,088; -0,060; -0,015; -0,011; -0,048; 0,012; -0,025; -0,043; 0,030; 0,002; -0,076; 0,004; -0,094; -0,178; -0,110; -0,004; -0,067; -0,057; 0,006; 0,007; -0,026; -0,032; -0,042; -0,032; -0,017; -0,032; -0,029; -0,014; -0,080; -0,052; 0,038; -0,031; -0,026; -0,012; -0,058; -0,053; -0,046; -0,058; -0,083; -0,032; 0,009; -0,046; -0,111; -0,098; -0,160; -0,063; -0,077; -0,090; -0,126; -0,121; -0,040; -0,034; -0,081; -0,030; -0,047; -0,009; 0,033; -0,003; -0,061; -0,084; -0,079; -0,067; -0,075; -0,120; -0,045; -0,067; -0,157; -0,131; -0,074; -0,080; -0,099; -0,085; -0,105; -0,066; -0,098; -0,126; -0,205; -0,025; -0,056; -0,045; -0,062; -0,067; -0,099; -0,070; -0,062; -0,023; -0,111; -0,036; -0,004; 0,026; -0,049; -0,066; 0,034; -0,018; -0,105; -0,097; -0,026; -0,058; -0,091; -0,105; -0,065; -0,057; -0,044; -0,071; -0,120; -0,085; -0,168; -0,108; -0,124; -0,121; -0,158; -0,156; -0,167; -0,082; -0,074; -0,086; -0,025; -0,035; -0,068; -0,045; -0,171; -0,146; -0,071; -0,058; -0,008; -0,080; -0,143; -0,114; -0,042; -0,067; -0,063; -0,052; -0,064; -0,058; -0,002; -0,052; -0,127; -0,116; -0,147; -0,098; -0,180; -0,132; -0,105; -0,144; -0,147; -0,072; -0,029; -0,082; -0,066; -0,092; -0,011; -0,016; -0,130; -0,126; -0,107; -0,119; -0,091; -0,059; -0,140; -0,096; -0,067; -0,162; -0,117; -0,118; -0,088; -0,039; -0,017; -0,025; -0,063; -0,119; -0,114; -0,159; -0,141; -0,066; -0,087; -0,072; -0,035; -0,078; -0,125; -0,076; -0,014; -0,113; -0,074; 0,059; 0,023; -0,107; -0,157; -0,119; -0,124; -0,041; -0,121; -0,128; -0,154; -0,162; -0,120; -0,162; -0,081; 0,009; -0,038; -0,004; -0,112; -0,160; -0,187; -0,136; -0,082; -0,047; -0,101; -0,167; -0,136; -0,220; -0,226; -0,052; -0,046; -0,095; -0,058; 0,004; -0,041; -0,073; -0,060; -0,082; -0,107; -0,137; -0,124; -0,198; -0,167; -0,129; -0,132; -0,157; -0,103; -0,057; -0,117; 0,064; -0,066; -0,048; -0,111; -0,131; -0,083; -0,080; -0,130; -0,187; -0,083; -0,083; -0,107; -0,114; -0,103; -0,079; -0,111; -0,084; -0,046; -0,090; -0,130; -0,049; -0,120; -0,153; -0,109; -0,127; -0,053; -0,085; -0,092; -0,114; -0,086; -0,061; -0,026; 0,044; -0,084; -0,020; -0,048; -0,105; -0,029; -0,101; -0,118; -0,110; -0,026; -0,050; -0,050; -0,013; -0,027; -0,065; -0,117; -0,058; -0,082; -0,137; -0,113; -0,072; -0,111; -0,082; -0,097; -0,097; -0,077; -0,048; -0,101; -0,082; -0,028; -0,003; 0,041; 0,053; -0,029; -0,024; -0,034; -0,097; -0,046; -0,087; -0,093; -0,109; -0,095; -0,057; -0,051; -0,043; -0,092; -0,076; -0,074; -0,107; -0,143; -0,094; 0,008; -0,029; -0,062; 0,001; -0,077; -0,119; -0,123; -0,061; -0,046; -0,080; -0,048; 0,006; -0,015; 0,068; -0,086; -0,030; 0,004; -0,063; -0,075; -0,068; -0,027; -0,011; -0,045; -0,046; -0,058; -0,069; -0,027; -0,010; -0,094; -0,029; 0,011; 0,003; -0,089; -0,127; -0,139; -0,044; -0,041; -0,122; -0,086; -0,076; -0,062; -0,101; -0,040; -0,046; -0,039; 0,086; -0,056; -0,055; 0,049; -0,053; -0,098; -0,036; -0,048; -0,054; -0,058; -0,077; -0,098; -0,025; -0,026; -0,008; -0,051; 0,007; 0,015; -0,050; -0,095; -0,057; -0,089; -0,024; -0,005; -0,092; -0,048; -0,057; -0,057; -0,076; 0,034; 0,021; 0,005; 0,062; 0,022; -0,016; -0,013; -0,047; -0,058; -0,059; -0,047; -0,089; -0,150; -0,054; 0,012; 0,002; -0,074; 0,003; -0,011; 0,002; -0,006; -0,044; -0,000; -0,025; -0,036; -0,051; -0,090; -0,075; -0,055; -0,095; -0,052; -0,020; 0,035; 0,004; 0,035; -0,018; -0,003; 0,001; -0,044; -0,038; -0,014; -0,043; -0,034; 0,052; -0,025; 0,008; 0,067; -0,045; -0,077; 0,027; 0,053; 0,030; -0,038; -0,024; -0,036; -0,072; -0,021; -0,020; -0,081; -0,071; -0,037; -0,046; -0,043; -0,064; 0,046; 0,003; 0,017; -0,017; 0,030; 0,041; -0,027; -0,041; 0,025; 0,071; 0,036; 0,058; 0,073; 0,102; 0,021; 0,013; 0,005; 0,105; 0,059; 0,017; -0,004; 0,032; 0,019; -0,012; -0,046; 0,005; 0,016; -0,046; -0,006; -0,003; -0,010; -0,038; 0,043; 0,041; 0,009; 0,050; 0,041; 0,044; -0,034; -0,107; -0,011; 0,050; 0,080; 0,028; -0,025; 0,044; -0,027; 0,019; 0,028; 0,035; 0,013; -0,010; -0,012; 0,057; 0,002; -0,062; -0,056; 0,018; 0,066; -0,010; -0,013; -0,042; -0,034; -0,072; 0,030; 0,042; -0,020; 0,033; 0,036; 0,006; -0,034; -0,052; 0,005; 0,049; 0,084; 0,058; -0,012; 0,040; 0,021; 0,038; 0,026; -0,000; 0,050; 0,089; 0,022; 0,043; 0,009; -0,002; 0,014; 0,034; 0,107; 0,025; -0,012; -0,048; -0,029; -0,054; -0,003; 0,009; -0,001; 0,002; 0,066; 0,061; 0,047; 0,023; 0,039; 0,039; 0,017; 0,043; 0,043; 0,083; 0,017; 0,052; 0,020; 0,010; 0,067; 0,109; 0,035; 0,098; 0,100; 0,039; 0,062; 0,016; -0,022; 0,001; 0,046; 0,038; -0,005; -0,029; 0,022; 0,020; 0,034; 0,010; 0,020; 0,021; 0,026; -0,016; -0,015; 0,016; -0,020; -0,005; 0,094; 0,146; 0,101; 0,156; 0,120; 0,060; 0,092; 0,141; 0,056; 0,090; 0,040; 0,002; 0,025; -0,015; -0,038; -0,010; -0,004; 0,015; 0,040; 0,047; -0,006; -0,042; -0,064; 0,438; 0,232; 0,148; 0,157; 0,198; 0,140; 0,094; 0,099; 0,127; 0,062; 0,025; 0,001; 0,048; 0,069; 0,111; 0,122; 0,064; 0,016; 0,032; 0,016; 0,068; 0,105; 0,101; 0,134; 0,086; 0,065; 0,066; 0,089; 0,129; 0,132; 0,285; 0,452; 0,258; 0,179; 0,105; 0,163; 0,188; 0,129; 0,131; 0,057; 0,073; 0,047; -0,022; -0,036; -0,040; -0,030; 0,019; 0,052; -0,028; -0,041; -0,030; -0,045; -0,010; 0,053; 0,046; 0,134; 0,102; 0,089; 0,075; 0,090; 0,138; 0,083; 0,183; 0,258; 0,100; 0,044; 0,044; 0,086; 0,115; 0,107; 0,062; 0,012; 0,062; 0,029; -0,042; -0,050; -0,023; 0,024; -0,061; -0,093; -0,111; -0,074; -0,059; -0,049; -0,094; -0,073; -0,021; 0,032; -0,026; 0,011; 0,059; 0,048; 0,111; 0,068; 0,063; 0,106; 0,087; 0,073; 0,067; 0,060; -0,011; 0,012; 0,012; 0,037; 0,082; 0,012; -0,027; -0,035; -0,020; 0,008; -0,067; -0,108; -0,094; -0,016; -0,070; -0,073; -0,121; -0,096; 0,010; 0,039; -0,025; 0,035; 0,070; 0,089; 0,068; 0,063; 0,049; 0,049; -0,020; -0,004; 0,023; -0,004; -0,017; -0,008; 0,045; 0,102; 0,011; -0,015; -0,019; -0,022; -0,024; 0,012; -0,026; -0,005; -0,013; 0,045; -0,084; -0,042; -0,039; -0,057; 0,027; 0,082; 0,065; 0,050; -0,014; 0,076; 0,089; 0,032; -0,010; -0,015; -0,049; -0,004; 0,040; 0,017; 0,018; 0,008; 0,029; 0,123; 0,003; 0,022; -0,002; 0,035; -0,006; -0,053; -0,077; 0,042; 0,072; 0,041; -0,019; 0,025; -0,023; -0,032; -0,065; -0,039; -0,020; -0,044; -0,081; 0,106; 0,113; -0,011; -0,031; -0,029; -0,098; -0,054; 0,009; -0,023; -0,049; -0,015; -0,005; 0,065; 0,002; 0,035; 0,037; 0,092; 0,017; -0,040; -0,007; 0,072; 0,083; 0,046; 0,005; 0,019; 0,004; -0,015; -0,072; -0,057; -0,012; 0,022; 0,001; 0,096; 0,001; -0,091; -0,074; -0,063; -0,135; -0,091; -0,015; -0,013; -0,038; 0,003; 0,028; -0,008; -0,063; -0,046; 0,038; 0,119; 0,086; 0,046; 0,068; 0,092; 0,066; 0,047; -0,010; 0,031; 0,127; 0,057; -0,002; -0,034; 0,035; 0,057; 0,003; 0,085; -0,032; -0,070; 0,008; -0,020; -0,114; -0,118; 0,010; 0,022; -0,049; -0,057; -0,006; -0,021; -0,000; 0,024; 0,078; 0,141; 0,114; 0,094; 0,137; 0,183; 0,131; 0,152; 0,129; 0,129; 0,137; 0,086; 0,074; 0,059; 0,029; -0,057; -0,061; 0,043; -0,005; -0,063; 0,040; -0,071; -0,071; -0,079; -0,021; -0,034; -0,044; 0,001; -0,001; 0,021; -0,003; -0,025; 0,079; 0,157; 0,148; 0,117; 0,175; 0,196; 0,191; 0,190; 0,145; 0,100; 0,078; 0,078; 0,081; 0,037; 0,033; -0,024; -0,031; -0,024; -0,044; -0,034; 0,016; -0,066; -0,102; -0,069; -0,047; -0,041; -0,009; 0,032; -0,021; 0,058; 0,084; 0,057; 0,080; 0,138; 0,185; 0,151; 0,164; 0,186; 0,227; 0,223; 0,155; 0,142; 0,069; 0,126; 0,114; 0,053; 0,031; 0,027; 0,033; 0,033; -0,059; -0,097; -0,076; -0,112; -0,087; -0,077; -0,054; -0,017; 0,004; -0,025; 0,018; 0,058; 0,087; 0,052; 0,098; 0,130; 0,163; 0,193; 0,176; 0,222; 0,180; 0,208; 0,162; 0,058; 0,018; 0,114; 0,112; 0,129; 0,024; -0,026; -0,049; -0,016; -0,100; -0,194; -0,132; -0,119; -0,105; -0,090; -0,084; -0,009; 0,094; 0,015; 0,000; 0,044; 0,088; 0,039; 0,072; 0,098; 0,118; 0,156; 0,139; 0,199; 0,127; 0,071; 0,129; 0,133; 0,084; 0,011; 0,116; 0,125; -0,037; -0,075; -0,044; 0,008; -0,007; -0,075; -0,054; -0,093; -0,067; -0,008; -0,013; -0,033; 0,098; 0,045; -0,024; 0,032; 0,133; 0,084; 0,092; 0,176; 0,188; 0,162; 0,141; 0,108; 0,088; 0,141; 0,139; 0,135; 0,143; 0,037; 0,037; 0,105; 0,041; 0,049; 0,019; -0,036; -0,031; -0,068; -0,125; -0,167; -0,078; -0,013; 0,004; 0,025; 0,060; -0,005; 0,059; 0,027; 0,021; 0,010; -0,001; 0,123; 0,138; 0,099; 0,148; 0,143; 0,142; 0,188; 0,169; 0,129; 0,100; 0,060; 0,048; 0,013; -0,041; 0,040; -0,000; -0,113; -0,106; -0,098; -0,147; -0,205; -0,125; -0,103; 0,014; 0,069; 0,073; -0,040; 0,102; 0,069; 0,097; 0,082; 0,052; 0,043; 0,073; 0,131; 0,194; 0,098; 0,129; 0,171; 0,196; 0,106; 0,066; 0,155; 0,100; -0,005; -0,006; 0,067; 0,015; -0,033; -0,055; 0,006; -0,052; -0,126; -0,073; -0,077; 0,018; 0,009; 0,092; 0,054; 0,033; 0,011; 0,018; -0,009; 0,050; 0,041; 0,020; 0,115; 0,143; 0,088; 0,084; 0,003; 0,045; 0,085; 0,061; 0,145; 0,091; -0,009; -0,004; 0,066; 0,052; 0,074; 0,096; 0,090; 0,003; -0,068; -0,068; -0,056; 0,026; 0,041; 0,115; -0,005; -0,004; 0,027; 0,019; 0,016; 0,046; 0,080; 0,012; 0,035; 0,024; 0,097; 0,069; -0,010; 0,025; 0,034; 0,010; 0,062; 0,105; 0,011; 0,031; 0,051; -0,015; 0,054; 0,080; 0,096; 0,020; -0,080; -0,052; 0,041; 0,093; 0,104; 0,061; 0,031; 0,069; 0,055; 0,085; 0,137; 0,074; -0,017; 0,047; 0,111; 0,022; 0,054; 0,142; 0,114; 0,030; -0,009; 0,014; 0,013; 0,101; 0,036; 0,028; -0,003; 0,009; 0,065; 0,038; 0,099; 0,110; -0,045; -0,026; -0,002; 0,069; 0,030; 0,044; 0,081; 0,098; 0,058; -0,017; 0,005; -0,069; -0,103; 0,089; 0,087; 0,054; 0,105; 0,114; 0,053; 0,061; 0,104; 0,058; 0,037; 0,024; 0,050; -0,021; -0,005; 0,030; 0,049; 0,037; 0,067; 0,050; -0,113; 0,008; 0,007; 0,138; 0,072; 0,026; 0,068; 0,056; 0,027; -0,026; 0,036; 0,014; 0,011; 0,021; 0,049; 0,082; 0,082; 0,063; 0,068; 0,041; 0,032; 0,125; 0,055; 0,018; 0,073; 0,056; 0,104; 0,060; 0,051; 0,053; 0,071; 0,034; -0,027; -0,018; -0,049; 0,112; 0,092; 0,030; 0,077; -0,013; 0,027; 0,019; 0,030; -0,021; 0,024; 0,078; 0,100; 0,093; 0,060; 0,086; 0,035; 0,005; 0,066; 0,099; 0,030; 0,057; 0,052; 0,053; 0,054; 0,067; 0,008; 0,044; 0,122; 0,107; 0,060; 0,019; 0,004; 0,078; 0,088; 0,020; 0,055; 0,003; 0,042; 0,005; -0,075; -0,066; -0,025; 0,017; -0,007; 0,050; 0,057; -0,006; -0,063; 0,011; 0,162; 0,115; 0,043; 0,112; 0,034; 0,005; 0,015; 0,061; 0,069; 0,035; 0,081; 0,104; -0,002; 0,049; -0,059; 0,059; 0,109; 0,041; 0,019; 0,026; 0,087; 0,099; -0,008; -0,031; -0,016; 0,004; 0,056; 0,090; 0,012; 0,026; 0,064; 0,095; 0,041; 0,006; -0,039; 0,043; 0,042; -0,047; 0,013; 0,034; 0,045; -0,008; 0,043; 0,006; -0,039; 0,084; -0,037; 0,013; 0,129; 0,023; -0,012; 0,051; 0,033; 0,010; -0,015; -0,037; -0,017; 0,058; 0,058; 0,102; 0,060; 0,080; 0,086; 0,040; 0,005; 0,028; -0,005; 0,040; 0,053; -0,042; 0,005; 0,017; 0,017; -0,031; 0,066; 0,058; 0,014; 0,078; 0,040; 0,004; 0,027; -0,017; -0,031; -0,007; 0,001; -0,058; -0,122; -0,023; 0,074; 0,060; -0,004; 0,110; 0,087; 0,083; 0,073; 0,021; 0,053; 0,014; 0,017; 0,005; -0,027; -0,010; -0,002; -0,024; 0,016; 0,029; 0,088; 0,092; 0,103; 0,014; 0,013; 0,002; -0,027; -0,037; -0,030; -0,029; -0,016; 0,051; -0,024; -0,002; 0,074; -0,017; -0,037; 0,085; 0,087; 0,065; 0,006; 0,016; 0,007; -0,040; 0,033; 0,030; -0,043; -0,033; 0,007; -0,004; 0,010; -0,002; 0,138; 0,122; 0,118; 0,051; 0,079; 0,063; -0,003; -0,023; 0,019; 0,060; 0,016; 0,024; 0,062; 0,079; 0,013; 0,012; 0,012; 0,123; 0,046; -0,012; -0,031; 0,018; 0,019; -0,008; -0,009; 0,048; 0,037; -0,047; -0,007; 0,009; 0,006; 0,007; 0,133; 0,157; 0,130; 0,152; 0,115; 0,090; -0,004; -0,082; 0,006; 0,047; 0,059; -0,011; -0,054; 0,009; -0,048; -0,004; 0,014; 0,041; 0,002; -0,031; -0,052; 0,025; -0,014; -0,092; -0,058; 0,040; 0,076; -0,028; -0,045; -0,063; -0,022; -0,023; 0,116; 0,166; 0,132; 0,158; 0,122; 0,060; -0,009; -0,052; -0,006; 0,025; 0,043; -0,000; -0,076; -0,028; -0,036; -0,021; -0,004; 0,000; 0,051; 0,096; 0,010; 0,035; 0,008; -0,018; 0,023; 0,055; 0,101; 0,007; -0,040; -0,083; 0,003; 0,039; 0,111; 0,149; 0,158; 0,149; 0,150; 0,105; 0,063; 0,016; 0,005; -0,014; -0,050; -0,042; -0,053; -0,020; -0,085; -0,049; -0,042; -0,019; 0,037; 0,097; 0,022; 0,083; 0,092; 0,037; 0,064; 0,020; -0,036; -0,014; 0,029; 0,004; 0,012; 0,047; 0,136; 0,155; 0,184; 0,147; 0,104; 0,059; 0,045; -0,033; -0,072; -0,059; -0,103; -0,106; -0,031; 0,013; -0,034; 0,014; -0,006; -0,043; -0,009; 0,050; -0,022; 0,023; -0,027; -0,038; -0,004; -0,053; -0,092; -0,056; -0,040; -0,023; 0,037; 0,086; 0,084; 0,080; 0,074; -2,309; 0,123; -0,017; -0,089; -0,049; 0,000; -0,072; -0,091; -0,040; 0,007; -0,025; -0,038; -0,044; 0,018; 0,039; 0,048; 0,041; -0,010; -0,021; -0,028; -0,065; -0,011; -0,000; -0,052; -0,064; -0,111; -0,132; -0,130; -0,092; -0,082; -0,100; 0,004; 0,128; 0,007; -0,038; -0,104; -0,038; -0,012; -0,039; 0,005; -0,037; 0,009; 0,017; -0,019; 0,007; 0,014; 0,029; 0,048; 0,069; 0,025; 0,041; 0,023; 0,002; 0,047; 0,074; 0,001; 0,040; 0,015; 0,004; -0,033; -0,032; -0,032; -0,120; -0,060; -0,004; -0,096; -0,122; -0,120; -0,068; -0,054; -0,040; -0,038; -0,047; 0,027; 0,018; -0,011; 0,019; 0,059; 0,090; -0,005; -0,019; 0,028; 0,064; 0,023; 0,055; 0,020; 0,008; -0,013; -0,010; -0,063; -0,021; -0,016; -0,010; 0,014; -0,071; -0,106; -0,070; -0,035; -0,010; -0,023; -0,049; -0,116; -0,110; -0,095; -0,037; 0,021; -0,017; -0,018; 0,006; 0,039; 0,031; -0,034; -0,040; 0,008; 0,073; -0,004; 0,015; -0,003; -0,004; 0,027; 0,015; -0,066; 0,014; 0,031; 0,059; 0,018; -0,009; -0,044; -0,049; -0,069; -0,003; -0,016; -0,068; -0,067; -0,079; -0,047; 0,008; -0,070; -0,073; -0,029; -0,007; -0,002; 0,045; 0,005; 0,022; -0,000; 0,035; -0,072; 0,009; 0,064; 0,022; 0,042; 0,054; -0,013; -0,002; -0,036; 0,028; 0,030; -0,003; -0,065; -0,076; -0,027; 0,065; 0,056; -0,002; -0,003; -0,023; -0,055; 0,015; -0,080; -0,049; -0,021; 0,011; -0,039; -0,036; -0,050; 0,032; 0,003; -0,030; -0,052; 0,023; 0,022; -0,004; -0,057; -0,057; -0,085; -0,101; -0,111; 0,032; 0,028; -0,033; -0,045; -0,044; -0,025; 0,058; 0,085; 0,011; -0,013; -0,007; -0,054; -0,002; -0,068; -0,075; -0,044; -0,005; -0,106; -0,147; -0,079; -0,024; -0,076; -0,097; -0,093; -0,074; -0,053; -0,075; -0,109; -0,095; -0,057; -0,016; -0,022; 0,041; -0,046; -0,071; -0,031; -0,041; -0,028; 0,063; 0,087; 0,035; -0,004; -0,030; -0,026; -0,050; -0,113; -0,171; -0,115; -0,082; -0,135; -0,177; -0,113; -0,067; -0,128; -0,141; -0,177; -0,139; -0,011; -0,046; -0,083; -0,103; -0,031; -0,037; -0,053; 0,054; -0,018; -0,020; 0,057; 0,012; -0,008; 0,034; 0,102; 0,056; -0,014; -0,068; -0,052; -0,089; -0,083; -0,150; -0,172; -0,162; -0,170; -0,202; -0,162; -0,093; -0,164; -0,179; -0,205; -0,147; -0,090; -0,077; -0,063; -0,047; -0,069; -0,172; -0,140; 0,009; 0,057; 0,047; 0,126; -0,010; 0,051; 0,072; 0,077; 0,005; -0,007; 0,003; -0,036; -0,062; -0,127; -0,220; -0,185; -0,190; -0,182; -0,214; -0,195; -0,176; -0,231; -0,281; -0,277; -0,204; -0,192; -0,151; -0,106; -0,134; -0,084; -0,087; -0,067; -0,034; 0,058; 0,119; 0,151; 0,023; 0,035; 0,084; 0,054; 0,018; -0,014; 0,005; -0,057; -0,021; -0,045; -0,145; -0,163; -0,170; -0,143; -0,167; -0,215; -0,173; -0,203; -0,262; -0,231; -0,113; -0,193; -0,154; -0,142; -0,157; -0,082; -0,001; 0,046; 0,072; 0,078; 0,072; 0,087; -0,002; 0,065; 0,095; 0,075; 0,032; -0,000; 0,004; 0,016; 0,002; -0,005; -0,092; -0,061; -0,086; -0,134; -0,126; -0,201; -0,099; -0,133; -0,148; -0,124; -0,117; -0,171; -0,117; -0,120; -0,031; -0,025; 0,029; 0,062; 0,110; 0,090; 0,024; 0,088; 0,033; 0,028; 0,065; 0,048; 0,034; 0,105; 0,045; -0,049; -0,040; 0,020; -0,075; -0,064; -0,089; -0,182; -0,174; -0,189; -0,086; -0,124; -0,195; -0,093; -0,038; -0,074; -0,123; 0,003; 0,069; 0,010; 0,055; 0,154; 0,183; 0,172; 0,143; 0,177; 0,079; -0,018; 0,071; 0,074; 0,008; 0,112; 0,048; -0,051; -0,002; 0,102; -0,023; -0,042; -0,007; -0,044; -0,077; -0,084; -0,080; -0,098; -0,069; -0,080; -0,052; -0,013; -0,046; -0,013; 0,090; 0,074; 0,123; 0,195; 0,127; 0,112; 0,164; 0,149; 0,066; -0,025; 0,067; 0,058; 0,033; 0,093; 0,077; 0,166; 0,101; 0,077; -0,001; -0,035; 0,026; 0,003; -0,072; -0,049; -0,028; -0,006; 0,029; -0,031; -0,103; -0,105; -0,044; -0,010; 0,025; 0,020; 0,108; 0,110; 0,021; 0,049; 0,112; 0,118; 0,061; -0,047; 0,018; 0,079; 0,066; 0,096; 0,092; 0,241; 0,134; 0,132; 0,108; 0,073; 0,018; 0,034; 0,010; 0,014; -0,046; -0,002; 0,058; 0,065; -0,016; -0,016; 0,122; 0,094; 0,073; 0,114; 0,165; 0,124; 0,076; 0,059; 0,110; 0,087; 0,045; -0,054; 0,008; 0,106; 0,037; 0,126; 0,161; 0,139; 0,048; 0,055; 0,051; 0,128; 0,114; 0,073; 0,087; 0,035; -0,004; 0,013; -0,054; -0,026; 0,075; 0,090; 0,142; 0,089; 0,065; 0,108; 0,160; 0,120; 0,107; 0,105; 0,101; 0,037; 0,007; -0,014; 0,028; 0,114; 0,094; 0,155; 0,102; 0,146; 0,135; 0,111; 0,109; 0,183; 0,192; 0,076; 0,059; -0,029; 0,026; 0,080; 0,003; 0,007; 0,067; 0,051; 0,064; 0,095; 0,057; 0,121; 0,146; 0,061; 0,076; 0,014; 0,045; 0,019; -0,042; 0,036; 0,092; 0,111; 0,112; 0,042; 0,058; 0,184; 0,168; 0,183; 0,227; 0,173; 0,065; 0,062; 0,077; -0,066; -0,031; 0,158; 0,135; 0,023; 0,028; 0,064; 0,058; 0,126; 0,075; 0,084; 0,079; 0,095; 0,095; -0,016; 0,049; 0,075; -0,047; 0,039; 0,006; 0,011; -0,025; 0,004; 0,033; 0,119; 0,098; 0,068; 0,133; 0,027; -0,060; 0,069; 0,035; -0,050; -0,018; 0,071; 0,050; 0,020; 0,066; 0,074; 0,038; 0,004; 0,054; -0,005; 0,019; 0,057; 0,052; -0,004; 0,039; 0,028; -0,105; 0,048; -0,022; 0,034; -0,021; -0,033; 0,002; 0,027; 0,004; -0,002; 0,168; 0,128; 0,029; 0,002; -0,017; -0,015; -0,052; -0,053; 0,001; -0,018; -0,049; 0,041; -0,031; -0,040; 0,041; 0,047; 0,089; 0,048; 0,041; 0,001; 0,016; 0,007; -0,002; 0,022; -0,039; 0,048; 0,022; -0,050; 0,015; -0,033; -0,017; 0,034; 0,173; 0,119; 0,041; 0,049; 0,034; 0,026; -0,031; -0,002; -0,034; -0,072; -0,040; -0,017; -0,031; 0,021; 0,018; 0,051; 0,047; 0,073; 0,013; -0,011; 0,019; 0,045; 0,081; 0,055; 0,032; 0,059; 0,036; -0,059; -0,021; -0,042; -0,045; -0,013; 0,050; 0,067; 0,008; -0,021; -0,062; 0,006; 0,000; -0,043; -0,081; -0,014; 0,093; 0,036; 0,024; 0,103; 0,016; -0,015; -0,039; 0,006; 0,016; -0,048; -0,027; 0,041; 0,044; 0,085; -0,008; 0,071; 0,087; 0,017; -0,017; -0,010; 0,021; 0,068; 0,054; 0,050; -0,007; -0,047; -0,014; 0,019; -0,034; 0,024; 0,051; 0,087; 0,007; -0,079; -0,066; 0,039; 0,008; -0,087; -0,050; -0,063; -0,063; -0,106; -0,048; -0,038; -0,005; 0,107; 0,010; 0,008; 0,117; 0,014; -0,030; 0,060; 0,026; 0,019; 0,017; -0,016; -0,066; -0,010; -0,031; -0,039; -0,056; 0,001; -0,001; -0,009; -0,052; -0,055; -0,054; 0,038; 0,055; -0,019; 0,031; -0,000; -0,027; -0,090; 0,019; 0,019; 0,018; 0,074; 0,058; 0,016; 0,024; -0,015; -0,033; 0,009; 0,006; -0,050; -0,109; -0,030; 0,018; 0,007; -0,110; -0,092; -0,078; -0,056; -0,065; -0,075; 0,004; -0,024; -0,010; 0,023; -0,007; 0,023; 0,049; -0,006; -0,003; -0,025; 0,016; -0,010; 0,023; -0,015; 0,010; 0,017; -0,020; -0,019; -0,029; -0,055; -0,046; 0,007; -0,082; -0,052; 0,013; -0,067; -0,134; -0,082; -0,033; -0,042; -0,113; -0,099; -0,066; -0,068; -0,001; 0,035; -0,041; -0,026; 0,026; -0,001; -0,035; -0,092; -0,008; -0,047; -0,020; -0,032; 0,018; 0,033; -0,024; -0,040; -0,008; 0,020; -0,035; -0,058; -0,057; -0,019; -0,089; -0,057; -0,079; 0,004; -0,016; -0,057; -0,104; -0,055; -0,018; -0,019; -0,048; 0,011; 0,015; -0,052; 0,010; 0,003; -0,043; -0,110; -0,048; -0,039; -0,044; 0,002; -0,011; -0,012; -0,067; -0,125; -0,045; -0,012; -0,020; -0,087; -0,150; -0,072; -0,144; -0,094; -0,105; -0,087; -0,086; -0,131; -0,163; -0,073; -0,057; -0,099; -0,077; 0,001; 0,047; -0,037; -0,048; -0,083; -0,082; -0,145; -0,058; -0,029; -0,055; -0,029; -0,033; -0,060; -0,076; -0,096; -0,054; -0,030; -0,012; -0,036; -0,123; -0,063; -0,084; -0,073; -0,108; -0,142; -0,095; -0,069; -0,141; -0,102; -0,087; -0,075; -0,040; -0,003; 0,062; -0,016; -0,060; -0,096; -0,057; -0,085; -0,061; -0,062; -0,043; -0,071; -0,006; -0,004; 0,005; -0,015; -0,012; -0,028; -0,058; -0,038; -0,057; -0,024; -0,093; -0,046; -0,091; -0,099; -0,062; -0,024; -0,091; -0,018; 0,023; -0,022; 0,009; -0,030; -0,064; -0,040; -0,006; -0,017; -0,037; -0,053; -0,040; -0,068; -0,023; -0,071; -0,048; -0,038; -0,013; -0,044; -0,037; -0,015; -0,072; -0,073; 0,021; 0,066; 0,013; 0,075; 0,026; -0,013; 0,004; 0,045; -0,038; 0,002; -0,025; -0,046; -0,020; -0,051; -0,056; -0,025; -0,042; -0,039; 0,009; 0,028; -0,051; -0,108; -0,100; 0,143; -0,007; -0,074; -0,034; 0,005; -0,059; -0,072; -0,040; -0,019; -0,055; -0,063; -0,083; -0,029; -0,