-2,758; 0,006; 0,002; 0,008; 0,006; 0,005; 0,004; 0,009; 0,008; 0,007; 0,002; 0,009; 0,007; 0,007; 0,003; -0,003; -0,002; 0,004; 0,001; 0,002; 0,010; 0,004; 0,001; 0,000; 0,000; 0,004; 0,005; 0,006; 0,006; 0,006; 0,002; 0,007; 0,005; 0,003; 0,004; 0,046; 0,116; 0,305; 0,134; 0,693; 0,105; 0,181; 0,189; 0,388; 0,937; 0,899; 1,030; 1,039; 0,658; 0,430; 1,082; 1,147; 0,164; 0,010; 0,006; 0,004; 0,003; 0,003; 0,008; 0,000; -0,002; 0,002; 0,012; 0,056; 0,726; 1,430; 1,045; 1,770; 1,014; 2,440; 2,180; 1,913; 3,251; 3,280; 1,700; 2,133; 1,895; 1,054; -0,009; 0,322; 0,798; 0,152; 0,001; 0,006; 0,006; 0,004; 0,002; 0,002; 0,032; 0,162; 0,576; 2,475; 3,793; 3,405; 2,877; 3,368; 2,534; 3,926; 4,420; 3,012; 5,111; 4,791; 5,531; 3,703; 4,498; 6,362; 3,625; 2,789; 1,383; 0,394; 0,061; -0,002; 0,008; 0,006; -0,005; -0,020; 0,041; 0,562; 1,102; 2,037; 3,040; 0,449; 2,033; 3,224; 0,966; -0,953; -3,436; -4,135; -3,525; -0,125; 2,181; 2,757; 7,113; 4,139; 2,211; 0,465; 0,231; -0,266; -0,051; -0,008; -0,003; 0,004; 0,008; 0,056; -0,031; 1,208; 0,845; 0,331; -0,874; -3,505; -3,569; -2,893; -3,849; -3,740; -1,014; -3,213; -3,348; 0,227; -5,386; -3,285; 0,896; -1,085; -2,848; -3,670; -2,617; -0,125; -0,400; -0,057; -0,009; 0,007; -0,016; 0,040; -0,150; -0,456; -2,021; -0,482; -3,695; -6,463; -7,975; -5,512; -1,323; -5,327; -4,222; -2,221; -4,547; -2,379; -5,354; -6,382; -6,315; -6,519; -8,052; -7,442; -5,033; -1,839; -0,934; -0,622; -0,221; 0,002; 0,014; 0,030; -0,205; -0,600; -1,982; -2,810; -1,191; -5,333; -3,908; -0,063; 1,057; 1,178; -1,413; -3,995; -5,474; -9,947; -13,155; -13,354; -12,601; -11,498; -13,039; -10,701; -5,072; -4,863; -2,060; -0,793; -0,081; 0,008; 0,040; -0,068; 0,054; 0,970; -1,934; -3,525; 2,722; 3,079; 3,719; 3,564; 2,704; 3,139; -1,246; -5,266; -6,152; -9,160; -9,614; -16,388; -14,755; -14,110; -14,623; -9,235; -5,256; -5,140; -3,006; -0,827; -0,116; -0,002; 0,087; 0,090; 0,497; 2,924; -0,880; -0,745; 5,830; 4,891; 1,059; 4,045; 2,779; 3,507; 3,362; 3,483; -0,235; -5,115; -3,914; -5,030; -8,626; -7,097; -6,406; -5,037; -5,561; -2,557; -1,510; -0,360; 0,007; -0,022; 0,106; 1,901; 1,812; 1,070; 2,750; 1,323; 4,511; 3,105; 3,972; 2,526; -2,508; 4,540; 13,734; 17,158; 7,181; 0,939; 1,807; -2,095; -0,823; 4,931; -1,414; -2,734; 1,407; 0,441; -0,600; 0,022; -0,004; -0,006; 0,016; 2,388; 2,869; 3,338; 4,485; 2,964; 2,653; -0,262; 0,107; -2,443; -2,178; 6,334; 14,186; 17,634; 5,302; 3,805; 8,538; 0,667; 2,973; 6,251; -1,721; 0,347; 4,776; 4,472; 0,208; -0,003; 0,025; -0,028; -0,092; 0,983; 2,602; 3,484; 4,136; 2,710; -3,280; -4,856; -5,138; -2,328; -3,359; -0,427; 7,329; 10,952; 5,555; 4,968; 9,213; 5,751; 3,635; 6,052; -2,546; 2,535; 6,067; 1,073; -0,160; 0,897; 0,069; 0,022; -0,227; 0,440; 2,557; 3,123; 0,906; -2,579; -6,268; -6,773; -7,216; -8,140; -5,620; -1,451; 0,957; 2,920; 0,852; 2,242; -0,061; 3,218; 4,368; 5,439; 4,618; 4,350; 11,008; 3,434; 0,210; 0,926; 0,027; 0,016; -0,034; 0,306; 1,601; -0,479; -4,785; -4,220; -4,179; -3,148; 0,070; -1,372; -6,831; -6,964; 0,000; 5,503; -3,141; -2,014; -4,276; 4,421; 3,314; 5,670; 8,432; 7,151; 5,815; 2,161; 0,502; 0,928; 0,002; 0,013; 0,032; 0,150; -0,179; -2,501; -4,094; -0,883; -2,081; -4,920; -5,620; -5,809; -8,490; -2,888; 4,191; 0,675; -3,086; -5,034; -7,646; 4,358; 3,863; 6,072; 2,917; 0,968; -0,467; 0,457; 0,718; 1,062; 0,005; -0,006; 0,028; 0,266; -0,273; -1,787; 0,684; 0,760; -0,820; -7,771; -4,161; -2,671; -2,254; -5,289; 3,525; 5,068; 0,933; -8,254; -7,485; 3,035; 5,540; 2,735; -0,207; 1,216; 1,164; 1,698; 4,028; 2,322; 0,025; 0,007; 0,008; 0,149; -0,001; -0,280; -1,352; -1,070; -2,876; -4,780; -2,879; -0,318; 0,216; -3,988; 1,278; -2,943; -1,948; -7,328; -0,303; 1,503; 5,700; 4,259; 3,245; 4,469; 4,316; 4,726; 2,689; 0,603; -0,029; 0,006; -0,008; 0,593; 1,156; 0,554; -2,644; -3,558; -1,561; 1,023; 0,227; 1,909; 3,872; -0,541; 2,061; -1,515; -1,284; -0,852; 4,182; 1,128; 5,993; 1,336; 2,711; 3,805; 3,276; 0,426; -0,007; -0,537; -0,380; 0,011; -0,020; 0,888; 0,973; 0,396; -1,023; -0,895; 0,932; 5,869; 5,198; 1,514; 6,767; 5,678; 4,162; -3,499; -2,360; 4,204; 4,194; 1,528; 5,739; -0,389; -0,311; 0,266; 0,175; -1,286; -0,622; -0,516; -0,293; 0,007; -0,023; 0,061; 0,333; 0,809; 0,519; 0,789; 1,723; 4,894; 6,236; 6,903; 5,702; 5,000; 2,015; -3,816; -0,153; 2,967; 1,181; 3,496; 2,445; -1,169; -4,230; -2,578; -2,334; -0,656; -0,086; 0,008; 0,007; 0,006; -0,018; -0,044; -0,099; -0,402; -1,528; -1,215; 0,937; 0,010; -1,772; 6,023; 3,910; 0,591; 2,520; 2,784; 7,919; -1,151; 1,396; 0,706; -3,147; -4,343; -9,973; -6,535; -5,136; -0,029; -0,298; 0,004; 0,004; 0,009; -0,012; 0,069; 0,024; -0,042; -1,046; -2,833; -1,181; -2,793; -1,811; -0,709; -7,320; -3,953; -3,308; -1,960; 1,090; -3,383; -5,032; -8,256; -11,862; -6,327; -7,958; -4,469; -3,505; -1,393; -0,678; 0,001; 0,000; 0,006; 0,004; 0,006; 0,023; -0,061; -0,500; -0,866; -1,346; -3,531; -3,342; -5,271; -7,212; -7,904; -10,550; -11,282; -7,425; -9,639; -5,289; -6,109; -9,155; -2,406; -5,641; -3,872; -2,377; -0,550; 0,025; 0,007; 0,008; 0,004; 0,009; -0,037; -0,024; 0,132; -0,012; 0,104; 0,557; 0,744; -0,471; -3,006; -3,057; -2,225; -3,629; -1,598; 0,314; 3,148; 6,671; -0,325; 2,707; 4,278; -0,215; -2,118; -1,167; -0,144; 0,010; 0,002; 0,001; 0,008; 0,009; -0,039; -0,012; 0,178; 0,419; 1,549; 2,395; 1,024; -0,088; -1,033; -0,878; 3,477; 3,147; 3,871; 2,319; 6,187; 3,298; 0,097; 3,664; 3,224; 1,733; 1,140; 0,755; 0,390; 0,000; -0,005; 0,000; 0,008; 0,002; 0,000; 0,000; -0,013; 0,019; 0,031; 0,059; -1,172; -0,915; -1,054; 1,011; 2,417; 2,678; 0,228; 1,372; 1,196; 0,982; 1,583; 3,226; 1,909; 1,335; 0,872; 0,242; 0,022; -0,012; 0,008; 0,009; 0,009; 0,003; 0,009; 0,006; -0,009; 0,009; 0,009; 0,017; 0,023; 0,008; -0,019; -0,028; 0,802; 0,631; -0,079; 0,020; 0,481; 0,201; 0,013; 0,680; -0,019; 0,207; 0,104; 0,016; 0,008; 0,002; 0,001; 0,000; 0,748; 0,000; 0,010; 0,006; 0,001; 0,009; 0,006; 0,004; 0,000; 0,002; 0,004; 0,007; 0,008; -0,002; 0,007; 0,002; 0,007; 0,006; 0,010; 0,005; 0,002; 0,003; 0,008; 0,003; 0,005; 0,006; 0,001; 0,010; 0,008; 0,002; 0,005; 0,007; 0,010; -0,003; -0,003; 0,007; 0,018; 0,011; -0,003; -0,003; 0,002; -0,004; 0,006; 0,004; 0,009; 0,005; 0,009; 0,007; 0,006; 0,006; 0,007; 0,008; 0,005; 0,010; 0,002; 0,006; 0,009; 0,006; 0,009; -0,001; -0,001; -0,006; -0,001; 0,000; -0,075; -0,178; 0,093; 0,107; 0,024; 0,041; 0,029; 0,026; 0,007; 0,011; 0,013; 0,011; 0,005; 0,015; 0,005; 0,009; 0,002; 0,002; 0,001; 0,003; 0,003; 0,007; 0,004; -0,002; 0,000; 0,019; 0,000; 0,002; -0,127; -0,163; 0,018; 0,163; 0,129; 0,073; 0,087; 0,098; 0,046; 0,017; 0,031; 0,037; 0,043; 0,024; 0,012; 0,014; 0,010; 0,007; -0,008; 0,009; 0,008; 0,005; -0,002; -0,007; 0,006; 0,004; 0,009; -0,069; -0,389; -0,275; -0,076; -0,018; -0,040; 0,064; 0,333; 0,394; 0,387; 0,388; 0,223; 0,240; 0,239; 0,137; 0,064; 0,057; 0,051; 0,020; 0,003; -0,000; -0,004; 0,006; 0,002; 0,011; 0,002; 0,008; 0,019; -0,205; -0,423; -0,327; -0,343; -0,060; 0,084; 0,071; -0,028; -0,075; -0,037; 0,204; 0,141; 0,183; 0,065; 0,174; 0,071; 0,068; 0,058; 0,052; 0,006; 0,009; 0,008; 0,007; -0,003; 0,006; 0,010; -0,006; 0,106; 0,061; -0,511; -0,257; -0,144; -0,127; -0,317; -0,218; -0,010; -0,174; 0,026; -0,030; 0,235; -0,001; 0,110; 0,172; 0,174; 0,166; 0,087; 0,047; 0,018; 0,011; 0,005; 0,008; 0,002; 0,008; 0,016; -0,005; 0,158; -0,048; -0,274; -0,708; -0,287; 0,419; 0,300; 0,343; 0,523; 0,495; 0,615; 0,416; 0,358; 0,146; 0,104; 0,245; 0,179; 0,170; 0,113; 0,036; 0,028; 0,010; 0,011; 0,010; 0,014; 0,020; 0,034; 0,068; 0,254; 0,028; -0,005; -0,586; -0,068; 0,709; 0,544; 0,637; 0,741; 0,629; 0,623; 0,549; 0,513; 0,268; 0,217; 0,330; 0,173; 0,104; 0,059; 0,033; 0,022; 0,013; 0,004; 0,010; 0,022; 0,036; 0,046; 0,122; 0,295; 0,072; 0,366; -0,145; -0,148; 0,641; 0,819; 0,646; 0,568; 0,647; 0,651; 0,511; 0,307; 0,220; 0,195; 0,322; 0,180; 0,086; 0,022; 0,008; 0,021; 0,023; 0,013; 0,026; 0,016; 0,021; 0,044; 0,105; 0,204; -0,162; 0,075; 0,049; -0,571; 0,447; 0,879; 0,706; 0,811; 0,742; 0,725; 0,644; 0,345; 0,157; 0,216; 0,315; 0,278; 0,193; 0,099; 0,047; 0,079; 0,043; 0,004; 0,017; 0,007; 0,007; 0,074; 0,131; 0,130; -0,212; 0,100; 0,293; -0,393; 0,362; 0,884; 0,722; 0,743; 0,638; 0,728; 0,741; 0,609; 0,315; 0,338; 0,306; 0,318; 0,293; 0,195; 0,084; 0,092; 0,044; 0,007; 0,011; 0,009; 0,008; 0,064; 0,186; 0,185; -0,140; 0,165; 0,586; -0,534; -0,349; 0,252; 0,001; -0,137; 0,208; 0,473; 0,486; 0,366; 0,226; 0,367; 0,312; 0,149; 0,133; 0,112; 0,021; 0,042; 0,017; 0,011; 0,021; 0,004; 0,007; 0,021; 0,182; 0,155; -0,228; 0,092; 0,493; -0,531; -0,650; -0,000; 0,167; 0,229; 0,384; 0,421; 0,330; 0,518; 0,038; -0,196; 0,286; 0,174; 0,139; 0,083; 0,021; 0,026; 0,027; 0,020; 0,017; 0,002; 0,003; 0,012; 0,023; -0,004; -0,182; -0,046; 0,266; -0,247; -0,316; 0,180; 0,609; 0,542; 0,369; -0,013; -0,059; 0,068; -0,069; -0,130; -0,002; 0,202; 0,252; 0,163; -0,001; 0,039; 0,023; 0,010; 0,019; 0,002; 0,002; 0,020; -0,092; -0,043; 0,052; 0,168; 0,337; 0,187; -0,262; -0,067; 0,269; 0,386; 0,646; 0,626; -0,023; -0,276; 0,109; -0,107; 0,118; 0,194; 0,140; 0,135; 0,039; 0,053; 0,013; 0,008; 0,011; 0,007; 0,002; 0,015; -0,097; -0,059; 0,077; 0,279; 0,417; 0,539; 0,202; 0,484; 0,305; 0,363; 0,421; 0,519; 0,518; 0,139; -0,141; 0,010; -0,198; 0,288; 0,205; 0,103; 0,099; 0,082; 0,072; 0,005; 0,003; 0,009; 0,004; 0,012; -0,047; -0,000; 0,083; 0,213; 0,325; 0,502; 0,669; 0,726; 0,487; 0,376; 0,385; 0,371; 0,179; 0,372; 0,091; -0,059; -0,382; 0,060; 0,035; -0,028; 0,035; 0,022; 0,026; 0,007; 0,004; 0,004; 0,004; 0,007; 0,041; 0,037; 0,058; 0,134; 0,234; 0,271; 0,418; 0,743; 0,534; 0,255; 0,167; 0,126; -0,006; 0,089; 0,442; -0,084; -0,392; 0,234; -0,125; -0,167; -0,024; 0,005; 0,017; 0,008; 0,019; 0,012; 0,010; 0,007; 0,032; 0,016; 0,051; 0,050; 0,169; 0,459; 0,481; 0,592; 0,512; 0,340; 0,167; 0,208; 0,123; 0,145; 0,350; -0,120; -0,100; 0,422; 0,099; -0,449; -0,055; -0,003; 0,016; 0,009; 0,006; -0,008; 0,010; 0,020; 0,047; 0,029; 0,093; 0,150; 0,139; 0,549; 0,771; 0,548; 0,338; 0,574; 0,602; 0,374; 0,326; 0,299; 0,242; -0,171; 0,081; 0,507; 0,062; -0,432; 0,020; 0,021; 0,004; 0,002; 0,008; 0,001; 0,012; 0,010; 0,024; 0,043; 0,107; 0,188; 0,131; 0,224; 0,688; 0,042; 0,499; 0,421; 0,466; 0,666; 0,630; 0,135; 0,039; -0,326; 0,059; 0,230; -0,152; -0,252; 0,039; 0,008; 0,007; 0,003; 0,008; 0,002; 0,014; 0,006; 0,016; 0,051; 0,089; 0,216; 0,296; 0,233; 0,335; -0,248; 0,203; 0,370; 0,536; 0,479; 0,356; 0,273; 0,058; -0,091; 0,141; 0,095; -0,201; -0,046; 0,055; 0,020; 0,009; 0,009; 0,009; 0,008; -0,003; 0,005; 0,016; 0,048; 0,123; 0,155; 0,174; 0,161; 0,096; -0,205; -0,062; 0,051; 0,141; 0,192; 0,424; 0,240; -0,019; 0,097; -0,049; -0,140; -0,073; 0,005; 0,008; 0,008; 0,011; 0,006; 0,009; 0,004; 0,014; 0,011; 0,040; 0,091; 0,081; 0,046; 0,080; 0,094; 0,211; 0,056; -0,152; 0,050; -0,117; -0,146; 0,047; -0,149; -0,071; -0,097; -0,086; 0,075; 0,053; 0,028; 0,013; 0,015; 0,012; 0,003; 0,002; 0,006; -0,023; 0,018; 0,073; 0,031; 0,016; 0,061; 0,138; 0,069; 0,044; 0,075; 0,033; 0,133; 0,169; 0,143; 0,123; 0,070; 0,046; 0,032; 0,017; 0,039; 0,033; 0,018; 0,014; 0,000; 0,006; 0,001; 0,003; 0,008; 0,004; 0,011; 0,004; 0,008; 0,015; 0,015; 0,019; 0,026; 0,034; 0,033; 0,053; 0,042; 0,051; 0,051; 0,056; 0,059; 0,050; 0,030; 0,031; 0,046; 0,036; 0,009; -0,002; 0,010; 0,007; 0,001; 0,001; 0,008; 0,008; 0,006; 0,007; 0,006; 0,003; 0,008; 0,006; 0,010; 0,022; 0,014; 0,021; 0,016; 0,021; 0,025; 0,023; 0,027; 0,014; 0,010; 0,014; 0,018; 0,029; 0,028; 0,004; 0,009; 0,002; 0,005; -42,085; 0,007; 0,002; 0,009; 0,003; 0,003; 0,008; 0,008; 0,006; 0,008; 0,000; 0,003; 0,003; 0,016; 0,016; 0,010; 0,012; 0,003; 0,009; 0,005; 0,001; 0,008; 0,001; 0,003; 0,004; 0,006; 0,005; 0,004; 0,001; 0,010; 0,001; 0,000; 0,009; 0,013; 0,017; -0,002; 0,014; -0,060; 0,021; 0,035; -0,003; -0,045; -0,069; -0,320; -0,143; 0,237; 0,065; -0,051; -0,335; -0,261; -0,037; 0,003; 0,012; 0,002; 0,010; 0,006; 0,007; 0,003; 0,007; 0,015; 0,015; 0,006; 0,016; 0,015; -0,173; -0,772; -0,693; -0,286; -0,107; -0,176; 0,711; -0,355; -1,073; -1,550; -1,292; -2,459; -2,760; -1,826; -1,089; -0,558; -0,150; -0,017; 0,034; 0,007; 0,005; 0,008; 0,006; 0,016; -0,097; -0,092; -0,814; -1,236; -1,880; -2,063; -2,551; -1,572; -0,230; -1,111; 1,471; -1,806; -1,830; -4,896; -9,985; -13,936; -12,362; -9,101; -4,915; -2,862; -0,694; -0,419; 0,068; 0,063; 0,010; 0,007; 0,011; 0,031; -0,060; 0,062; -1,239; -1,718; -3,361; -5,768; -3,605; -2,364; -3,571; -4,860; -4,561; -5,218; 0,740; -4,740; -3,373; -3,948; -5,530; -4,630; -2,710; -1,184; -2,932; -2,111; 0,370; 0,093; 0,066; 0,003; 0,005; -0,031; -0,021; 0,080; -1,238; -4,114; -4,609; -5,560; -2,687; -1,615; -3,879; -4,668; 3,136; 5,289; 3,584; 4,385; 4,049; 4,777; 0,333; -4,672; -4,151; -4,384; -5,923; -4,398; -1,285; -0,313; 0,035; 0,004; 0,030; 0,028; 0,122; 0,426; -2,305; -4,200; -5,175; -5,940; -5,092; -2,150; -3,345; -5,195; -0,829; -1,208; 3,847; -4,429; 0,816; 8,444; 6,452; -2,766; -2,534; -1,131; -5,667; -9,734; -7,203; -1,556; -0,081; 0,007; -0,024; 0,032; 0,305; 1,464; -0,023; 1,092; -4,149; -5,503; -0,315; -1,025; -1,299; -3,999; 2,823; 2,375; -2,314; 2,004; 4,689; 11,014; 13,217; 3,594; -0,100; -0,902; -6,579; -16,425; -9,039; -1,272; -0,018; 0,007; 0,002; 0,009; 0,386; 0,361; -1,119; -1,885; -2,493; -4,626; 0,740; -0,009; -2,090; -7,476; -5,349; -0,184; -4,849; 11,865; 9,219; 8,617; 5,801; 4,391; -6,577; 0,110; -6,887; -18,590; -13,251; -4,571; -0,006; 0,002; -0,038; -0,122; 0,872; -0,662; -1,186; -2,847; -6,287; -5,252; -0,179; 2,053; -2,567; 3,642; 8,120; 5,598; 6,441; 13,618; 19,535; 23,096; 15,963; 5,449; -4,448; 3,261; -4,494; -18,771; -12,638; -2,759; 0,028; 0,012; -0,062; -0,172; 0,241; -0,758; 0,406; -3,051; -4,299; -4,349; -1,849; -3,549; 5,278; 0,145; -2,178; -3,226; -11,239; -7,068; 1,516; 11,385; 11,703; 12,310; 12,721; 14,653; 3,979; -4,936; -9,861; -4,681; -0,026; 0,001; -0,054; 0,275; 0,598; -0,178; 3,576; 2,172; -4,097; -8,101; -7,518; -6,260; -8,879; -6,345; -8,390; -18,629; -22,189; -25,291; -18,364; 6,934; 10,376; 16,016; 19,317; 13,820; 8,353; 4,244; -7,034; -1,279; 0,008; 0,015; -0,000; -0,030; 1,370; -0,977; 4,513; 2,011; -3,590; -5,797; -9,549; -7,456; -5,361; 3,430; -6,866; -26,416; -31,293; -28,363; -12,336; 9,417; 14,304; 12,702; 12,697; 10,335; 16,428; 13,916; -0,533; -0,058; 0,079; -0,025; 0,015; -0,081; 0,836; 1,128; 7,648; 2,106; 2,333; -0,793; -3,130; 0,668; 0,591; 8,567; -6,678; -23,692; -28,380; -32,142; -4,764; 8,089; 6,769; 0,065; 2,338; 5,068; 10,048; 12,816; 1,833; 0,486; 0,220; 0,009; -0,005; -0,121; -0,470; 1,672; 8,831; 6,227; 14,577; 2,482; 3,578; 5,308; 7,810; 6,148; -8,957; -17,860; -29,151; -27,177; 0,565; 13,468; 10,124; 3,354; 3,650; 6,131; 7,800; 8,933; 0,533; 0,339; 0,043; 0,014; -0,013; -0,872; -0,733; 1,503; 9,486; 11,174; 14,255; 7,798; 6,244; 5,559; 1,962; -5,229; -23,765; -33,520; -34,875; -13,392; 5,406; 12,092; 3,243; 3,589; 3,434; 6,661; 6,213; 3,776; -1,348; 0,326; 0,109; 0,010; -0,033; -1,608; -1,933; -0,986; 8,116; 10,588; 18,066; 17,845; 11,657; 6,322; 7,739; -7,000; -25,271; -31,535; -22,698; -2,306; 10,104; 13,882; 9,689; 10,878; 10,379; 9,528; 4,194; -0,578; -0,831; 1,130; 0,073; 0,002; -0,034; -1,247; -4,439; -1,255; 5,629; 8,799; 11,415; 12,865; 4,873; 7,755; 3,832; -10,771; -24,866; -21,727; 2,919; 11,899; 9,083; 11,902; 9,823; 16,375; 8,855; 11,907; 1,443; -0,965; -0,145; 0,000; 0,093; 0,002; -0,029; -1,286; -6,671; -3,794; 4,318; 1,370; 2,605; 4,100; 4,986; 14,163; 1,463; -13,480; -23,022; -13,341; 10,117; 12,427; 6,269; 5,987; 9,147; 15,715; 4,861; 2,365; -4,107; -0,633; 0,797; -0,472; -0,347; -0,036; -0,006; -0,948; -9,487; -4,554; 2,871; 1,752; 1,190; 1,511; -3,866; -0,848; 1,788; -8,634; -18,722; -7,994; 2,768; -0,533; 3,642; 1,025; 9,055; 3,867; -0,125; 0,624; -2,666; 1,408; 2,131; 0,441; 0,088; 0,003; 0,054; -0,410; -7,437; -6,425; 1,415; -0,331; -0,266; -0,959; -8,576; -1,688; -2,075; -7,542; -5,626; -4,061; -1,570; -2,312; -5,144; -4,391; -4,353; -0,081; -3,446; 2,765; 0,746; 2,780; 1,531; 0,261; 0,016; -0,034; 0,021; -0,726; -4,191; -6,939; 0,789; -0,006; -5,825; -9,195; -8,518; -0,402; 1,021; -1,393; 0,977; -2,694; -2,720; -6,261; -15,162; -9,850; -5,467; -2,767; -4,443; 2,174; 0,805; 2,347; 0,657; 0,180; 0,006; -0,037; -0,013; -0,300; -1,696; -4,439; -0,807; -0,759; -0,238; -0,290; 0,426; -1,718; 4,101; 6,386; 1,522; -6,228; 1,194; -0,681; 1,260; -4,165; -5,826; 0,619; 2,479; 3,290; 2,015; 1,399; 0,246; 0,046; 0,005; 0,003; 0,000; -0,205; -0,406; -1,465; -2,505; -1,430; -1,639; 4,223; 0,938; 5,158; 1,054; -0,816; -3,071; 1,433; 1,010; 2,101; -0,989; -6,621; -5,894; -2,273; 3,654; 2,782; 0,855; 1,123; 0,237; -0,053; 0,006; 0,008; 0,006; -0,237; -0,203; -0,963; -0,773; -2,094; -8,745; -9,277; -7,776; -4,331; -7,901; -3,226; -3,473; -3,291; 0,886; 2,106; -4,945; -6,095; 0,182; 2,402; 2,643; 1,399; 0,444; 0,238; 0,055; 0,009; 0,003; 0,002; 0,008; 0,006; -0,086; -1,116; -1,582; -4,138; -5,832; -6,619; -9,535; -10,310; -6,326; -1,177; -0,436; -2,002; -3,595; -3,535; -4,202; -3,037; -0,213; 0,873; 1,258; 0,925; 0,398; 0,079; 0,057; 0,059; 0,001; 0,001; 0,006; 0,009; 0,028; 0,058; 0,043; -0,007; -0,275; -1,057; -1,856; -1,132; -0,151; 0,198; -0,217; -0,364; -2,869; -3,761; -2,161; -0,705; 0,071; 0,522; 0,418; 0,476; 0,042; 0,004; 0,020; 0,007; 0,006; 0,006; 0,006; 0,002; 0,004; 0,032; 0,020; 0,005; -0,358; -0,767; -0,321; -0,010; -0,002; -0,066; -0,065; -0,059; -0,029; 0,008; 0,020; 0,029; 0,023; 0,019; -0,058; -0,039; 0,010; 0,006; 0,007; 0,006; 0,010; -11,056; 0,003; 0,005; 0,002; 0,009; 0,002; 0,001; 0,007; 0,007; 0,006; 0,006; 0,010; 0,010; 0,005; 0,000; -0,003; -0,008; 0,008; 0,009; 0,006; 0,003; 0,000; 0,009; 0,008; 0,001; 0,001; 0,009; 0,004; 0,008; 0,001; 0,003; 0,000; 0,001; -0,005; -0,007; 0,013; 0,018; 0,016; 0,011; 0,030; 0,016; 0,007; 0,023; 0,039; 0,033; 0,019; 0,019; 0,016; 0,014; 0,010; 0,007; 0,006; 0,011; 0,007; 0,007; 0,008; 0,005; 0,005; 0,002; -0,002; 0,016; 0,006; 0,004; 0,025; 0,023; 0,040; 0,144; 0,410; 0,828; 0,463; 0,179; 0,257; 0,384; -0,049; -0,862; -1,368; -0,404; 0,037; 0,029; 0,030; 0,012; 0,001; -0,012; 0,001; 0,004; 0,003; 0,009; -0,009; 0,025; 0,037; -0,053; -0,060; 0,021; 0,337; 0,301; -0,166; 0,830; 2,495; 3,686; 4,243; 2,205; 0,794; 0,145; -0,358; -0,905; -0,234; -0,468; -0,026; -0,008; 0,020; 0,013; 0,000; 0,010; 0,004; -0,001; -0,016; 0,002; 0,269; 0,592; 1,070; 0,729; 1,926; 2,114; 2,378; 4,677; 7,722; 8,024; 2,552; 2,476; 2,395; 0,591; 2,035; 2,751; 1,478; 0,070; 0,247; 0,102; 0,182; -0,014; -0,014; -0,011; 0,004; 0,008; 0,011; 0,031; 0,823; 3,055; 1,427; 1,669; 1,346; 1,383; 4,230; 2,392; 0,838; -1,546; -0,068; 1,113; 4,962; 6,368; 5,774; 13,151; 11,367; 9,011; 5,565; 3,505; 1,619; 0,165; 0,072; 0,012; 0,008; -0,018; 0,008; -0,162; 1,359; -0,100; -3,725; -1,609; 3,738; 4,588; 5,143; -0,668; -5,842; -0,662; 5,530; 6,564; 7,324; 4,754; 5,291; 7,529; 3,002; -2,136; 5,546; 5,051; 2,942; 1,257; 0,321; 0,092; 0,000; -0,110; -0,166; -5,002; -4,812; -5,896; -9,188; -7,914; -4,611; -4,027; -7,112; -10,460; -9,945; 0,456; 5,125; 10,097; -4,491; -5,671; -5,107; -7,331; -6,626; -4,003; -2,334; 0,647; 2,406; 2,519; 0,081; 0,008; 0,004; -0,119; -0,062; -4,118; -8,926; -11,941; -12,386; -11,590; -16,400; -3,078; -9,177; -10,995; -10,747; -3,371; 5,276; 0,844; -1,527; 0,595; 1,055; 3,410; -5,305; -5,259; -7,168; -5,588; 1,432; 3,943; 0,835; 0,444; -0,017; -0,057; -0,367; -5,222; -12,002; -14,950; -11,689; -7,902; -12,101; -10,577; -9,494; -7,481; -10,512; -2,922; -15,626; -10,760; -12,179; -4,660; -5,928; -5,480; -3,226; -7,105; -4,429; -1,778; 0,861; 2,721; 1,332; 0,091; -0,033; -0,058; -0,457; -2,214; -8,236; -8,667; -6,657; -3,801; 0,044; -8,891; -15,152; -11,604; -15,561; -29,305; -24,652; -12,854; -10,059; -15,341; -3,804; -6,464; -7,521; -6,659; -2,787; -2,335; -0,627; 0,395; 0,356; -0,067; -0,022; -0,124; -0,159; -0,026; -1,965; 0,635; 1,876; -1,818; 4,255; -4,197; -6,982; -8,890; -5,672; -1,472; 6,289; -3,468; -4,316; -6,176; -10,199; -7,201; -7,459; -2,617; 0,205; 2,138; -0,341; -0,913; -0,029; -0,110; -0,046; -0,354; -0,158; 0,109; -1,106; 7,175; 11,028; 0,092; -2,124; 11,758; 9,009; 2,366; 16,357; 45,144; 38,985; 4,784; -3,083; -3,754; -1,507; 12,181; 6,734; 9,426; 5,096; 6,431; 0,578; -0,363; 0,162; -0,003; 0,031; -0,028; -0,845; 0,162; 1,527; 5,809; 3,529; 11,264; 16,050; 3,467; 2,461; 13,165; 34,055; 60,342; 31,544; 15,372; 5,613; 3,902; 9,520; 18,735; 12,488; 12,786; 9,338; 7,857; 1,414; 0,613; -0,021; 0,010; 0,033; -0,074; -2,094; -2,220; 0,721; 0,461; 5,016; 11,602; 7,429; 1,174; -6,010; 15,555; 45,710; 40,980; 9,602; 13,151; 5,212; 7,993; -1,754; -2,444; 0,096; 0,821; -2,145; -2,295; -2,905; -1,327; -0,010; 0,003; 0,015; -0,012; -1,347; -5,290; -3,158; 8,933; 4,280; 0,168; 5,441; 2,708; 9,468; 35,785; 40,931; 15,738; 1,521; 8,277; 12,668; 3,347; -7,309; -2,679; -7,849; -7,814; -7,126; -1,746; -2,425; -1,323; -0,067; -0,002; -0,024; -0,011; -0,019; -1,934; -3,157; 7,324; 7,834; -0,144; 3,419; 6,242; 27,257; 50,661; 27,284; 5,805; 3,640; -5,923; 9,794; -1,365; -1,053; -4,067; -7,243; -5,266; -0,736; 1,505; 3,523; 0,091; -0,036; -0,012; 0,002; -0,003; 0,115; 0,560; 4,052; 3,880; 9,260; 16,207; 13,094; 16,834; 31,939; 20,638; 6,002; -2,857; -1,957; 6,255; 9,622; -0,871; -3,916; 2,944; 2,752; 8,863; 5,512; 4,452; 0,207; -0,033; -0,148; -0,004; 0,019; -0,015; -0,345; 1,025; 3,228; 5,726; 13,630; 17,513; 22,231; 17,457; 17,485; 11,145; 2,800; -4,000; -2,136; 2,640; 6,392; 0,423; -7,533; 2,051; 11,823; 9,971; 8,258; 3,244; 0,332; -0,126; -0,013; -0,000; 0,030; -0,034; -0,342; -1,518; -0,210; 8,361; 16,404; 19,766; 19,521; 13,548; 7,894; 8,596; 1,391; 2,289; -5,891; -2,100; -3,826; -2,320; 7,909; 7,878; 14,296; 9,713; 7,878; 2,214; 0,023; -0,366; -0,038; 0,012; 0,002; -0,038; 0,508; -0,968; 1,008; 8,071; 13,720; 14,352; 9,406; 1,323; -3,753; -10,625; -16,148; -5,859; -9,658; -2,270; 3,820; 10,474; 15,598; 9,877; 13,858; 6,838; 8,262; 1,586; -1,341; -0,784; 0,068; -0,003; 0,024; -0,027; 2,096; 2,295; 2,128; 5,515; 7,263; 4,105; -3,285; -9,736; -8,186; -12,910; -5,184; -7,052; -3,241; -14,511; -3,419; 2,695; 8,087; 4,035; 6,622; 4,015; 6,919; 0,946; -0,670; -0,162; 0,159; 0,018; 0,017; -0,016; 2,184; 3,119; 1,706; -0,756; 0,025; -4,553; -4,197; -3,661; -0,003; 6,277; 1,854; -2,718; -3,716; -11,359; 7,972; 6,165; 2,922; 1,325; 7,176; 3,083; 4,907; 2,463; -0,160; 0,053; 0,084; 0,021; 0,007; 0,001; 1,904; 2,214; -2,818; -6,959; -8,614; -8,863; -0,130; 1,027; 2,713; 1,781; 7,854; 0,989; 2,423; 1,635; 3,102; 2,687; -1,290; 4,752; 8,218; 1,512; 5,700; 3,253; 0,545; 0,179; 0,004; 0,007; 0,006; 0,003; 1,793; -0,489; -4,273; -9,398; -10,427; -5,784; -1,411; -3,587; -1,614; -2,810; 7,782; 1,013; -4,433; -4,855; -5,182; -3,031; -1,617; 2,990; 5,086; 0,831; 3,415; 3,102; -0,007; -0,296; -0,004; 0,005; 0,004; 0,004; 0,147; -0,833; -3,432; -3,491; -3,267; 0,177; -4,112; -13,515; -8,973; -9,765; -10,366; -3,438; -10,402; -9,212; -1,043; 5,576; -1,132; 1,341; 4,495; 1,782; 0,613; 2,601; 0,094; 0,009; -0,010; 0,008; 0,007; 0,001; 0,003; 0,010; 1,127; 0,859; 4,148; 3,844; -1,037; -6,917; -3,597; -8,865; -1,421; 6,306; -0,163; -4,408; -1,187; -0,052; 0,167; -2,483; 3,464; -0,271; -1,547; 0,902; 0,042; -0,024; 0,003; 0,009; 0,003; 0,008; 0,003; 0,002; -0,038; -0,009; -0,037; -0,732; -0,428; -0,249; -2,443; 1,577; 4,574; 0,077; 2,246; 1,780; 0,597; -0,016; 1,234; -0,849; 0,635; -0,733; -1,860; -0,409; 0,006; 0,002; 0,008; 0,002; 0,707; 0,007; 0,007; 0,006; 0,010; 0,000; 0,009; 0,006; 0,005; 0,004; 0,004; 0,006; 0,006; 0,005; 0,000; -0,000; 0,005; 0,002; 0,001; 0,000; 0,004; 0,002; 0,000; 0,009; 0,003; 0,008; 0,006; 0,000; 0,002; 0,008; 0,008; 0,001; 0,007; 0,006; 0,001; 0,006; 0,016; 0,010; 0,002; 0,005; 0,009; 0,010; 0,004; 0,010; 0,010; 0,006; 0,004; 0,011; 0,003; 0,007; 0,010; 0,009; 0,009; 0,003; 0,006; 0,006; 0,004; 0,006; 0,010; 0,007; -0,003; 0,010; 0,008; -0,006; 0,017; 0,025; 0,016; 0,010; 0,009; 0,010; 0,008; 0,014; 0,021; 0,018; 0,023; 0,015; 0,013; 0,017; 0,010; 0,009; 0,008; 0,011; 0,006; 0,002; 0,003; 0,003; 0,009; 0,001; 0,004; 0,023; 0,011; 0,004; 0,002; 0,010; 0,008; 0,014; 0,004; 0,008; 0,019; 0,020; 0,035; 0,029; 0,032; 0,032; 0,025; 0,028; 0,019; 0,014; 0,010; 0,010; 0,013; 0,008; 0,009; 0,001; 0,002; -0,008; 0,007; 0,010; 0,015; 0,004; 0,001; 0,014; 0,032; 0,033; 0,037; 0,051; 0,071; 0,058; 0,070; 0,067; 0,074; 0,068; 0,068; 0,073; 0,058; 0,049; 0,047; 0,024; 0,015; 0,016; 0,013; 0,000; 0,000; 0,011; 0,011; 0,013; 0,016; -0,005; 0,020; 0,037; 0,044; 0,038; 0,026; 0,068; 0,107; 0,100; 0,095; 0,104; 0,104; 0,093; 0,092; 0,085; 0,064; 0,050; 0,052; 0,047; 0,018; 0,010; 0,014; 0,005; -0,004; 0,005; 0,008; 0,014; 0,014; -0,004; 0,036; 0,058; 0,070; 0,092; 0,102; 0,137; 0,171; 0,201; 0,210; 0,167; 0,146; 0,121; 0,128; 0,114; 0,120; 0,118; 0,087; 0,046; 0,020; 0,016; 0,005; 0,006; 0,005; 0,012; 0,014; 0,030; 0,030; 0,020; 0,052; 0,061; 0,116; 0,155; 0,178; 0,200; 0,244; 0,266; 0,229; 0,178; 0,150; 0,125; 0,116; 0,085; 0,093; 0,107; 0,099; 0,038; 0,027; 0,010; 0,004; 0,002; 0,009; 0,014; 0,019; 0,040; 0,038; 0,040; 0,073; 0,091; 0,128; 0,196; 0,198; 0,189; 0,255; 0,292; 0,270; 0,208; 0,180; 0,168; 0,115; 0,102; 0,084; 0,087; 0,054; 0,030; 0,018; 0,015; 0,010; 0,008; 0,015; 0,023; 0,031; 0,043; 0,041; 0,063; 0,088; 0,096; 0,122; 0,206; 0,246; 0,211; 0,275; 0,328; 0,311; 0,227; 0,172; 0,160; 0,121; 0,104; 0,092; 0,043; 0,010; 0,008; 0,023; 0,025; 0,012; 0,021; 0,019; 0,015; 0,027; 0,042; 0,048; 0,080; 0,103; 0,122; 0,130; 0,162; 0,215; 0,224; 0,292; 0,352; 0,308; 0,262; 0,222; 0,175; 0,128; 0,127; 0,094; 0,072; 0,062; 0,061; 0,080; 0,045; 0,013; 0,011; 0,009; 0,013; 0,019; 0,041; 0,057; 0,106; 0,162; 0,162; 0,172; 0,226; 0,236; 0,276; 0,347; 0,362; 0,377; 0,305; 0,316; 0,260; 0,244; 0,233; 0,206; 0,163; 0,145; 0,090; 0,082; 0,045; 0,011; 0,005; 0,005; 0,016; 0,013; 0,095; 0,108; 0,158; 0,170; 0,163; 0,156; 0,155; 0,178; 0,215; 0,262; 0,346; 0,360; 0,271; 0,307; 0,262; 0,202; 0,169; 0,133; 0,104; 0,088; 0,035; 0,034; 0,010; 0,012; 0,019; 0,010; 0,009; 0,015; 0,121; 0,124; 0,109; 0,103; 0,096; 0,093; 0,163; 0,230; 0,227; 0,282; 0,358; 0,309; 0,164; 0,181; 0,149; 0,101; 0,088; 0,071; 0,091; 0,080; 0,051; 0,018; 0,025; 0,010; 0,016; 0,003; 0,010; 0,015; 0,067; 0,098; 0,140; 0,097; 0,163; 0,165; 0,201; 0,185; 0,152; 0,243; 0,322; 0,245; 0,121; 0,102; 0,114; 0,093; 0,090; 0,089; 0,119; 0,102; 0,033; 0,027; 0,012; 0,001; 0,016; 0,003; 0,006; 0,015; 0,022; 0,058; 0,138; 0,203; 0,190; 0,175; 0,174; 0,165; 0,182; 0,308; 0,424; 0,287; 0,140; 0,144; 0,149; 0,141; 0,135; 0,146; 0,138; 0,077; 0,046; 0,038; 0,007; 0,008; 0,007; 0,003; 0,007; 0,010; 0,016; 0,031; 0,081; 0,204; 0,240; 0,264; 0,199; 0,239; 0,276; 0,416; 0,433; 0,265; 0,174; 0,205; 0,174; 0,128; 0,121; 0,163; 0,158; 0,069; 0,072; 0,060; 0,058; 0,001; 0,004; 0,008; 0,005; 0,009; 0,011; 0,024; 0,040; 0,078; 0,130; 0,199; 0,250; 0,273; 0,335; 0,354; 0,295; 0,238; 0,125; 0,170; 0,139; 0,098; 0,106; 0,139; 0,084; 0,035; 0,039; 0,026; 0,018; 0,002; 0,005; 0,003; 0,004; 0,011; 0,016; 0,014; 0,025; 0,036; 0,041; 0,120; 0,234; 0,268; 0,292; 0,273; 0,238; 0,212; 0,124; 0,131; 0,108; 0,072; 0,110; 0,070; 0,052; 0,027; 0,028; 0,011; 0,011; 0,014; 0,011; 0,007; 0,008; 0,013; 0,016; 0,016; 0,038; 0,018; 0,072; 0,158; 0,224; 0,202; 0,207; 0,197; 0,155; 0,162; 0,159; 0,138; 0,129; 0,120; 0,080; 0,047; 0,036; 0,034; 0,017; 0,001; 0,005; 0,013; 0,009; -0,006; 0,007; 0,009; 0,017; 0,025; 0,115; 0,127; 0,165; 0,235; 0,201; 0,175; 0,179; 0,186; 0,173; 0,179; 0,193; 0,175; 0,136; 0,094; 0,050; 0,026; 0,020; 0,024; 0,034; 0,023; 0,007; 0,007; 0,006; -0,000; 0,005; 0,006; 0,010; 0,048; 0,099; 0,145; 0,180; 0,149; 0,140; 0,134; 0,151; 0,156; 0,158; 0,197; 0,210; 0,156; 0,103; 0,070; 0,035; 0,025; 0,013; 0,013; 0,012; 0,005; 0,000; 0,002; 0,007; -0,002; 0,013; 0,008; 0,017; 0,049; 0,073; 0,126; 0,145; 0,125; 0,090; 0,065; 0,109; 0,140; 0,172; 0,207; 0,164; 0,124; 0,074; 0,048; 0,042; 0,028; 0,025; 0,022; 0,010; 0,007; 0,008; 0,002; 0,004; 0,004; 0,002; 0,005; 0,017; 0,052; 0,109; 0,100; 0,084; 0,076; 0,080; 0,070; 0,116; 0,147; 0,177; 0,166; 0,153; 0,106; 0,057; 0,052; 0,045; 0,028; 0,024; 0,016; 0,020; 0,014; 0,012; 0,005; 0,002; 0,001; 0,011; 0,016; 0,031; 0,081; 0,065; 0,044; 0,061; 0,065; 0,076; 0,078; 0,110; 0,126; 0,090; 0,090; 0,084; 0,062; 0,056; 0,053; 0,034; 0,039; 0,026; 0,016; 0,016; 0,016; 0,006; 0,006; 0,004; 0,009; -0,018; 0,009; 0,074; 0,034; 0,020; 0,028; 0,042; 0,030; 0,044; 0,050; 0,067; 0,070; 0,068; 0,072; 0,059; 0,053; 0,044; 0,023; 0,014; 0,023; 0,020; 0,008; 0,009; 0,006; 0,001; 0,002; 0,008; 0,009; 0,005; 0,003; 0,004; 0,011; 0,015; 0,019; 0,019; 0,015; 0,026; 0,026; 0,035; 0,034; 0,038; 0,037; 0,047; 0,037; 0,036; 0,023; 0,012; 0,027; 0,024; 0,009; 0,015; 0,000; 0,000; 0,006; 0,000; 0,004; 0,006; 0,005; 0,006; 0,009; 0,008; 0,008; 0,012; 0,006; 0,017; 0,017; 0,019; 0,020; 0,014; 0,026; 0,020; 0,023; 0,010; 0,011; 0,010; 0,010; 0,019; 0,025; 0,007; 0,006; 0,000; 0,003; 0,713; 0,002; 0,005; 0,002; 0,010; 0,009; 0,005; 0,004; 0,008; 0,000; 0,001; 0,001; 0,010; 0,001; -0,001; 0,001; -0,004; 0,007; 0,006; 0,001; 0,001; 0,004; 0,005; 0,010; 0,000; 0,010; 0,002; 0,003; 0,010; 0,005; 0,009; 0,002; 0,001; -0,011; -0,009; 0,004; -0,005; -0,006; -0,016; -0,009; 0,007; -0,011; 0,003; 0,000; 0,012; 0,002; -0,003; 0,003; 0,001; 0,001; 0,011; 0,005; -0,002; 0,005; 0,002; 0,004; 0,005; 0,004; 0,004; -0,003; 0,004; -0,010; -0,006; -0,021; -0,018; -0,006; -0,015; -0,015; -0,003; -0,006; -0,010; -0,001; -0,005; 0,005; 0,011; 0,008; 0,011; 0,006; 0,006; 0,008; 0,003; 0,002; -0,011; 0,009; 0,002; 0,008; 0,005; -0,009; 0,005; 0,019; 0,003; -0,003; -0,006; -0,010; -0,007; -0,004; -0,009; -0,009; -0,009; 0,002; 0,012; 0,016; 0,020; 0,017; 0,020; 0,012; 0,007; 0,008; 0,008; 0,005; 0,002; 0,005; 0,001; 0,009; 0,009; -0,004; 0,005; 0,015; 0,011; -0,011; -0,020; 0,010; 0,019; 0,025; 0,031; 0,040; 0,053; 0,053; 0,062; 0,064; 0,065; 0,070; 0,064; 0,073; 0,056; 0,050; 0,048; 0,019; 0,008; 0,004; -0,001; 0,008; 0,002; 0,007; 0,010; 0,009; 0,008; -0,023; 0,007; 0,026; 0,035; 0,024; 0,018; 0,056; 0,096; 0,096; 0,081; 0,088; 0,094; 0,077; 0,087; 0,093; 0,065; 0,057; 0,060; 0,049; 0,017; 0,010; 0,005; 0,003; -0,002; 0,001; 0,004; 0,009; 0,002; -0,034; 0,022; 0,043; 0,059; 0,098; 0,103; 0,142; 0,179; 0,211; 0,221; 0,168; 0,142; 0,117; 0,125; 0,116; 0,124; 0,124; 0,085; 0,051; 0,021; 0,011; 0,012; 0,008; 0,008; 0,005; 0,005; 0,027; 0,011; -0,017; 0,043; 0,043; 0,100; 0,165; 0,187; 0,214; 0,266; 0,280; 0,246; 0,194; 0,151; 0,117; 0,110; 0,082; 0,091; 0,111; 0,103; 0,036; 0,032; 0,008; 0,009; 0,007; 0,006; -0,012; -0,001; 0,019; 0,008; 0,006; 0,055; 0,065; 0,116; 0,202; 0,207; 0,195; 0,273; 0,311; 0,277; 0,219; 0,188; 0,164; 0,107; 0,097; 0,083; 0,085; 0,052; 0,027; 0,016; 0,007; 0,011; 0,003; 0,005; -0,003; 0,012; 0,026; 0,008; 0,026; 0,064; 0,061; 0,108; 0,204; 0,267; 0,223; 0,289; 0,342; 0,321; 0,235; 0,156; 0,142; 0,103; 0,104; 0,078; 0,029; -0,001; 0,001; 0,020; 0,020; 0,014; -0,013; 0,002; 0,005; 0,007; 0,019; 0,014; 0,050; 0,093; 0,108; 0,120; 0,171; 0,218; 0,228; 0,314; 0,366; 0,320; 0,274; 0,221; 0,159; 0,100; 0,105; 0,099; 0,078; 0,067; 0,039; 0,072; 0,040; 0,009; 0,005; 0,008; 0,003; 0,004; 0,036; 0,029; 0,082; 0,157; 0,157; 0,165; 0,223; 0,244; 0,282; 0,370; 0,384; 0,394; 0,311; 0,317; 0,231; 0,205; 0,222; 0,203; 0,177; 0,148; 0,082; 0,085; 0,036; 0,002; -0,022; 0,003; 0,003; 0,005; 0,089; 0,081; 0,152; 0,178; 0,161; 0,155; 0,152; 0,176; 0,218; 0,285; 0,358; 0,375; 0,271; 0,291; 0,232; 0,185; 0,168; 0,143; 0,102; 0,083; 0,023; 0,025; 0,008; -0,008; 0,018; 0,007; 0,003; 0,004; 0,120; 0,100; 0,110; 0,112; 0,097; 0,080; 0,165; 0,231; 0,230; 0,292; 0,361; 0,306; 0,135; 0,141; 0,119; 0,081; 0,098; 0,080; 0,097; 0,065; 0,035; 0,023; 0,008; -0,009; 0,010; 0,007; 0,006; 0,017; 0,076; 0,078; 0,136; 0,101; 0,157; 0,160; 0,188; 0,176; 0,139; 0,244; 0,311; 0,221; 0,058; 0,054; 0,087; 0,069; 0,090; 0,092; 0,128; 0,084; 0,019; 0,025; 0,003; -0,011; 0,007; 0,008; 0,006; 0,019; 0,028; 0,031; 0,133; 0,213; 0,190; 0,167; 0,163; 0,149; 0,170; 0,305; 0,424; 0,267; 0,092; 0,122; 0,140; 0,121; 0,140; 0,155; 0,135; 0,078; 0,047; 0,036; 0,007; -0,004; 0,001; 0,007; 0,008; 0,014; 0,024; 0,018; 0,056; 0,197; 0,250; 0,273; 0,203; 0,234; 0,274; 0,432; 0,441; 0,260; 0,126; 0,195; 0,169; 0,118; 0,128; 0,166; 0,156; 0,073; 0,072; 0,055; 0,053; -0,007; 0,009; 0,006; 0,000; 0,012; 0,022; 0,030; 0,019; 0,050; 0,120; 0,202; 0,256; 0,279; 0,347; 0,368; 0,295; 0,232; 0,076; 0,160; 0,119; 0,077; 0,082; 0,128; 0,088; 0,043; 0,043; 0,017; 0,015; 0,007; 0,003; 0,003; 0,010; 0,008; 0,021; 0,023; 0,025; 0,021; 0,014; 0,087; 0,220; 0,258; 0,294; 0,267; 0,230; 0,193; 0,078; 0,103; 0,080; 0,036; 0,078; 0,070; 0,054; 0,037; 0,027; -0,006; 0,003; 0,002; 0,008; 0,001; 0,008; 0,014; 0,010; 0,014; 0,043; 0,026; 0,068; 0,144; 0,202; 0,177; 0,184; 0,166; 0,131; 0,138; 0,134; 0,130; 0,124; 0,099; 0,066; 0,041; 0,039; 0,032; 0,006; -0,020; -0,026; 0,012; 0,001; 0,003; 0,010; 0,013; 0,021; 0,022; 0,122; 0,141; 0,174; 0,245; 0,203; 0,175; 0,161; 0,173; 0,166; 0,166; 0,195; 0,173; 0,129; 0,083; 0,041; 0,024; 0,006; 0,016; 0,024; 0,021; 0,003; 0,007; 0,013; 0,005; 0,006; 0,011; 0,012; 0,053; 0,103; 0,147; 0,193; 0,157; 0,142; 0,134; 0,137; 0,144; 0,148; 0,203; 0,209; 0,158; 0,096; 0,059; 0,029; 0,021; 0,007; 0,007; 0,004; 0,003; 0,007; 0,008; 0,014; 0,010; 0,005; 0,003; 0,013; 0,055; 0,076; 0,137; 0,157; 0,133; 0,082; 0,052; 0,101; 0,147; 0,178; 0,217; 0,169; 0,120; 0,073; 0,053; 0,041; 0,022; 0,014; 0,015; 0,015; 0,003; 0,006; 0,006; 0,005; 0,007; -0,000; 0,003; 0,009; 0,052; 0,117; 0,115; 0,085; 0,082; 0,083; 0,062; 0,098; 0,147; 0,184; 0,166; 0,149; 0,103; 0,050; 0,054; 0,045; 0,030; 0,029; 0,014; 0,024; 0,013; 0,011; 0,001; 0,001; 0,002; 0,010; 0,011; 0,031; 0,079; 0,073; 0,040; 0,062; 0,063; 0,069; 0,068; 0,099; 0,127; 0,081; 0,078; 0,074; 0,060; 0,067; 0,050; 0,034; 0,042; 0,025; 0,017; 0,020; 0,013; 0,006; 0,003; 0,002; 0,010; -0,003; 0,008; 0,071; 0,030; 0,019; 0,028; 0,042; 0,023; 0,025; 0,041; 0,050; 0,059; 0,058; 0,053; 0,060; 0,047; 0,047; 0,025; 0,018; 0,022; 0,020; 0,016; 0,019; -0,006; -0,004; 0,007; 0,008; 0,002; 0,009; 0,005; 0,005; 0,009; 0,011; 0,006; 0,006; 0,009; 0,010; 0,014; 0,013; 0,002; 0,002; 0,019; 0,026; 0,026; 0,025; 0,016; 0,009; 0,025; 0,017; 0,004; 0,020; -0,012; 0,004; 0,006; 0,001; 0,007; 0,000; 0,007; -0,007; 0,005; 0,006; 0,001; 0,002; 0,004; 0,002; -0,002; 0,005; 0,002; -0,003; 0,000; -0,002; 0,004; 0,005; 0,001; 0,003; 0,016; 0,015; 0,008; 0,009; 0,006; 0,006; 0,006; 19,789; 0,001; 0,005; 0,009; 0,005; 0,005; 0,005; 0,008; 0,003; 0,010; 0,006; 0,004; 0,003; 0,018; 0,022; 0,007; 0,008; 0,005; 0,006; 0,004; 0,009; 0,003; 0,000; 0,003; 0,005; 0,008; 0,002; 0,003; 0,007; 0,005; 0,005; 0,009; 0,010; 0,019; 0,022; 0,043; 0,051; 0,032; 0,040; 0,136; 0,205; 0,069; 0,054; 0,038; -0,027; -0,083; 0,042; 0,035; 0,033; 0,021; 0,013; 0,016; 0,021; 0,006; 0,010; 0,001; 0,006; 0,005; 0,003; 0,020; 0,017; 0,029; 0,039; 0,035; 0,066; -0,001; -0,103; 0,097; -0,033; -0,183; 0,197; -0,783; 1,448; 2,614; 1,230; 0,922; 1,552; 1,021; 0,200; 0,107; -0,074; -0,918; -0,581; 0,007; 0,008; 0,003; 0,007; 0,003; 0,010; 0,041; 0,049; 0,639; 0,168; -0,358; -0,876; -0,703; -0,759; -4,303; -0,118; 2,375; 4,408; 4,929; 9,282; 13,144; 12,572; 7,512; 4,100; 0,349; -1,802; -2,072; -0,702; -0,034; 0,006; 0,000; -0,021; -0,033; -0,086; -0,065; -0,084; -0,843; -2,318; -4,229; -4,436; -7,484; -12,936; -14,807; -11,365; -7,118; -0,526; 6,530; 13,554; 14,619; 17,385; 10,738; 7,904; 6,433; 1,340; -1,443; -0,788; -0,023; -0,001; 0,003; 0,001; -0,018; -0,435; 0,238; -1,217; -1,586; -1,597; -0,854; -3,906; -8,695; -12,349; -8,052; -20,669; -9,338; -0,455; -1,401; 7,117; 10,665; 10,560; 0,251; -1,091; 5,265; 6,107; 3,654; 1,292; -0,136; 0,017; 0,005; -0,031; -0,092; -0,559; 1,785; 4,424; 4,987; 3,909; -2,329; -11,017; -13,946; -20,582; -17,990; -22,200; -29,604; -27,872; -30,854; -23,051; -20,627; -3,250; -11,509; -2,951; 12,584; 16,635; 7,630; 0,755; -0,033; -0,203; 0,006; -0,137; -0,096; -0,935; 2,604; 4,883; 1,814; 2,316; -0,470; -10,012; -18,696; -17,376; -32,909; -27,412; -35,627; -34,762; -36,324; -25,190; -18,732; -7,832; -15,271; -13,611; 7,239; 15,263; 8,665; 2,380; -0,286; -0,298; 0,004; -0,134; 0,343; -0,141; 2,102; 3,115; -3,004; 3,996; -4,973; -10,432; -5,325; -19,075; -24,037; -26,246; -31,849; -28,758; -38,930; -23,217; -20,572; -10,351; -7,044; -5,474; -2,221; 6,486; 4,185; 3,494; 1,203; 0,360; -0,008; -0,132; 0,256; -0,816; 0,142; 3,501; -5,275; -4,172; -2,343; -4,422; -16,290; -6,950; -17,135; -26,394; -39,114; -38,975; -21,055; -12,126; -10,466; 0,445; -5,856; 4,555; -8,232; 1,836; -0,630; 0,729; -0,447; -0,040; -0,028; -0,143; -0,248; -1,159; 1,325; -0,019; -5,268; -8,254; -1,570; 9,546; -1,808; 3,371; -6,662; -19,021; -33,723; -7,217; -0,950; 3,143; -1,698; 4,397; -5,972; -2,481; -9,856; -6,690; -2,637; -2,152; -0,477; -0,015; -0,026; -0,039; 0,404; 0,257; 1,037; -7,061; -5,217; -8,172; -0,364; 7,772; 11,620; 5,540; 9,675; -12,090; -9,015; -5,649; 8,720; -3,096; -23,635; -0,833; -22,738; -12,214; -12,913; -8,384; -5,144; -2,420; -1,031; 0,039; -0,041; -0,166; 0,340; 0,155; -7,347; -4,975; 2,110; 2,142; 3,619; 4,411; 12,893; 24,735; 46,761; 30,099; -5,599; -4,918; 10,783; -17,596; -18,145; -15,122; -12,840; -2,714; -1,360; 2,012; -0,777; -3,483; -1,809; 0,001; 0,034; -0,106; -0,059; -1,531; -8,014; 3,696; 9,739; 11,709; 9,791; 12,037; 12,645; 29,511; 32,356; 0,473; -21,308; 8,998; 0,768; 5,357; -3,663; -4,374; 1,627; -3,136; 3,841; 9,103; 3,687; -1,160; -1,216; -0,363; 0,030; -0,017; -0,048; 1,277; -1,068; 13,226; 8,641; 14,357; 11,063; 23,309; 10,982; 28,135; 24,658; 2,887; -4,150; 5,108; -1,211; 15,388; 5,513; 7,839; 6,842; 0,162; 8,443; 9,134; 5,217; 0,088; -0,413; 0,002; 0,015; -0,016; 1,532; 7,648; 1,900; 8,068; 5,804; 20,193; 16,866; 24,194; 3,189; 11,379; 24,318; 5,708; 11,479; -1,695; 11,874; -4,754; -5,305; 8,142; 3,162; 10,912; 13,758; 8,756; 2,874; 2,616; 0,801; -0,010; -0,023; -0,017; 0,679; 4,156; 0,934; 3,213; 0,390; 16,651; 13,570; 9,576; -1,109; 0,068; 5,970; 18,370; 29,392; 30,258; 16,464; 7,509; 12,535; 11,525; 19,457; 17,267; 12,827; 13,906; 6,262; 4,242; 0,749; 0,005; 0,000; -0,016; 0,702; 0,537; 4,455; 4,611; 5,960; 7,156; 13,271; 4,249; -2,616; 4,194; 4,099; 9,848; 14,918; 22,013; 7,155; 7,719; 13,133; 5,202; 7,655; 9,832; 5,499; 8,398; 2,203; 1,213; 0,166; -0,013; 0,011; -0,038; -0,004; -0,736; 3,083; 5,453; 6,252; 8,140; 9,689; 4,238; -5,134; -0,947; 13,185; -0,226; 3,663; 11,973; 9,881; -0,604; 4,083; -12,412; -4,778; -3,303; -6,742; 0,576; 0,795; -0,726; -0,005; 0,045; 0,020; -0,101; -0,161; -1,824; -4,207; -1,434; -2,831; -4,215; -6,078; 1,108; 7,913; 14,182; 10,312; 7,166; 2,015; 9,509; 7,066; 0,682; -2,004; -10,344; -10,759; -13,515; -13,286; -6,443; -2,790; -1,780; -0,529; 0,048; 0,005; -0,199; -0,238; -2,872; -7,441; -8,359; -8,568; -13,538; -13,907; -5,072; 6,369; 14,232; 10,560; -3,288; 6,086; 7,773; 10,127; 1,521; 5,109; -10,582; -8,693; -12,707; -12,093; -5,663; -5,261; -2,469; -0,071; 0,002; 0,017; -0,038; -0,345; -2,271; -5,391; -11,711; -16,191; -18,633; -14,535; -9,502; 1,519; 16,321; 13,975; 11,049; 9,621; 2,788; 1,844; 4,490; 7,128; 0,430; -2,940; -8,738; -6,086; -5,984; -4,602; -1,285; 0,433; 0,036; 0,017; -0,016; -0,242; -0,645; -2,509; -7,063; -13,339; -15,983; -21,065; -13,143; -1,585; 2,329; 0,568; 8,149; -4,223; 2,474; -1,949; 0,194; 5,177; 5,823; 5,348; -3,499; -4,169; -6,788; -1,690; 0,978; 0,496; 0,040; 0,004; 0,009; -0,093; -0,211; -0,680; -4,135; -5,067; -10,339; -21,513; -15,214; -20,574; -13,705; -8,963; -12,008; -3,201; -5,515; 1,579; 4,959; 4,383; 5,455; 12,276; -4,325; -4,821; -4,017; -1,061; 0,916; 0,444; 0,001; 0,009; 0,002; -0,022; -0,080; -1,880; -2,303; -0,857; -5,314; -16,026; -12,574; -13,417; -4,017; -3,787; -10,688; -4,131; -4,531; 4,291; -1,042; -6,534; 1,305; -3,981; -10,391; -6,091; -2,007; -0,078; 0,412; 0,005; 0,006; 0,000; 0,009; -0,029; -0,023; -0,541; -2,473; -2,327; -7,645; -18,354; -15,651; -15,483; -15,183; -16,045; -11,960; -14,735; -9,018; -18,386; -23,624; -26,657; -20,389; -17,010; -9,440; -5,115; -0,568; 0,170; 0,009; -0,003; 0,010; 0,006; 0,004; 0,007; 0,004; -1,305; -1,733; -3,305; -4,157; -8,166; -14,746; -15,683; -15,570; -18,398; -15,889; -25,054; -22,094; -21,537; -18,694; -17,334; -10,483; -9,975; -5,363; -1,218; -0,214; 0,038; -0,025; 0,009; 0,009; 0,006; 0,001; 0,002; 0,001; -0,031; -0,020; -0,031; -0,033; -0,071; -0,838; -1,693; -0,690; -2,462; -0,465; -0,917; -0,438; -2,535; -3,180; -1,257; -0,626; -0,404; -0,302; -0,311; -0,085; 0,006; 0,001; 0,008; 0,005; 0,697; 0,001; 0,006; 0,009; 0,005; 0,010; 0,007; 0,010; 0,008; 0,007; 0,002; 0,008; 0,009; 0,001; -0,003; -0,002; 0,006; 0,004; 0,005; 0,007; 0,009; 0,001; 0,007; 0,001; 0,006; 0,003; 0,003; 0,005; 0,009; 0,009; 0,008; 0,007; 0,004; -0,010; -0,014; -0,012; -0,010; -0,005; -0,019; -0,011; -0,003; -0,016; -0,006; -0,002; 0,003; -0,004; 0,001; 0,005; -0,005; 0,006; 0,004; 0,003; -0,005; 0,003; 0,005; 0,003; 0,005; 0,004; 0,009; -0,007; 0,003; -0,017; -0,020; -0,025; -0,027; -0,006; -0,020; -0,023; -0,015; -0,009; -0,012; -0,008; -0,020; -0,000; 0,003; 0,003; 0,002; 0,008; 0,004; 0,007; 0,004; 0,006; -0,020; 0,006; 0,005; 0,000; 0,005; -0,005; 0,006; 0,008; 0,003; -0,014; -0,004; -0,008; -0,007; -0,013; -0,022; -0,018; -0,016; -0,007; -0,000; 0,010; 0,014; 0,009; 0,011; 0,009; 0,008; 0,003; 0,008; 0,003; -0,005; -0,001; 0,008; 0,007; 0,004; -0,013; 0,000; 0,008; 0,002; -0,013; -0,027; -0,005; 0,017; 0,014; 0,017; 0,019; 0,037; 0,035; 0,048; 0,053; 0,058; 0,068; 0,065; 0,066; 0,051; 0,042; 0,040; 0,023; 0,008; 0,008; 0,009; 0,001; 0,008; 0,006; 0,002; 0,007; 0,007; -0,038; -0,007; 0,011; 0,006; -0,008; -0,013; 0,032; 0,078; 0,072; 0,061; 0,072; 0,078; 0,066; 0,081; 0,088; 0,067; 0,055; 0,052; 0,055; 0,012; 0,012; 0,008; 0,003; -0,007; 0,002; 0,003; 0,000; -0,003; -0,037; 0,012; 0,021; 0,042; 0,078; 0,086; 0,138; 0,175; 0,200; 0,210; 0,154; 0,138; 0,108; 0,124; 0,118; 0,118; 0,121; 0,086; 0,045; 0,019; 0,018; 0,005; 0,001; 0,011; 0,003; 0,006; 0,026; 0,007; -0,008; 0,031; 0,020; 0,100; 0,160; 0,194; 0,221; 0,272; 0,285; 0,247; 0,187; 0,144; 0,126; 0,117; 0,079; 0,093; 0,106; 0,108; 0,035; 0,029; 0,011; 0,009; 0,011; 0,009; 0,005; 0,012; 0,027; 0,006; 0,008; 0,059; 0,057; 0,109; 0,207; 0,225; 0,201; 0,284; 0,323; 0,289; 0,226; 0,189; 0,165; 0,111; 0,105; 0,079; 0,085; 0,056; 0,023; 0,015; 0,010; 0,012; 0,010; 0,009; 0,006; 0,025; 0,035; 0,012; 0,037; 0,070; 0,062; 0,101; 0,217; 0,282; 0,238; 0,296; 0,337; 0,324; 0,231; 0,164; 0,147; 0,108; 0,108; 0,083; 0,028; 0,002; 0,007; 0,021; 0,022; 0,014; 0,003; 0,013; 0,012; 0,013; 0,024; 0,030; 0,059; 0,101; 0,096; 0,108; 0,175; 0,241; 0,239; 0,316; 0,361; 0,322; 0,275; 0,223; 0,157; 0,112; 0,118; 0,109; 0,082; 0,063; 0,041; 0,080; 0,041; 0,006; 0,011; 0,004; 0,009; 0,014; 0,036; 0,039; 0,090; 0,156; 0,157; 0,153; 0,227; 0,251; 0,284; 0,362; 0,378; 0,389; 0,319; 0,325; 0,238; 0,220; 0,231; 0,222; 0,184; 0,155; 0,088; 0,087; 0,040; 0,002; -0,007; 0,005; 0,004; 0,014; 0,100; 0,085; 0,150; 0,175; 0,169; 0,148; 0,142; 0,179; 0,216; 0,276; 0,358; 0,364; 0,267; 0,303; 0,242; 0,184; 0,178; 0,147; 0,118; 0,083; 0,020; 0,036; 0,012; -0,002; 0,023; 0,002; 0,013; 0,016; 0,123; 0,109; 0,103; 0,104; 0,088; 0,069; 0,144; 0,227; 0,223; 0,281; 0,348; 0,295; 0,117; 0,148; 0,125; 0,078; 0,095; 0,090; 0,101; 0,069; 0,034; 0,024; 0,014; -0,001; 0,009; 0,003; 0,010; 0,015; 0,075; 0,081; 0,136; 0,102; 0,155; 0,143; 0,180; 0,167; 0,130; 0,231; 0,295; 0,201; 0,042; 0,039; 0,076; 0,058; 0,086; 0,095; 0,128; 0,090; 0,021; 0,030; 0,012; -0,001; 0,009; -0,002; 0,003; 0,018; 0,037; 0,033; 0,129; 0,214; 0,190; 0,171; 0,154; 0,137; 0,157; 0,299; 0,422; 0,267; 0,087; 0,104; 0,114; 0,109; 0,134; 0,156; 0,141; 0,083; 0,051; 0,038; 0,013; -0,001; 0,007; 0,002; -0,003; 0,014; 0,026; 0,021; 0,058; 0,200; 0,249; 0,269; 0,201; 0,236; 0,277; 0,436; 0,449; 0,262; 0,143; 0,200; 0,152; 0,093; 0,117; 0,168; 0,170; 0,083; 0,077; 0,057; 0,060; -0,010; 0,001; 0,004; 0,005; 0,003; 0,020; 0,028; 0,017; 0,057; 0,119; 0,196; 0,258; 0,275; 0,339; 0,373; 0,292; 0,241; 0,092; 0,155; 0,103; 0,048; 0,072; 0,127; 0,090; 0,042; 0,037; 0,027; 0,021; 0,002; 0,008; 0,002; 0,005; 0,002; 0,016; 0,027; 0,025; 0,025; 0,020; 0,081; 0,220; 0,253; 0,300; 0,269; 0,233; 0,200; 0,093; 0,096; 0,071; 0,021; 0,061; 0,066; 0,055; 0,032; 0,023; 0,005; 0,007; 0,003; 0,009; -0,001; 0,013; 0,006; 0,010; 0,016; 0,054; 0,025; 0,071; 0,147; 0,197; 0,183; 0,190; 0,167; 0,133; 0,155; 0,140; 0,129; 0,116; 0,088; 0,056; 0,044; 0,036; 0,028; 0,010; -0,016; -0,017; 0,013; 0,003; -0,005; 0,005; 0,009; 0,020; 0,023; 0,126; 0,150; 0,176; 0,249; 0,206; 0,178; 0,167; 0,171; 0,167; 0,175; 0,191; 0,167; 0,112; 0,067; 0,032; 0,014; 0,013; 0,019; 0,027; 0,025; -0,000; 0,005; 0,004; -0,001; 0,012; 0,003; 0,006; 0,051; 0,116; 0,149; 0,193; 0,160; 0,137; 0,130; 0,136; 0,143; 0,148; 0,192; 0,206; 0,138; 0,084; 0,045; 0,022; 0,010; 0,003; 0,009; 0,006; 0,003; 0,003; 0,005; 0,009; -0,006; 0,007; 0,003; 0,010; 0,053; 0,072; 0,139; 0,163; 0,130; 0,076; 0,038; 0,091; 0,138; 0,175; 0,200; 0,155; 0,101; 0,056; 0,038; 0,034; 0,021; 0,020; 0,018; 0,011; 0,007; 0,007; 0,007; 0,006; 0,005; -0,007; 0,003; 0,011; 0,051; 0,114; 0,109; 0,080; 0,082; 0,078; 0,036; 0,086; 0,130; 0,173; 0,161; 0,143; 0,086; 0,032; 0,045; 0,037; 0,023; 0,033; 0,021; 0,020; 0,016; 0,004; 0,003; 0,003; 0,003; 0,004; 0,008; 0,032; 0,086; 0,077; 0,047; 0,061; 0,065; 0,077; 0,065; 0,092; 0,123; 0,076; 0,068; 0,075; 0,048; 0,063; 0,057; 0,030; 0,032; 0,030; 0,023; 0,017; 0,016; 0,007; 0,001; 0,009; 0,003; -0,020; 0,010; 0,069; 0,029; 0,012; 0,024; 0,044; 0,037; 0,039; 0,052; 0,058; 0,079; 0,075; 0,077; 0,067; 0,070; 0,060; 0,031; 0,027; 0,031; 0,026; 0,015; 0,020; -0,001; -0,002; 0,008; 0,006; 0,004; 0,005; 0,010; 0,009; 0,016; 0,013; 0,012; 0,019; 0,019; 0,022; 0,027; 0,028; 0,021; 0,026; 0,033; 0,037; 0,040; 0,036; 0,028; 0,023; 0,032; 0,023; 0,007; 0,014; -0,007; 0,007; 0,007; 0,003; 0,006; 0,008; 0,004; 0,000; 0,005; 0,009; 0,002; 0,009; 0,007; 0,003; 0,010; 0,013; 0,009; 0,006; 0,007; 0,014; 0,017; 0,005; 0,007; 0,008; 0,012; 0,013; 0,010; 0,001; 0,007; 0,001; 0,007; 25,729; 0,000; 0,001; 0,008; 0,006; 0,006; 0,009; 0,005; 0,006; 0,006; 0,005; 0,002; 0,009; 0,015; 0,015; 0,012; 0,013; 0,009; 0,000; 0,010; 0,009; 0,001; 0,003; 0,008; 0,006; 0,007; 0,009; 0,003; 0,001; 0,006; 0,007; 0,001; 0,004; 0,020; 0,019; 0,007; 0,047; 0,060; 0,059; 0,063; 0,024; 0,030; 0,026; 0,749; 1,094; 2,983; 0,974; 0,047; 0,038; 0,028; 0,020; 0,012; 0,004; 0,010; 0,006; 0,007; 0,007; 0,004; 0,006; 0,015; -0,002; 0,016; 0,028; 0,032; 0,070; 0,086; 0,106; 0,142; 0,805; 1,631; 3,924; 5,136; 4,626; 5,549; 3,781; -0,660; -1,510; -0,059; 0,146; 0,479; -0,032; -0,060; 0,040; 0,006; 0,002; 0,007; 0,006; 0,022; 0,014; 0,037; 0,044; 0,076; 0,087; 0,163; 0,244; 0,419; 3,383; 7,584; 13,657; 16,113; 11,397; 8,924; 6,101; 3,099; -1,086; -0,554; 1,363; 0,991; 0,547; 0,164; 0,153; 0,155; 0,008; 0,005; 0,010; 0,031; 0,036; -0,105; 0,093; 0,233; 0,965; 1,425; 2,089; 3,799; 9,091; 12,114; 17,968; 14,585; 5,178; -3,855; 1,638; 8,199; 2,769; -5,145; 0,772; -1,245; -2,056; 1,394; 0,952; 0,436; 0,299; 0,007; 0,001; -0,032; -0,568; -0,191; -0,121; 1,611; 2,867; 3,765; 4,148; 7,657; 12,754; 14,945; 12,038; 4,203; -8,919; 0,154; 2,874; 3,732; 3,497; 2,166; -2,701; -3,019; -7,947; -6,316; 1,599; 0,866; 0,398; 0,002; 0,032; 0,035; -1,584; -1,077; 1,572; 3,790; 4,883; 2,307; 4,915; 10,948; 17,381; 21,232; 12,199; -1,416; 8,722; 7,347; -3,140; -0,587; 12,204; -0,939; -7,043; -6,484; -9,401; -3,982; 1,404; -0,001; -0,024; 0,001; 0,050; 0,021; 0,089; 0,098; 0,751; 3,118; 2,592; 3,107; 3,878; 13,280; 18,967; 21,367; 4,494; 1,757; 11,543; 10,928; 2,049; 6,424; 3,222; -2,824; -6,167; -6,023; -3,753; 4,156; 4,966; 0,011; 0,012; 0,010; 0,033; 0,024; 0,034; 0,234; 1,281; 3,675; 2,670; 3,725; 5,395; 9,153; 15,827; 22,493; 9,349; 7,012; -2,257; 1,307; -5,130; 3,935; 6,302; 8,858; 1,159; 1,830; 9,457; 11,424; 3,075; 0,121; 0,056; 0,003; 0,056; 0,046; 0,031; 0,238; 0,967; 2,324; 1,901; 3,067; 4,481; 7,005; 14,569; 15,369; 6,817; 7,529; -11,521; -16,808; -0,335; 4,254; 12,913; 12,718; 1,986; 4,660; 9,312; 8,719; 2,827; -0,199; -0,401; 0,016; -0,005; -0,175; -0,146; 0,085; 0,479; 1,194; 2,175; 2,652; 3,610; 2,853; 13,304; 9,093; 10,152; -0,221; -21,637; -10,945; -3,979; 0,640; 5,246; 8,588; 4,515; 6,293; 7,671; 4,634; 1,683; -0,049; -0,120; 0,008; -0,024; -0,380; -0,120; 0,021; 0,278; 0,572; 1,942; 3,288; 2,331; 3,054; 8,823; 5,536; -2,926; -6,487; -18,653; -6,288; -1,449; -0,260; 4,304; 4,820; 3,238; 3,325; 2,740; 1,817; 0,158; 0,180; 0,031; 0,017; 0,003; -0,239; -0,019; -0,019; 0,249; 0,137; 0,568; 3,303; 2,002; 3,744; 6,396; 1,655; -5,905; -14,299; -8,193; -2,959; -1,093; 0,301; 3,896; 3,134; -1,104; -0,702; 0,202; 0,993; 1,457; 0,480; 0,103; -0,026; 0,009; 0,016; -0,039; -0,005; 0,123; 0,151; 0,117; 1,713; 3,450; 3,874; 4,327; -0,931; -4,955; -2,929; -5,644; -7,455; -9,375; 2,936; 4,119; 6,461; 1,932; 1,704; 2,450; 2,252; 1,434; 0,337; 0,039; 0,017; 0,007; -0,016; -0,049; -0,171; 0,540; 0,537; 0,274; 0,275; 2,232; 7,182; -1,284; -1,482; 3,803; -5,169; -0,349; -9,868; 3,801; 7,798; 8,070; 8,287; 3,166; 3,220; 0,680; 0,537; -0,364; -0,132; 0,031; 0,020; 0,007; -0,029; -0,022; -0,014; 1,403; 1,988; 0,861; -0,381; 1,514; 1,327; -10,146; -3,130; -5,728; -6,111; -3,264; -11,705; 8,467; 11,259; 9,425; 8,485; 1,590; 1,683; 0,617; 0,719; -0,043; 0,007; 0,047; 0,007; -0,022; -0,022; 0,118; -0,043; 1,919; 5,086; 4,921; 4,410; -0,723; 0,877; -11,322; -4,463; -8,720; 1,381; -6,553; -3,664; 10,463; 10,022; 7,986; 5,562; 1,224; 0,562; 0,140; 0,305; 0,474; -1,264; 0,037; 0,003; -0,032; 0,028; 0,252; 0,381; 3,106; 6,087; 6,963; 6,546; 6,594; -2,349; -8,255; -15,098; -7,908; 4,735; 2,750; 6,001; 14,755; 8,673; 7,709; 7,012; 3,509; 1,882; 0,986; 1,599; 0,147; -2,014; 0,039; 0,001; -0,034; 0,065; 0,220; 1,414; 5,692; 11,456; 7,425; 8,514; 1,751; -3,718; -8,433; -8,795; -0,461; 6,852; 5,206; 9,279; 11,993; 7,244; 5,991; 7,325; 4,273; 3,551; 3,028; 2,396; -0,320; -2,298; -1,803; -0,039; -0,011; 0,101; 0,237; 2,611; 10,151; 7,364; 3,399; 6,003; 0,567; 3,983; -7,415; -1,201; 1,850; 4,955; 5,593; 7,620; 12,656; 5,587; 2,655; 3,678; 3,027; 3,672; 3,766; 2,828; -0,715; -2,296; -0,799; 0,008; 0,048; 0,201; 0,350; 1,189; 5,052; 3,828; 4,336; -0,904; 4,545; 3,540; -4,554; -4,136; 5,747; 2,587; 9,288; 5,103; 14,218; 6,713; 3,425; 3,928; 2,224; 1,838; 1,592; 0,802; -0,384; -2,006; 0,015; -0,038; 0,026; 0,171; -0,326; 0,691; -6,508; -2,736; 6,541; 5,102; 4,568; -4,262; -0,658; -0,068; 9,540; 2,856; 8,423; 12,199; 12,773; 7,895; 6,128; 3,925; 1,671; 0,742; 0,283; 0,205; 0,000; -0,201; 0,005; -0,034; -0,005; 0,070; -0,342; 1,573; -8,532; -8,176; 1,529; 7,751; 2,076; 3,790; 5,701; 12,654; 5,897; 1,976; 10,485; 6,111; 8,271; 3,991; 2,350; 2,615; 1,444; 0,747; 0,179; 0,161; -0,082; -0,331; 0,007; 0,009; 0,001; 0,063; 0,671; 2,818; -1,519; -3,712; -1,008; 0,843; 1,145; -0,246; 4,233; 2,145; 4,775; 3,718; 1,500; 2,576; 4,029; 2,552; 1,872; 2,446; 3,279; 0,765; 0,136; -0,002; -0,089; -1,627; 0,001; 0,001; 0,006; 0,038; 0,605; 0,909; -0,785; -0,217; 0,408; 2,384; 3,636; 6,071; 5,960; 7,885; 4,423; -4,311; -2,170; 1,876; 2,329; 1,586; 1,166; 1,338; 1,057; 0,084; 0,006; 0,039; -0,026; -0,027; 0,008; 0,006; 0,003; 0,017; 0,105; 0,047; 1,297; 3,859; 5,800; 1,885; 6,402; 10,720; 9,859; 10,265; 8,715; 7,431; 7,827; 2,986; 0,843; 0,409; 0,132; 0,064; 0,045; 0,041; -0,998; -0,168; 0,018; 0,014; 0,008; 0,004; 0,000; 0,003; 0,024; 0,068; 0,135; 0,068; 0,215; 0,266; -0,630; 1,446; 4,087; 7,124; 5,955; 2,681; 1,496; 0,687; -0,003; 0,096; 0,080; 0,036; 0,024; 0,031; 0,023; 0,007; 0,023; 0,009; 0,001; 0,008; 0,001; 0,009; 0,006; 0,032; 0,008; 0,014; 0,011; 0,017; 0,016; 0,068; 0,074; 0,092; 0,086; 0,079; 0,045; 0,037; 0,065; 0,077; 0,015; 0,010; 0,009; 0,011; 0,009; 0,006; 0,007; 0,007; 0,005; 0,708; 0,006; 0,006; 0,003; 0,001; 0,008; 0,004; 0,009; 0,003; 0,009; 0,007; 0,004; 0,001; 0,007; 0,002; 0,001; 0,007; 0,006; 0,008; 0,001; 0,004; 0,010; 0,003; 0,006; 0,005; 0,007; 0,000; 0,003; 0,002; 0,003; 0,008; 0,002; 0,006; 0,005; 0,006; 0,018; 0,014; 0,014; 0,009; 0,008; 0,011; 0,006; 0,012; 0,008; 0,009; 0,007; 0,004; 0,003; 0,010; 0,004; 0,004; 0,002; 0,008; 0,009; 0,001; 0,010; 0,003; 0,003; 0,007; 0,003; -0,003; 0,009; 0,009; 0,007; 0,028; 0,027; 0,022; 0,012; 0,011; 0,017; 0,018; 0,019; 0,024; 0,026; 0,020; 0,024; 0,022; 0,013; 0,011; 0,016; 0,011; 0,008; 0,004; 0,008; 0,000; 0,010; 0,002; 0,004; 0,001; 0,025; 0,007; 0,008; 0,009; 0,004; 0,009; 0,013; 0,014; 0,012; 0,016; 0,024; 0,039; 0,040; 0,042; 0,041; 0,037; 0,022; 0,017; 0,009; 0,018; 0,015; 0,006; 0,011; 0,010; 0,010; 0,001; -0,007; 0,001; 0,013; 0,014; 0,003; -0,001; 0,008; 0,036; 0,037; 0,041; 0,038; 0,052; 0,048; 0,056; 0,066; 0,065; 0,071; 0,067; 0,074; 0,062; 0,044; 0,038; 0,022; 0,011; 0,010; 0,011; 0,006; 0,008; 0,006; 0,010; 0,014; 0,011; -0,010; 0,011; 0,030; 0,032; 0,017; -0,000; 0,038; 0,082; 0,079; 0,069; 0,077; 0,086; 0,073; 0,076; 0,086; 0,061; 0,049; 0,057; 0,053; 0,010; 0,005; 0,012; 0,002; -0,009; 0,007; 0,001; 0,007; 0,012; -0,020; 0,028; 0,036; 0,062; 0,079; 0,081; 0,129; 0,170; 0,198; 0,213; 0,156; 0,139; 0,116; 0,120; 0,113; 0,113; 0,114; 0,080; 0,044; 0,013; 0,006; 0,011; 0,008; 0,008; 0,002; 0,004; 0,025; 0,016; -0,001; 0,037; 0,038; 0,094; 0,152; 0,182; 0,214; 0,266; 0,276; 0,235; 0,187; 0,147; 0,124; 0,112; 0,080; 0,086; 0,100; 0,099; 0,019; 0,018; 0,011; 0,007; 0,011; 0,007; -0,009; 0,007; 0,018; 0,023; 0,020; 0,053; 0,057; 0,108; 0,186; 0,193; 0,186; 0,272; 0,313; 0,275; 0,219; 0,183; 0,161; 0,101; 0,098; 0,074; 0,079; 0,035; 0,005; 0,008; 0,007; 0,009; 0,005; 0,001; -0,005; 0,007; 0,029; 0,023; 0,043; 0,070; 0,068; 0,101; 0,201; 0,254; 0,209; 0,282; 0,331; 0,311; 0,222; 0,164; 0,148; 0,107; 0,101; 0,074; 0,023; -0,016; -0,006; 0,014; 0,008; 0,010; -0,010; 0,007; 0,002; 0,003; 0,024; 0,034; 0,062; 0,090; 0,105; 0,116; 0,166; 0,219; 0,221; 0,298; 0,348; 0,307; 0,268; 0,218; 0,167; 0,113; 0,112; 0,093; 0,062; 0,048; 0,038; 0,064; 0,028; 0,004; 0,007; 0,005; 0,007; 0,007; 0,039; 0,050; 0,096; 0,153; 0,161; 0,163; 0,219; 0,233; 0,269; 0,344; 0,360; 0,380; 0,315; 0,323; 0,259; 0,231; 0,224; 0,212; 0,161; 0,143; 0,080; 0,073; 0,039; 0,011; -0,019; 0,009; 0,007; 0,009; 0,093; 0,102; 0,152; 0,178; 0,168; 0,154; 0,144; 0,169; 0,204; 0,252; 0,348; 0,365; 0,281; 0,313; 0,261; 0,196; 0,172; 0,138; 0,104; 0,087; 0,032; 0,039; 0,012; 0,008; 0,021; 0,010; 0,009; 0,013; 0,123; 0,122; 0,111; 0,112; 0,102; 0,086; 0,155; 0,218; 0,216; 0,277; 0,349; 0,299; 0,150; 0,183; 0,146; 0,091; 0,097; 0,084; 0,100; 0,080; 0,039; 0,026; 0,025; 0,008; 0,007; 0,002; -0,000; 0,013; 0,072; 0,095; 0,137; 0,106; 0,163; 0,165; 0,190; 0,180; 0,139; 0,237; 0,309; 0,225; 0,087; 0,082; 0,103; 0,084; 0,089; 0,095; 0,130; 0,090; 0,028; 0,035; 0,018; 0,004; 0,002; -0,002; 0,004; 0,016; 0,031; 0,051; 0,142; 0,219; 0,203; 0,185; 0,177; 0,161; 0,172; 0,306; 0,424; 0,279; 0,123; 0,128; 0,131; 0,129; 0,131; 0,157; 0,148; 0,082; 0,048; 0,036; 0,015; 0,008; -0,003; 0,002; 0,006; 0,016; 0,021; 0,025; 0,075; 0,209; 0,250; 0,275; 0,219; 0,243; 0,287; 0,432; 0,441; 0,270; 0,159; 0,195; 0,158; 0,115; 0,124; 0,163; 0,162; 0,080; 0,078; 0,062; 0,060; -0,002; 0,005; 0,007; 0,002; 0,007; 0,018; 0,019; 0,028; 0,072; 0,134; 0,209; 0,266; 0,282; 0,351; 0,376; 0,295; 0,247; 0,117; 0,162; 0,130; 0,078; 0,088; 0,132; 0,088; 0,042; 0,044; 0,026; 0,024; 0,010; 0,009; 0,003; 0,003; 0,008; 0,014; 0,011; 0,013; 0,018; 0,029; 0,116; 0,251; 0,277; 0,311; 0,270; 0,232; 0,211; 0,113; 0,115; 0,093; 0,054; 0,097; 0,076; 0,058; 0,035; 0,026; 0,015; 0,008; 0,007; 0,006; -0,006; 0,007; 0,007; 0,011; 0,009; 0,037; 0,011; 0,062; 0,151; 0,221; 0,205; 0,206; 0,178; 0,150; 0,164; 0,156; 0,146; 0,133; 0,102; 0,077; 0,042; 0,037; 0,033; 0,018; 0,001; 0,005; 0,010; 0,001; -0,009; 0,005; 0,007; 0,019; 0,017; 0,110; 0,125; 0,156; 0,239; 0,193; 0,180; 0,174; 0,181; 0,168; 0,184; 0,194; 0,180; 0,133; 0,087; 0,041; 0,022; 0,015; 0,022; 0,033; 0,022; 0,002; 0,005; 0,010; -0,002; 0,009; 0,005; 0,010; 0,047; 0,101; 0,132; 0,174; 0,147; 0,137; 0,130; 0,145; 0,153; 0,149; 0,193; 0,205; 0,153; 0,093; 0,051; 0,031; 0,020; 0,012; 0,016; 0,009; 0,007; 0,007; 0,001; 0,012; 0,004; 0,012; 0,011; 0,008; 0,048; 0,071; 0,129; 0,143; 0,120; 0,064; 0,038; 0,081; 0,128; 0,165; 0,199; 0,152; 0,108; 0,060; 0,047; 0,041; 0,027; 0,025; 0,020; 0,017; 0,013; 0,008; 0,006; 0,002; 0,009; -0,008; 0,007; 0,009; 0,049; 0,111; 0,103; 0,069; 0,071; 0,062; 0,036; 0,073; 0,125; 0,166; 0,151; 0,142; 0,096; 0,047; 0,060; 0,053; 0,035; 0,034; 0,020; 0,020; 0,013; 0,008; 0,002; 0,007; 0,008; 0,008; 0,005; 0,031; 0,084; 0,065; 0,035; 0,049; 0,058; 0,058; 0,061; 0,090; 0,117; 0,077; 0,069; 0,075; 0,054; 0,063; 0,056; 0,043; 0,042; 0,025; 0,020; 0,018; 0,019; 0,005; 0,006; 0,001; 0,008; -0,020; 0,012; 0,068; 0,030; 0,020; 0,027; 0,040; 0,023; 0,031; 0,042; 0,048; 0,061; 0,062; 0,064; 0,068; 0,062; 0,053; 0,031; 0,028; 0,026; 0,029; 0,012; 0,015; 0,000; 0,001; 0,005; 0,006; 0,002; 0,010; 0,001; 0,004; 0,016; 0,012; 0,017; 0,014; 0,013; 0,006; 0,013; 0,019; 0,015; 0,015; 0,017; 0,035; 0,030; 0,027; 0,018; 0,023; 0,026; 0,018; 0,002; 0,016; -0,005; 0,009; 0,007; 0,007; 0,002; 0,009; 0,001; -0,007; 0,005; 0,010; 0,005; 0,006; 0,003; -0,004; -0,001; 0,002; -0,001; -0,001; -0,000; 0,006; 0,005; 0,001; 0,006; 0,006; 0,009; 0,012; 0,001; 0,005; 0,008; 0,005; 0,005; 25,342; 0,008; 0,000; 0,002; 0,004; 0,003; 0,007; 0,009; 0,001; 0,005; 0,007; 0,006; 0,002; -0,010; -0,012; -0,001; -0,007; 0,010; 0,008; 0,004; 0,002; 0,002; 0,005; 0,001; 0,006; 0,005; 0,010; 0,009; 0,001; 0,008; 0,002; 0,008; 0,009; -0,027; -0,029; -0,013; -0,027; -0,030; -0,068; -0,155; -0,045; -0,022; -0,008; 0,246; 0,447; 0,396; 0,193; -0,060; -0,098; 0,037; 0,109; 0,127; 0,004; 0,006; 0,001; 0,009; 0,008; 0,003; 0,005; -0,015; 0,073; -0,006; -0,046; 0,011; -0,019; -0,285; -0,580; -1,141; -2,332; -1,516; -0,490; 0,204; 1,188; 1,224; 1,210; -0,067; 0,014; 0,210; 0,061; -0,183; 0,008; -0,076; -0,060; 0,002; 0,001; 0,005; 0,009; -0,023; 0,117; 0,007; -1,198; -0,506; -0,337; -0,851; -1,814; -3,978; -11,742; -11,958; -7,824; -2,044; 0,776; -0,317; -0,465; 1,691; -0,393; -1,669; -0,953; -1,599; -0,851; -0,696; -0,375; -0,323; 0,005; 0,005; -0,006; -0,106; -0,131; -0,314; -2,825; -2,812; -2,596; -11,415; -15,015; -9,256; -11,454; -19,126; -23,547; -12,874; -2,844; 2,230; 2,911; 7,199; 3,312; 5,516; 7,142; 9,239; 6,675; 0,148; -1,167; -0,038; -0,023; 0,001; 0,003; -0,078; -0,606; -2,329; -8,797; -12,041; -12,477; -15,016; -5,055; -2,280; 0,197; -8,289; -6,760; -4,217; -2,704; 3,861; 8,737; 5,531; -3,373; 4,323; 11,542; 15,235; 10,674; 2,838; -0,134; 0,276; -0,013; 0,001; -0,032; 0,933; -2,304; -5,735; -10,904; -18,040; -9,893; -8,918; -3,906; -1,775; -5,381; -3,730; -6,523; 0,601; 0,500; -3,079; 1,136; 0,806; 12,626; 10,834; 9,334; 20,473; 14,004; 8,281; 1,623; 0,294; 0,071; 0,016; -0,018; 0,562; -3,511; -11,650; -12,228; -10,129; -2,075; -7,203; -5,747; 2,074; -0,196; -0,276; 0,022; 0,935; 0,317; 5,624; 15,395; 7,233; 11,802; 19,331; 11,409; 14,159; 17,166; 13,888; 3,526; 0,787; 0,234; 0,016; 0,087; 0,245; -2,869; -13,701; -10,863; -14,239; -7,355; 1,555; 0,620; 3,024; 6,407; 3,225; -9,827; -6,984; -9,100; -1,711; 2,103; 1,644; 7,835; 11,562; 3,544; 7,561; 22,263; 22,461; 8,383; 1,207; 0,243; 0,022; 0,120; 0,297; -2,094; -12,140; -10,411; -7,792; 5,782; 13,646; 14,758; 23,955; 21,511; 13,134; -5,548; -29,484; -36,321; -25,990; -21,010; -21,637; -17,128; -21,004; -11,075; 2,385; 19,753; 19,138; 6,570; 1,570; 0,521; 0,012; 0,121; 0,234; -4,500; -7,150; -1,711; 5,888; 16,110; 28,361; 22,862; 27,649; 19,097; 22,245; 3,887; -20,345; -21,826; -27,019; -35,876; -27,928; -33,839; -28,773; -10,180; 3,357; 15,380; 14,176; 8,075; 1,674; 0,233; 0,036; 0,067; 0,134; -4,262; -3,462; 0,904; 10,578; 18,467; 18,215; 4,952; 8,756; 10,682; 12,748; 9,893; -3,983; -19,732; -12,416; -11,133; -15,882; -19,683; -13,185; -1,551; 4,995; 8,732; 6,619; 3,861; 0,881; 0,052; 0,003; 0,095; 0,130; -1,992; -2,735; 0,083; 7,727; 5,516; 7,133; -4,143; -4,013; 10,338; 14,285; 2,669; -14,315; -10,374; -14,609; -12,439; -9,138; -4,606; 5,371; 8,539; 7,160; 5,025; 2,869; 1,261; 0,801; 0,045; 0,041; 0,125; 0,156; -0,882; -2,502; 0,866; 3,346; -0,388; -1,039; -8,027; -0,072; 16,822; 18,570; 2,089; -14,312; -9,614; -16,044; -15,879; -11,105; 0,118; 9,457; 14,705; 11,880; 2,254; 1,807; 0,609; 0,166; -0,037; 0,053; 0,011; 0,081; -2,197; -1,595; 2,269; -2,156; -3,059; 0,181; -1,603; 10,544; 9,170; 7,955; -2,906; -8,567; -13,597; -13,982; -7,358; -7,078; -15,397; 9,948; 6,215; 9,910; 1,001; -0,026; -0,530; -0,407; -0,049; 0,039; -0,070; -0,008; -2,304; -2,048; -2,026; -2,463; 0,866; 8,382; 9,906; 6,440; 5,925; 6,092; -9,158; -11,064; -21,279; -15,289; -3,758; 3,601; -2,970; -1,316; 6,268; -0,667; 1,546; -1,409; -0,841; -0,565; -0,009; 0,021; -0,052; 0,184; -1,479; -6,448; -4,173; 3,502; 0,131; 4,670; 10,223; 6,821; 1,727; -5,879; -14,808; -10,403; -4,142; -6,907; 2,695; -3,305; 6,385; -1,808; 1,467; 1,467; -0,222; -3,690; -0,679; -0,340; -0,049; 0,009; -0,005; 0,321; -4,132; -8,580; 6,338; 10,020; -2,308; 2,589; 15,382; 14,782; 6,595; -5,161; -8,729; -1,448; 4,114; 0,406; 3,533; 6,924; -1,370; 3,548; 1,506; -3,473; -6,082; -2,653; -0,859; -0,345; -0,264; -0,019; -0,018; 0,036; -7,562; -8,285; -0,905; 2,961; -0,136; 4,314; 10,731; 9,572; 10,987; 6,816; 8,309; 5,965; 0,451; -9,061; -0,623; -7,396; -6,721; -9,368; -6,183; -9,979; -8,411; 0,121; -1,152; -0,689; -0,269; 0,043; 0,002; 0,600; -8,971; -4,145; -1,923; -2,160; -1,318; 3,506; 6,665; 5,247; 13,630; 10,949; 6,500; 0,614; -4,203; -6,927; -14,008; -17,323; -9,698; -17,169; -9,842; -6,138; -2,967; 2,092; -1,277; -0,807; -0,153; 0,003; -0,011; -0,105; -7,113; -3,933; 3,205; -4,481; -4,023; -0,862; -4,226; 0,391; 10,534; 11,055; 5,821; -3,598; 5,659; -1,774; -11,809; -13,831; -9,335; -16,324; -6,018; 2,138; -1,387; -0,319; -0,678; -0,353; 0,009; 0,038; -0,051; -0,151; -1,633; -3,848; 1,241; 3,030; 4,724; 9,820; 9,307; 2,829; 9,450; 4,960; 6,120; 5,243; 9,259; -0,023; -4,240; -1,189; -2,475; 2,225; 9,121; 1,701; -0,840; -1,101; -0,713; -0,005; 0,028; 0,035; -0,033; -0,273; -2,897; -3,596; -1,443; -7,941; -3,271; 4,560; 6,373; 4,626; 11,438; 6,070; 3,763; 3,747; 10,145; 10,350; 4,208; -4,977; -0,393; -1,222; 2,417; -1,974; -1,910; -0,659; -0,339; 0,053; 0,027; 0,002; 0,005; -0,251; -2,260; -1,415; -1,586; -3,430; -7,638; -0,298; -7,247; -6,955; -5,505; 2,352; 4,970; 6,891; 5,178; 4,156; 4,738; -7,709; -6,999; -5,002; -2,127; -1,908; -1,334; -0,237; -0,079; -0,018; 0,001; 0,006; 0,004; -0,076; -0,748; -2,296; -3,418; -6,031; -10,199; -6,214; -0,834; -4,534; -3,891; -4,257; -0,926; -3,980; -1,891; -1,213; -1,123; 0,981; -2,711; -2,504; -1,557; -1,705; -0,845; -0,181; -0,094; -0,021; 0,006; 0,002; 0,003; -0,050; 0,739; -0,158; -1,639; -1,915; -3,011; -3,722; -1,504; -1,251; 3,692; 5,086; 4,446; 2,627; 3,653; 1,599; 1,714; -0,304; -2,301; -2,552; -1,360; -0,692; -0,266; 0,055; -0,035; -0,032; 0,002; 0,007; 0,008; 0,000; -0,016; -0,043; -0,203; -0,270; -0,245; -0,029; 0,330; 0,319; -0,450; -1,612; -4,000; -1,768; 0,485; 0,415; -0,578; -0,801; -0,947; -1,287; -0,095; 0,244; -0,050; -0,040; 0,011; 0,005; 0,002; 0,005; 0,005; 0,008; 0,006; 0,005; 0,016; 0,040; 0,051; 0,066; 0,101; 0,192; 0,280; -0,017; 0,046; 0,062; -0,179; -0,158; 0,124; -0,045; 0,011; 0,055; 0,139; 0,166; 0,070; 0,002; 0,006; 0,009; 0,004; -41,298; 0,010; 0,001; 0,007; 0,007; 0,003; 0,009; 0,005; 0,006; 0,002; 0,001; 0,003; 0,010; -0,002; -0,002; 0,005; 0,009; 0,004; 0,001; 0,002; 0,009; 0,008; 0,004; 0,006; 0,010; 0,001; 0,005; 0,003; 0,002; 0,001; 0,010; 0,000; 0,002; -0,000; -0,006; -0,007; -0,027; -0,085; -0,077; -0,063; -0,020; -0,028; -0,020; 0,888; 1,798; 0,014; -0,104; -0,028; -0,020; -0,012; 0,001; 0,003; -0,001; 0,009; 0,007; 0,006; 0,005; 0,003; 0,009; -0,006; -0,016; -0,004; -0,020; -0,026; -0,063; -1,078; -1,888; -1,107; -0,636; 0,480; 1,356; -0,030; 7,300; 5,946; 1,357; 1,510; 0,336; -0,192; -0,069; -0,034; -0,038; -0,038; -0,030; 0,009; 0,010; 0,003; 0,009; -0,002; -0,010; -0,003; -0,017; -0,072; -0,118; -1,757; -3,960; -7,594; -9,849; -3,166; 0,851; 1,649; 4,449; 4,545; 0,738; -2,592; -2,195; -2,541; -0,683; -0,016; -0,331; -0,168; -0,070; -0,031; 0,005; 0,004; -0,002; -0,008; -0,015; -0,159; -0,529; -0,947; -1,925; -3,192; -3,326; 1,309; -10,523; -12,762; -3,821; -2,481; 4,328; -0,054; -0,158; -7,611; -5,568; -5,011; -3,176; -0,758; -0,865; -1,112; -0,182; -0,058; -0,029; 0,008; 0,003; 0,036; 0,035; -0,261; -0,839; -1,466; -2,703; -5,855; -6,707; -4,374; -4,123; -6,911; -1,332; 2,846; 17,164; 4,580; 4,248; -12,555; -7,715; -5,370; -3,283; -2,356; -2,068; -1,010; -0,384; -0,052; -0,033; 0,000; -0,013; -0,062; -0,019; -1,176; -2,715; -4,809; -9,881; -12,804; -13,064; -0,741; -0,175; -9,115; -7,323; 4,312; 5,482; -3,324; -2,715; -15,805; -11,321; -7,729; -3,298; -1,850; -1,918; -1,306; 0,372; -0,071; -0,027; 0,006; -0,018; -0,225; -0,072; -1,283; -4,442; -7,181; -11,538; -14,594; -11,595; -4,603; -2,998; -3,659; -11,866; -1,144; 0,751; -8,059; -7,778; -12,226; -11,872; -6,847; -3,767; -3,314; -3,031; -1,775; 1,307; -0,077; -0,045; 0,006; -0,013; -0,203; -0,102; -0,982; -3,064; -4,953; -7,342; -12,074; -13,934; -6,011; -5,942; -1,499; 0,711; 5,212; -0,133; -10,471; -4,970; -9,575; -12,056; -9,252; -4,637; -3,578; -3,279; -2,477; -1,654; -0,088; -0,031; -0,004; -0,018; -0,165; -0,336; -0,906; -1,749; -1,823; -3,247; -10,795; -14,811; -4,134; 3,038; -1,353; 15,065; 12,936; 5,047; -1,712; -8,246; -10,648; -8,766; -6,951; -4,384; -3,720; -4,342; -4,463; -2,989; -1,307; -0,392; -0,014; 0,005; -0,091; -0,352; -0,708; -1,773; -4,739; -3,771; -5,674; -8,270; -1,085; 2,489; 4,066; 21,355; 18,650; 8,471; -3,736; -7,318; -12,124; -5,385; -9,611; -4,533; -3,634; -4,227; -3,431; -1,664; -0,514; -0,165; -0,008; 0,017; -0,015; -0,021; -0,548; -1,273; -2,635; -1,690; -3,822; -6,763; -5,326; -5,026; 5,731; 10,018; 15,061; 8,410; -1,327; -5,780; -13,545; -5,439; -5,764; -2,124; -1,707; -2,018; -1,145; -0,435; -0,051; 0,050; -0,023; -0,006; -0,017; 0,007; -0,354; -0,990; -0,898; 1,203; -1,823; -2,253; -4,225; -6,468; 7,880; -2,618; 0,101; 3,028; 5,511; -6,196; -9,320; -3,102; -1,046; 0,865; -0,162; -0,084; -0,247; -0,122; -0,208; 0,048; 0,036; -0,004; -0,012; 0,010; -0,204; -0,428; -1,313; -2,115; -0,979; -3,490; -6,375; -13,215; 3,775; -5,738; -3,510; 1,865; 5,580; -5,376; -6,847; -3,784; -3,292; -2,465; -2,698; -1,059; -1,104; -0,881; -0,601; 0,003; 0,000; 0,002; 0,009; 0,015; -0,016; -0,542; -0,765; -1,772; 5,024; 4,697; -0,340; -14,477; -1,856; -7,890; 4,666; -0,507; -2,894; -7,651; -12,555; -6,865; -3,721; -1,867; -2,067; -0,962; 0,133; 0,208; -0,010; -0,011; -0,004; 0,007; 0,023; 0,038; -0,341; -0,604; -0,546; 1,673; 5,349; 4,633; -4,644; -8,160; -1,267; -2,404; 6,544; -6,204; 0,034; -11,299; -13,660; -7,070; -4,829; -1,944; -2,906; -1,211; 0,117; 0,246; -0,056; -0,022; -0,006; 0,031; 0,028; -0,024; -0,766; -0,938; 0,869; 1,281; 0,918; -3,575; -10,225; -10,864; -3,841; -5,752; 13,591; -4,554; -2,506; -9,876; -17,145; -6,936; -3,214; -0,520; -1,866; -1,186; -0,290; -0,218; -0,087; -0,033; 0,000; 0,031; -0,014; -0,039; -0,520; -3,287; -0,401; -0,813; -1,840; -6,146; -12,897; -12,942; 0,317; -0,816; 17,909; 1,957; -7,281; -7,189; -11,561; -5,148; -4,140; -1,994; -1,648; -1,693; -2,060; -1,200; -0,156; -0,041; 0,008; 0,013; -0,032; -0,100; -0,802; -4,040; -2,341; -3,956; -5,708; -6,690; -15,768; -16,085; -3,355; -3,053; 11,472; 6,233; -9,928; -5,683; -3,418; -0,853; 0,588; 1,646; -2,315; -3,383; -1,978; -0,157; -0,023; 0,379; 0,051; 0,002; 0,257; 1,580; 0,718; -3,310; -4,310; -2,176; -0,917; -0,146; -9,965; -8,076; -1,292; 5,552; 10,583; 1,805; 5,684; -7,828; -3,742; 0,392; -1,058; -2,314; -6,147; -0,874; 0,296; 0,373; -0,095; 0,171; 0,000; -0,019; 0,435; 1,628; 0,608; -1,125; -1,188; -0,522; 3,156; 0,073; -6,947; -1,161; 2,154; 8,435; 9,742; -2,543; 5,013; -1,145; 2,717; 3,903; -0,819; -3,985; -7,656; -4,348; -1,224; -1,162; -0,012; -0,001; 0,042; -0,012; -0,037; 0,134; -0,971; -0,129; -2,985; -5,514; -1,055; -4,964; -4,678; -0,002; -2,106; -2,210; 4,619; 4,752; -1,556; -1,895; 6,154; -5,146; -4,944; -4,779; -8,551; -5,365; -2,875; 0,046; -0,014; -0,009; 0,038; 0,017; -0,035; -0,065; -0,439; -0,343; -1,593; -0,916; -0,963; -0,224; -10,149; -1,469; 0,878; -6,744; -1,461; 5,475; 2,044; 8,480; 10,510; 4,065; 0,029; -0,753; -3,723; -1,848; -0,381; 0,022; 0,051; -0,002; 0,005; 0,006; -0,038; -0,162; 0,147; 0,560; 1,913; 1,005; -1,481; -4,661; -11,621; -9,722; 6,073; -1,219; -7,997; 1,406; 0,827; 8,901; 11,012; 6,573; -0,232; -3,224; -3,345; -1,743; -0,897; -0,074; 0,061; 0,000; 0,001; 0,000; -0,015; -0,110; -0,214; -0,116; 0,130; -0,766; -1,935; -4,054; -7,247; -12,169; -8,776; -6,043; -6,593; -11,639; -7,038; 1,022; 1,445; 6,148; 2,434; -0,005; -1,732; -0,882; -0,899; -0,070; 0,039; 0,006; 0,006; 0,005; 0,006; -0,029; -0,048; -0,094; -0,142; -0,271; -0,223; -0,781; -4,535; -5,697; -13,536; -10,635; -9,675; -16,856; -13,503; -7,575; -4,022; 0,208; 1,833; 0,311; -0,023; -0,024; -0,018; 0,004; 0,000; 0,008; 0,008; 0,008; 0,003; -0,011; -0,030; -0,048; -0,089; -0,137; -0,162; -0,223; -0,688; -1,066; -2,960; -3,943; -3,206; -5,526; -3,666; -1,315; -1,410; -0,558; -0,045; -0,035; -0,013; -0,015; -0,006; -0,013; 0,003; 0,002; 0,001; 0,004; 0,005; 0,009; -0,025; 0,003; 0,000; -0,003; -0,073; -0,120; -0,054; -0,060; -0,397; -0,650; -0,051; -0,076; -0,107; -0,065; -0,039; -0,012; -0,004; 0,006; -0,001; -0,006; 0,005; 0,003; 0,003; 0,009; -3,322; 0,002; 0,009; 0,009; 0,005; 0,010; 0,004; 0,009; 0,004; 0,005; 0,009; 0,001; 0,003; -0,049; -0,107; 0,008; 0,009; 0,008; 0,008; 0,005; 0,005; 0,003; 0,007; 0,009; 0,009; 0,002; 0,004; 0,008; 0,003; 0,006; 0,005; 0,007; 0,002; 0,005; 0,006; 0,013; -0,031; -0,312; -0,061; -0,049; -0,190; -0,076; -0,072; 0,021; 0,076; 0,040; -0,076; -0,068; 0,005; 0,009; 0,007; 0,008; 0,008; 0,005; 0,006; 0,004; 0,008; 0,004; 0,009; 0,009; 0,015; 0,003; 0,008; 0,012; -0,163; -0,998; -1,062; -1,535; -1,669; -0,996; -0,749; 0,653; 1,850; 0,918; 0,058; -0,084; -0,353; -0,234; -0,160; -0,141; -0,000; 0,007; 0,008; 0,002; 0,010; 0,005; 0,010; 0,007; 0,015; -0,104; -0,119; -0,091; -0,803; -2,219; -2,452; -4,611; -6,810; -7,505; -7,958; -2,986; 1,540; 3,139; 1,698; 0,298; 0,405; -0,059; 0,075; 0,160; 0,080; 0,050; 0,007; 0,014; 0,001; 0,006; 0,001; -0,016; 0,080; 0,243; 0,797; 1,896; -0,661; -1,007; -2,939; -5,690; -7,447; -7,097; -0,037; 0,523; 3,300; -0,160; -1,767; -0,524; 6,127; 3,044; -0,246; -0,400; -0,234; -0,261; 0,006; 0,001; 0,003; 0,003; 0,008; -0,001; 0,395; 1,453; 3,877; 1,857; 0,180; -1,870; -6,113; -3,141; -5,869; -7,985; -8,913; -3,872; -2,008; -3,972; -0,457; 1,922; 1,743; 4,846; 0,939; -0,140; 0,169; -0,278; 0,177; 0,102; -0,001; 0,008; -0,009; 0,041; 0,759; 2,624; 4,995; 3,954; -2,858; -2,613; -4,286; -5,421; -4,921; -6,195; -8,985; -1,300; 4,417; 2,741; 2,552; 2,622; 6,087; 5,947; 0,738; -2,461; -0,730; -0,370; 0,117; 0,130; 0,072; 0,003; 0,003; 0,136; 0,534; 1,938; -0,344; -0,469; -1,126; -3,833; -2,772; -1,206; -4,659; -5,435; -8,847; -2,588; 3,114; 6,451; 4,125; 1,459; 4,594; 5,806; -1,984; -5,261; 0,257; -0,192; 0,203; 0,253; 0,032; 0,002; 0,044; 0,968; 1,218; 1,000; -1,689; 1,706; 6,087; -1,286; -2,808; -6,921; -7,627; 3,797; 1,552; -2,775; 1,849; 8,652; 4,013; 6,181; 1,415; 8,385; -0,392; 0,512; -0,857; 0,580; 0,955; 1,025; 0,033; 0,008; 0,062; 1,050; 2,386; 2,090; -3,027; -2,672; -1,143; -7,665; -5,045; -9,260; -1,403; 12,214; 14,845; 4,528; -2,580; 0,247; 5,481; 0,730; -1,972; 5,584; -0,493; 2,387; -0,780; 0,141; 1,094; 0,594; -0,042; 0,027; 0,029; 0,963; 2,393; 0,083; -5,161; -8,345; -8,690; -15,177; -12,192; -7,088; 10,849; 17,708; 22,253; 11,980; 6,414; -2,784; -1,352; -1,392; -1,419; 7,513; 3,143; 3,705; -0,332; 0,812; 1,312; 0,093; -0,110; 0,010; 0,005; -0,044; -0,908; -3,370; -6,332; -6,618; -8,905; -15,971; -13,415; -0,004; 19,906; 22,569; 24,401; 17,131; 8,464; 1,196; 0,945; 0,529; 3,215; 2,478; 0,918; 1,667; -0,040; 1,423; 0,926; 0,233; 0,015; 0,013; -0,102; -0,228; -2,897; -1,888; -4,099; -8,177; -10,292; -16,890; -14,661; 2,915; 18,355; 20,518; 15,581; 14,054; 11,077; 4,106; -2,098; 4,560; 1,517; -1,629; -5,440; -0,591; -0,451; 0,741; 0,789; 0,174; 0,035; 0,025; -0,203; -0,264; -1,679; -2,746; -5,198; -6,890; -7,392; -14,753; -14,079; -3,704; 8,980; 12,281; 4,431; 6,784; 15,836; 6,988; -7,086; 5,248; 2,721; -1,056; -3,532; -2,688; -2,698; 0,113; 0,996; 0,132; -0,012; 0,013; 0,285; 0,063; -0,867; -2,354; -6,104; -5,297; -2,606; -6,679; -4,902; -0,472; 4,729; 6,634; 4,118; 12,538; 17,271; 8,624; 3,863; 1,006; 2,631; 1,949; 4,991; -0,227; -4,598; -0,844; 0,797; -0,505; -0,075; 0,011; 0,871; 0,560; 0,965; -0,742; -6,999; -5,960; -4,171; -5,107; -1,860; -0,584; 4,337; -1,894; 0,514; 9,534; 7,170; 1,649; 8,102; 1,937; 6,086; 7,377; 6,604; 5,474; -0,064; -0,400; -0,445; -0,261; 0,014; 0,004; 0,415; 1,072; 1,269; -0,015; -4,988; -8,371; -1,224; 2,481; 2,591; -2,878; -1,808; -1,104; 3,293; 4,989; 0,201; -1,015; 5,424; 6,171; 4,235; 7,364; 5,256; 3,037; 2,237; -0,512; -0,256; -0,003; 0,009; 0,005; 0,150; 1,347; 2,891; 1,060; -2,502; -3,058; -1,015; 6,285; 2,584; -4,284; -3,629; -2,043; 2,314; 4,461; 9,309; 6,905; 8,967; 3,437; 6,146; 5,574; 7,696; 3,411; 0,236; -2,280; -1,050; 0,007; -0,023; 0,009; 0,000; 1,245; 3,501; 1,586; 0,588; 2,922; 2,007; 2,912; -3,720; -14,385; -10,130; -11,648; -4,167; 0,535; 14,818; 10,793; 6,315; 2,946; 5,681; 4,438; 3,335; 3,460; -1,366; -3,980; -1,068; -0,395; -0,146; 0,004; 0,000; 1,079; 2,955; -0,263; 1,986; 3,902; 5,659; 0,116; -2,468; -5,220; -11,888; -9,844; -1,892; 2,697; 4,162; 1,706; -3,457; -0,021; 0,115; -2,650; -3,217; -0,054; 1,311; -3,580; 0,067; -0,263; -0,120; 0,001; -0,013; 0,223; 0,976; -2,980; -3,559; 6,279; 5,445; 4,217; 0,382; -0,509; -1,962; -3,709; -0,090; 1,918; -1,967; -8,328; -5,013; -7,547; -5,360; -3,359; -4,207; -6,348; -5,633; -1,909; 0,303; -0,001; 0,006; 0,006; -0,005; -0,048; -0,484; -2,761; -4,725; 1,483; 6,216; -1,688; -4,957; -4,633; -7,855; -9,348; -3,215; -3,315; -2,951; -2,015; -5,894; -8,824; -2,296; -1,229; -4,372; -6,939; -5,783; -1,382; -0,076; -0,019; 0,002; 0,006; -0,007; -0,247; -0,569; -0,617; -1,835; -3,522; -0,918; -4,934; -2,203; -2,664; -11,402; -8,191; 0,989; -6,705; 0,207; 2,362; 0,322; -7,501; 0,910; -4,515; -8,371; -7,377; -1,808; 1,082; 0,577; 0,042; 0,002; 0,005; 0,009; 0,008; 0,492; 2,643; 3,736; 3,254; 7,319; 2,875; -4,443; 1,024; -0,992; -3,477; -3,341; -2,803; 0,155; 0,321; -1,549; -3,164; -5,959; -8,196; -12,000; -7,665; -1,212; 1,015; 0,491; 0,007; 0,001; 0,004; 0,004; -0,169; 0,662; 2,753; 5,316; 6,564; 6,629; 2,652; 0,633; 1,696; 2,402; 1,823; 0,071; -2,591; -3,791; -6,528; -4,534; -5,893; -6,104; -6,629; -7,662; -3,245; -0,566; 0,497; -0,065; 0,020; 0,005; 0,005; 0,003; -0,023; -0,180; 1,040; 2,108; 3,929; 2,916; 2,867; 7,309; 6,679; 4,073; 6,245; 1,697; -2,794; -2,785; -1,546; -3,240; 1,809; 0,307; -2,243; -3,049; -0,485; 0,676; 0,563; 0,010; 0,015; 0,000; 0,010; 0,009; 0,001; 0,008; 0,010; 0,030; 0,156; 0,298; 0,666; 1,262; 0,899; 1,036; 1,812; 1,793; 0,625; 1,137; 0,860; -0,332; -0,103; -0,166; -1,045; -1,048; -0,411; 0,072; 0,001; 0,003; 0,007; 0,003; 0,008; 0,000; 0,009; 0,002; 0,011; 0,004; 0,012; 0,051; 0,082; 0,064; 0,063; 0,053; 0,090; 0,067; 0,105; 0,142; 0,072; 0,071; 0,034; 0,072; -0,054; 0,037; -0,644; 0,043; 0,007; 0,005; 0,003; 0,007; 17,080; 0,009; 0,001; 0,002; 0,007; 0,004; 0,003; 0,006; 0,007; 0,004; 0,005; 0,005; 0,004; -0,026; -0,023; 0,004; 0,001; 0,004; 0,000; 0,001; 0,009; 0,003; 0,007; 0,008; 0,002; 0,005; 0,000; 0,007; 0,002; 0,004; 0,007; 0,009; 0,002; -0,045; -0,047; -0,050; -0,067; -0,056; -0,084; -0,111; -0,087; -0,156; -0,121; -0,029; -0,001; -0,040; -0,071; -0,068; -0,072; -0,067; -0,028; -0,034; -0,036; 0,006; 0,008; 0,006; 0,001; 0,001; 0,007; -0,034; 0,021; -0,040; -0,068; -0,072; -0,076; -0,054; -0,671; -1,245; -1,824; -1,634; -1,376; -1,866; -3,102; -2,817; -2,650; -1,128; -0,925; 0,416; 0,813; 0,523; 0,437; -0,103; -0,053; 0,004; 0,006; 0,006; 0,004; -0,036; -0,019; -0,013; -0,003; -0,141; -0,876; -0,815; -0,418; -3,181; -2,204; 1,102; 0,507; -0,092; -5,903; -6,111; -3,892; -9,578; -9,912; -4,118; -4,261; -3,412; 0,536; 0,398; -0,672; -0,023; 0,001; 0,004; 0,018; 0,013; 0,454; 0,591; 0,616; -0,523; 1,608; 2,911; -0,759; 1,106; 7,606; 1,035; 2,609; 0,380; 6,316; -3,674; 6,626; 11,304; 1,827; -6,705; -0,913; 2,735; 4,736; 4,400; 0,935; 0,048; -0,034; 0,008; 0,003; -0,005; 2,803; 3,909; 4,040; 4,167; 7,065; 1,733; 0,320; 9,269; 13,264; 9,207; 0,894; -10,798; -1,378; 2,432; -4,349; 0,027; 1,515; 8,116; 5,644; 5,179; 10,599; 6,966; -0,341; -0,983; -0,016; 0,002; 0,001; 0,060; 2,790; 6,293; 8,522; 5,980; 1,863; 6,720; 7,162; 5,456; 0,970; 0,262; 3,527; 6,263; -1,607; 11,729; 8,697; 10,256; 10,042; 22,467; 13,300; 6,852; 15,678; 16,131; 7,600; 3,766; 0,373; 0,003; 0,030; -0,184; 1,635; 2,990; 3,974; -1,200; -2,560; 2,184; -2,678; 2,339; 13,486; 17,149; 10,828; 8,876; 2,389; 8,178; 9,614; 8,242; 13,465; 21,380; 8,303; 7,410; 8,742; 10,207; 8,596; 3,881; 0,193; 0,010; 0,027; 0,726; 2,776; 5,996; -0,166; -1,078; -3,725; 0,235; -3,108; 1,918; 3,909; -1,049; 1,517; 10,662; 8,024; 1,536; 10,493; 9,226; 4,760; 4,799; -1,684; -2,367; 3,229; 12,039; 9,149; 3,053; 0,079; 0,006; 0,032; 0,495; 3,438; 9,093; -0,608; 10,385; 2,344; 2,147; -4,736; 0,236; -2,997; 1,066; 5,970; 7,965; -0,518; -7,044; -11,881; -11,595; -11,900; -9,697; -6,828; -10,642; -1,593; 6,200; 4,394; 1,094; 0,054; 0,012; 0,026; 0,621; 5,417; 6,216; 1,608; 3,104; -9,166; 1,321; -6,813; -8,078; -3,069; -6,486; -8,320; -11,011; -14,467; -6,461; -14,189; -19,468; -23,501; -12,514; -7,724; -7,394; -1,757; 4,097; 3,507; 0,639; 0,180; 0,027; 0,023; 0,810; 3,829; 0,650; -1,152; -1,333; -10,184; -9,947; -12,771; -7,823; -3,278; -1,570; -5,792; -1,053; 6,498; 1,486; -2,534; -7,280; -12,959; -15,583; -16,086; -6,768; -2,357; 0,700; 1,572; 0,418; 0,173; 0,009; -0,029; 0,035; 1,712; -0,177; -0,090; -0,511; -1,226; -1,532; -7,784; 4,503; 2,920; 4,338; -3,768; -9,819; -7,059; -8,371; -7,876; 0,725; -4,954; -13,354; -12,383; -6,903; -2,901; -2,396; 0,059; 0,034; 0,000; 0,037; -0,064; -0,084; 0,061; 2,845; 9,650; 4,973; 9,608; 8,411; 8,721; -0,955; 0,971; 3,432; -0,190; -7,354; -6,848; -2,602; 2,838; 3,810; -8,312; -7,520; -6,102; 0,183; 0,885; 1,510; 0,054; -0,096; -0,577; 0,021; 0,099; 0,012; 0,101; 4,304; 7,080; 1,236; 3,068; 4,920; 5,848; 2,962; -3,877; -7,669; -6,026; -3,986; 3,796; -14,023; -0,144; 1,843; -6,089; -2,985; -2,803; -1,150; 3,630; 5,602; 0,133; -2,053; -0,440; 0,021; 0,234; 0,407; 1,982; 4,124; 4,199; -9,019; -10,083; -1,866; 4,113; -3,477; 0,103; -1,931; -2,701; -1,348; -9,501; -28,504; -14,041; 1,683; 4,251; 6,736; 3,361; -3,157; 6,189; 5,682; -2,736; -1,785; -0,023; 0,002; 0,122; 1,042; 4,089; 4,172; 1,506; -15,079; -29,589; -27,855; -20,381; -8,365; 2,786; 10,312; 1,212; 2,334; -15,729; -17,468; -5,892; 12,012; 9,278; 5,039; 3,425; 0,921; 5,511; 4,775; -3,790; -0,811; -0,021; 0,000; 0,078; 1,172; 5,891; 10,536; 3,634; -7,821; -28,233; -43,988; -51,184; -41,417; -31,320; -27,294; -23,456; -21,938; -14,849; -6,859; 11,723; 18,214; 12,115; 7,963; 1,425; -1,415; 2,724; 0,078; -3,631; -1,397; -0,305; 0,030; 0,024; 1,517; 6,606; 13,581; 7,865; -2,695; -11,199; -21,415; -47,298; -60,264; -62,219; -60,179; -52,087; -38,808; -2,003; 13,182; 10,123; 15,352; 8,477; 9,003; 4,268; 6,343; -4,589; -2,562; -4,326; -1,798; -0,121; 0,038; 0,039; 2,198; 5,720; 11,144; 6,724; 3,942; -3,736; 1,540; -7,754; -10,925; -27,825; -31,540; -32,067; -19,844; 13,413; 12,989; -2,472; 7,761; 3,685; 7,294; 4,398; 3,003; -3,843; -1,338; -2,275; -0,531; -0,006; 0,005; 0,050; 1,351; 6,321; 7,277; 6,959; 3,334; -3,161; -3,087; 1,751; 4,169; -0,851; 6,355; 2,383; 2,017; 14,582; 8,816; 11,660; 7,451; 1,772; 6,551; 5,088; 4,585; -2,931; -1,452; -0,808; -0,117; -0,005; 0,026; 0,045; 0,743; 3,077; 7,822; 4,736; -0,431; -1,528; -0,465; -3,850; 1,566; 4,944; 12,819; 7,787; 5,324; 1,734; 4,231; 0,703; 12,259; 6,999; 4,058; -2,259; -6,500; -4,514; -4,403; -1,893; -0,026; 0,027; 0,033; -0,003; 0,294; 1,153; 7,450; 7,059; 2,726; -2,086; 2,412; 5,748; 12,147; 7,381; 5,299; 7,902; 4,357; 4,249; 7,522; 7,197; 4,840; 6,464; -1,336; -9,740; -4,267; -5,980; -5,357; -1,862; 0,019; 0,031; 0,006; 0,006; 0,183; 3,140; 8,400; 11,194; 10,647; 7,429; 5,295; 8,196; 4,929; 4,210; 9,470; 6,274; 0,539; 4,212; 4,080; 6,475; -0,678; 0,715; -4,600; -6,325; -3,154; -3,747; -2,506; -0,943; 0,091; 0,006; 0,003; 0,004; 0,025; 1,981; 5,083; 9,114; 12,352; 13,951; 11,430; 7,975; 1,989; 2,787; 1,955; 13,537; 12,434; -3,319; -6,440; 1,222; -1,621; -0,383; 2,603; -0,061; -1,059; -0,551; -0,521; -0,418; -0,016; 0,006; 0,007; 0,006; -0,017; 0,042; 1,223; 1,504; 2,030; 4,853; 10,064; 12,404; 12,688; 16,720; 15,905; 7,265; -2,287; -4,154; 3,516; 3,240; 3,941; 4,800; -0,265; 0,306; 1,047; 0,065; 0,079; -0,016; -0,020; 0,001; 0,001; 0,006; 0,001; 0,016; 0,108; 0,120; 0,064; -0,047; -0,193; 0,103; 0,182; -0,469; 0,321; -0,824; -2,562; 2,031; -0,788; -1,937; -0,731; 0,922; 1,663; 1,517; 0,293; 0,028; 0,000; -0,003; 0,004; 0,004; 0,004; 0,007; 0,003; 0,004; -0,005; 0,002; 0,009; 0,005; -0,013; -0,041; -0,147; -0,043; -0,699; -0,411; -0,147; -0,037; -0,053; -0,007; -0,008; 0,004; 0,033; 0,010; 0,024; 0,030; 0,010; 0,004; 0,003; 0,005; 11,505; 0,005; 0,008; 0,003; 0,003; 0,009; 0,004; 0,007; 0,002; 0,009; 0,007; 0,010; 0,005; -0,272; -0,559; -0,023; -0,015; 0,007; 0,003; 0,008; 0,004; 0,004; 0,004; 0,002; 0,006; 0,005; 0,003; 0,005; 0,006; 0,006; 0,007; 0,001; 0,003; -0,050; -0,051; -0,065; -0,116; -0,132; -0,604; -2,912; -2,717; -0,697; -0,583; -0,128; -0,152; -1,358; -1,457; -2,135; -2,638; -1,987; -2,049; -0,580; -0,601; 0,005; 0,001; 0,006; 0,006; 0,007; 0,002; -0,031; -0,091; -0,116; -0,076; -0,133; -0,358; -0,510; -2,820; -8,948; -6,620; -6,985; -5,715; -4,409; -3,369; -3,997; -3,982; -6,447; -4,832; -3,352; -2,597; -0,918; -1,388; -0,462; -0,208; 0,002; 0,007; 0,001; 0,006; -0,026; -0,318; -0,155; -0,397; -3,282; -5,194; -7,349; -10,221; -17,467; -15,812; -16,239; -22,108; -27,587; -23,733; -15,548; -6,529; -6,478; -7,704; -8,335; -3,042; -0,653; -2,976; -2,575; -0,558; -0,066; 0,001; 0,002; -0,012; -0,004; -0,127; -0,087; -1,144; -3,672; -5,725; -7,236; -12,975; -15,203; -2,685; -4,796; -3,946; 0,140; -5,577; 3,646; 2,578; -5,872; 2,060; -0,459; -2,322; -7,109; -3,271; -0,992; -0,194; -0,016; -0,028; 0,005; 0,000; -0,015; -0,111; -0,704; -2,709; -5,741; -8,533; -9,551; -3,953; -11,776; -1,034; 2,401; 2,558; 4,037; 3,876; 2,104; -10,850; -13,647; -7,391; -6,209; 4,202; 4,488; 2,541; -0,538; 0,817; -0,033; 0,079; 0,006; -0,044; -0,049; -0,152; -1,375; -3,857; -6,323; -6,373; 1,373; 0,373; -0,611; 2,233; 1,172; -1,135; -5,352; 1,675; 3,152; 2,806; 5,829; 9,376; 3,266; 8,914; 12,314; 11,323; 2,354; 1,322; 0,481; 1,067; 0,006; -0,061; -0,389; -0,338; -2,460; -1,564; -1,947; 7,520; 17,865; 13,517; 15,188; -0,288; -0,489; 4,896; -4,142; 2,816; 12,823; 8,765; 9,670; 5,991; 7,429; 4,214; 7,857; 15,008; 7,615; 4,523; 1,740; 0,550; 0,007; 0,002; 1,010; 1,258; -0,717; 0,416; 5,479; 15,322; 16,654; 19,841; 10,966; 4,600; 1,073; 5,748; -2,451; -5,892; -4,392; -1,280; 9,552; 8,706; 10,054; 10,132; 10,025; 15,258; 14,612; 8,348; 1,684; 0,533; 0,017; 0,020; 0,597; 3,455; 4,221; 4,432; 10,991; 14,307; 9,206; 18,917; 5,313; 4,225; 2,463; 1,625; -4,952; -9,596; -3,940; 6,436; 3,458; 12,347; 1,807; 10,382; 11,658; 19,117; 16,663; 10,667; 2,095; 0,074; 0,002; 0,036; -0,041; 2,356; 6,528; 8,209; 10,521; 10,942; 8,842; 20,774; 13,855; 12,705; 11,858; 6,531; -2,501; 0,343; 11,773; 8,861; 7,116; 14,185; -0,328; 8,437; 6,669; 14,047; 11,452; 8,138; 2,881; 0,093; 0,024; 0,027; 0,185; 1,275; 6,662; 8,483; 4,451; 8,921; 4,260; 5,692; 8,340; 3,736; 0,136; 6,168; 10,639; 8,890; 11,040; 7,409; 4,250; -0,337; -1,112; 0,731; 10,403; 5,515; 5,806; 5,707; 2,904; 0,061; -0,012; 0,125; 0,583; 3,091; 9,218; 7,403; 1,233; 2,160; 0,426; 1,203; 1,962; -5,841; -7,703; 7,282; 14,455; 7,525; 6,986; 5,906; 6,369; 8,525; 3,621; 1,444; 1,441; -3,502; -4,252; 3,926; 2,350; 0,083; 0,039; 0,220; 0,250; 3,824; 8,512; 0,853; -3,098; -1,318; 4,678; -3,947; -4,837; -3,978; 1,811; 10,439; 8,437; 12,545; 10,878; 6,781; 11,928; 10,858; 10,879; -1,254; -3,999; -13,876; -12,649; -0,017; 1,265; 0,599; 0,105; 0,133; 0,251; 1,854; 5,675; -1,165; -0,270; -3,408; -2,395; -2,088; -8,829; -7,754; 9,796; 13,247; 7,639; 13,497; 11,335; 15,147; 1,191; 6,247; -4,362; -5,844; -11,568; -16,382; -5,764; 2,851; 0,476; -0,018; 0,055; 0,024; 0,043; 1,905; 2,357; -2,207; 2,358; -2,777; 2,800; -4,810; -8,856; 3,858; 10,376; 10,629; 13,553; 6,288; 13,488; -1,902; -8,180; -6,962; -14,558; -6,265; -4,077; -10,725; -3,564; 4,614; 0,988; 0,002; 0,019; -0,081; -0,378; 0,836; 1,574; -3,100; 3,088; 8,724; 6,581; -4,057; -6,991; -1,427; 12,073; 8,347; 13,044; 13,043; 16,565; 3,938; -2,747; -8,374; -5,777; -2,618; -5,638; -2,744; -2,425; -1,638; 0,197; 0,077; 0,005; 0,008; -0,327; -1,305; -3,717; -5,555; 2,097; 5,906; -1,885; 5,899; 0,976; -3,393; 13,636; 15,421; 13,828; 13,869; 11,204; 3,683; 4,369; -3,411; -0,948; -3,177; -8,441; -5,087; -5,361; -5,571; -0,529; -0,052; 0,028; -0,015; -0,050; -3,958; -8,005; -7,000; -0,075; -2,856; 2,030; 6,771; 4,837; 5,506; 1,076; 1,467; -1,259; -11,392; -19,779; -9,183; -9,867; -11,492; -4,956; -10,089; -6,564; -6,341; -7,672; -4,787; -0,242; -0,011; 0,040; -0,067; -0,633; -5,380; -10,328; -13,246; -3,509; -9,079; -7,688; -12,093; -8,695; -18,407; -27,445; -17,287; -23,592; -24,045; -18,566; -15,961; -14,027; -18,632; -10,726; -14,756; -9,185; -9,900; -4,569; -1,200; -0,157; 0,017; 0,002; -0,112; -0,777; -5,211; -11,089; -20,495; -11,721; -13,409; -13,412; -18,376; -16,963; -22,736; -34,000; -32,022; -28,276; -13,086; -13,232; -15,012; -13,914; -14,749; -10,151; -9,605; -8,631; -7,036; -1,965; -0,615; -0,193; -0,022; 0,035; -0,057; -0,807; -3,756; -9,590; -16,126; -11,860; -14,181; -10,871; -7,760; -10,179; -7,745; -18,336; -15,332; -12,442; -11,254; -3,815; -6,207; -2,734; -3,916; -3,738; -6,807; -3,208; -2,014; 0,290; -0,481; -0,761; 0,017; 0,031; -0,036; -0,547; -2,916; -4,915; -7,379; -3,462; -4,290; -3,858; -7,345; -2,873; -3,860; -2,328; -4,051; -5,852; -4,431; -3,100; -0,084; 4,016; 0,337; 2,605; 1,108; 1,867; -0,679; 1,527; -0,167; -0,201; 0,011; 0,005; 0,000; -0,354; -1,766; -2,877; -3,488; -1,202; -0,554; -2,731; -4,772; -3,096; -3,607; 4,276; 9,343; 8,373; -1,813; -1,658; 8,989; 10,776; 5,322; 4,792; 2,470; 1,361; 0,630; -0,136; -0,040; 0,039; 0,004; 0,009; 0,003; -0,430; -0,627; -0,255; -0,136; -1,539; -1,043; 0,280; -5,229; -3,206; -1,109; -0,057; -0,434; -1,049; -3,180; -0,291; 2,483; 8,104; 6,745; 8,044; 5,179; 1,457; 0,148; -0,255; -0,120; -0,017; 0,006; 0,001; 0,007; -0,109; -0,066; 0,347; 2,185; 4,324; 7,234; 8,421; 8,355; 8,594; 7,365; 11,840; 8,080; 4,378; 4,549; 5,334; 6,694; 7,116; 5,344; 3,306; 2,490; 1,194; 0,380; 0,085; -0,006; -0,025; 0,004; 0,004; 0,002; 0,007; 0,023; 0,058; 0,124; 0,241; 0,909; 2,435; 3,282; 2,594; 2,422; 1,971; 1,223; 1,406; 1,782; 1,061; 0,571; 1,133; 1,165; 0,833; 0,701; 0,101; 0,044; 0,009; -0,002; 0,006; 0,002; 0,006; 0,006; 0,002; 0,008; -0,008; 0,026; 0,031; 0,220; 0,489; 0,265; 0,202; 0,178; 0,086; 0,157; 0,191; 0,190; 0,163; 0,083; 0,065; 0,047; 0,058; 0,037; 0,047; 0,048; 0,007; 0,001; 0,004; 0,009; 0,701; 0,004; 0,001; 0,005; 0,003; 0,008; 0,001; 0,009; 0,008; 0,005; 0,006; 0,001; 0,010; 0,002; 0,007; 0,002; 0,003; 0,002; 0,003; 0,006; 0,001; 0,009; 0,001; 0,006; 0,009; 0,010; 0,005; 0,005; 0,000; 0,007; 0,005; 0,005; 0,000; -0,003; 0,002; 0,008; 0,011; 0,009; 0,005; 0,006; 0,009; 0,007; 0,005; 0,006; 0,010; 0,012; 0,010; 0,002; 0,003; 0,005; 0,003; 0,002; 0,009; 0,000; 0,010; 0,004; 0,009; 0,002; 0,005; 0,002; 0,006; 0,003; 0,005; 0,001; 0,013; 0,020; 0,012; 0,009; 0,011; 0,007; 0,014; 0,010; 0,021; 0,017; 0,013; 0,020; 0,013; 0,011; 0,008; 0,015; 0,006; 0,001; 0,001; 0,008; 0,006; 0,004; 0,005; 0,004; 0,000; 0,022; 0,007; 0,004; 0,000; 0,010; 0,005; 0,009; 0,010; 0,006; 0,018; 0,024; 0,028; 0,027; 0,039; 0,026; 0,023; 0,024; 0,013; 0,008; 0,014; 0,013; 0,013; 0,010; 0,008; 0,002; -0,000; -0,008; 0,003; 0,013; 0,006; 0,000; 0,002; 0,018; 0,028; 0,034; 0,046; 0,050; 0,065; 0,063; 0,065; 0,077; 0,070; 0,072; 0,071; 0,075; 0,059; 0,045; 0,040; 0,017; 0,006; 0,008; 0,008; 0,010; 0,006; 0,008; 0,011; 0,009; 0,012; -0,007; 0,016; 0,038; 0,045; 0,033; 0,033; 0,069; 0,111; 0,103; 0,098; 0,109; 0,106; 0,093; 0,094; 0,092; 0,063; 0,053; 0,060; 0,049; 0,017; 0,006; 0,012; 0,009; 0,004; 0,005; 0,005; 0,007; 0,007; -0,005; 0,042; 0,052; 0,072; 0,093; 0,110; 0,146; 0,187; 0,212; 0,217; 0,179; 0,154; 0,132; 0,130; 0,120; 0,113; 0,116; 0,083; 0,051; 0,021; 0,013; 0,004; 0,009; 0,008; 0,011; 0,006; 0,022; 0,027; 0,019; 0,055; 0,053; 0,109; 0,163; 0,185; 0,201; 0,255; 0,267; 0,235; 0,189; 0,157; 0,137; 0,120; 0,089; 0,094; 0,108; 0,099; 0,032; 0,026; 0,008; 0,005; 0,008; 0,008; 0,011; 0,014; 0,028; 0,029; 0,039; 0,067; 0,089; 0,131; 0,190; 0,197; 0,192; 0,265; 0,297; 0,266; 0,213; 0,185; 0,165; 0,112; 0,102; 0,088; 0,086; 0,048; 0,018; 0,020; 0,013; 0,012; 0,003; 0,013; 0,017; 0,026; 0,035; 0,036; 0,056; 0,082; 0,092; 0,130; 0,198; 0,249; 0,215; 0,273; 0,320; 0,304; 0,222; 0,162; 0,154; 0,116; 0,109; 0,091; 0,042; 0,009; 0,010; 0,022; 0,018; 0,010; 0,010; 0,012; 0,011; 0,017; 0,028; 0,046; 0,074; 0,107; 0,122; 0,137; 0,170; 0,219; 0,222; 0,287; 0,343; 0,305; 0,260; 0,217; 0,167; 0,131; 0,121; 0,098; 0,077; 0,068; 0,053; 0,076; 0,041; 0,003; 0,010; 0,009; 0,005; 0,016; 0,036; 0,054; 0,103; 0,155; 0,167; 0,174; 0,225; 0,233; 0,272; 0,341; 0,361; 0,376; 0,305; 0,312; 0,255; 0,237; 0,229; 0,206; 0,177; 0,146; 0,089; 0,081; 0,037; 0,004; 0,001; 0,009; 0,006; 0,018; 0,087; 0,100; 0,154; 0,175; 0,166; 0,162; 0,160; 0,175; 0,205; 0,262; 0,343; 0,365; 0,274; 0,303; 0,257; 0,200; 0,166; 0,143; 0,108; 0,090; 0,030; 0,034; 0,010; 0,007; 0,017; 0,005; 0,006; 0,018; 0,114; 0,118; 0,115; 0,112; 0,102; 0,094; 0,168; 0,223; 0,219; 0,283; 0,353; 0,312; 0,162; 0,180; 0,146; 0,099; 0,089; 0,076; 0,095; 0,084; 0,051; 0,027; 0,021; 0,014; 0,016; 0,005; 0,006; 0,012; 0,065; 0,094; 0,136; 0,107; 0,156; 0,170; 0,200; 0,187; 0,154; 0,248; 0,329; 0,242; 0,116; 0,102; 0,113; 0,087; 0,096; 0,090; 0,123; 0,102; 0,037; 0,030; 0,019; -0,001; 0,014; 0,003; 0,011; 0,021; 0,031; 0,055; 0,136; 0,208; 0,191; 0,180; 0,181; 0,166; 0,185; 0,312; 0,416; 0,287; 0,136; 0,143; 0,143; 0,139; 0,141; 0,156; 0,149; 0,087; 0,047; 0,041; 0,007; 0,008; 0,007; 0,005; 0,004; 0,011; 0,023; 0,037; 0,080; 0,205; 0,243; 0,261; 0,201; 0,232; 0,271; 0,418; 0,429; 0,269; 0,164; 0,210; 0,169; 0,130; 0,125; 0,164; 0,164; 0,082; 0,067; 0,058; 0,054; -0,001; 0,006; 0,007; 0,005; 0,013; 0,019; 0,035; 0,042; 0,081; 0,136; 0,205; 0,252; 0,265; 0,324; 0,356; 0,292; 0,240; 0,119; 0,161; 0,135; 0,090; 0,107; 0,140; 0,090; 0,044; 0,047; 0,024; 0,016; 0,009; 0,006; 0,005; 0,009; 0,006; 0,016; 0,029; 0,030; 0,043; 0,045; 0,118; 0,232; 0,259; 0,293; 0,265; 0,232; 0,202; 0,123; 0,128; 0,102; 0,078; 0,109; 0,084; 0,057; 0,041; 0,027; 0,008; 0,010; 0,012; 0,009; 0,008; 0,009; 0,012; 0,023; 0,020; 0,048; 0,030; 0,077; 0,157; 0,220; 0,195; 0,206; 0,189; 0,154; 0,165; 0,155; 0,145; 0,134; 0,118; 0,088; 0,055; 0,044; 0,042; 0,025; 0,009; 0,004; 0,012; 0,003; -0,001; 0,005; 0,014; 0,017; 0,032; 0,116; 0,138; 0,170; 0,234; 0,197; 0,169; 0,168; 0,177; 0,174; 0,183; 0,198; 0,175; 0,131; 0,094; 0,053; 0,025; 0,022; 0,024; 0,031; 0,020; 0,005; 0,011; 0,007; 0,008; 0,012; 0,005; 0,018; 0,047; 0,106; 0,146; 0,180; 0,162; 0,142; 0,138; 0,150; 0,161; 0,157; 0,198; 0,209; 0,161; 0,103; 0,073; 0,037; 0,024; 0,016; 0,017; 0,010; 0,009; 0,006; 0,002; 0,011; 0,008; 0,010; 0,006; 0,014; 0,052; 0,070; 0,134; 0,150; 0,129; 0,090; 0,072; 0,117; 0,147; 0,175; 0,206; 0,161; 0,129; 0,082; 0,050; 0,044; 0,029; 0,025; 0,023; 0,014; 0,011; 0,009; 0,002; 0,004; 0,005; -0,000; 0,009; 0,018; 0,049; 0,109; 0,101; 0,086; 0,089; 0,092; 0,076; 0,121; 0,154; 0,185; 0,170; 0,154; 0,105; 0,051; 0,055; 0,040; 0,029; 0,030; 0,019; 0,016; 0,018; 0,004; 0,007; 0,003; 0,005; 0,010; 0,013; 0,031; 0,082; 0,063; 0,043; 0,058; 0,066; 0,069; 0,076; 0,108; 0,130; 0,099; 0,091; 0,090; 0,063; 0,066; 0,052; 0,033; 0,036; 0,028; 0,014; 0,015; 0,017; 0,007; 0,009; 0,001; 0,005; -0,011; 0,008; 0,066; 0,030; 0,022; 0,023; 0,043; 0,034; 0,037; 0,052; 0,056; 0,073; 0,074; 0,070; 0,066; 0,055; 0,049; 0,034; 0,023; 0,031; 0,029; 0,013; 0,010; 0,006; 0,005; 0,001; 0,005; 0,006; 0,000; 0,005; 0,011; 0,006; 0,014; 0,014; 0,014; 0,021; 0,017; 0,025; 0,036; 0,024; 0,035; 0,036; 0,044; 0,042; 0,036; 0,024; 0,021; 0,023; 0,015; 0,003; 0,018; -0,004; 0,003; 0,009; 0,002; 0,000; 0,003; 0,002; 0,003; 0,007; 0,005; 0,003; 0,005; 0,010; 0,011; 0,012; 0,017; 0,015; 0,015; 0,020; 0,018; 0,011; 0,006; 0,007; 0,010; 0,016; 0,014; 0,017; 0,003; 0,005; 0,008; 0,007; 27,573; 0,001; 0,001; 0,002; 0,010; 0,007; 0,006; 0,002; 0,005; 0,002; 0,005; 0,003; 0,006; -0,005; -0,007; 0,006; 0,002; 0,000; 0,001; 0,009; 0,009; 0,008; 0,003; 0,010; 0,006; 0,001; 0,002; 0,003; 0,008; 0,005; 0,008; 0,003; 0,007; -0,016; -0,023; -0,025; -0,031; -0,018; -0,038; -0,030; -0,612; -1,239; -0,509; 0,021; 0,336; 0,793; 0,428; 0,093; -0,004; 0,000; 0,003; 0,002; -0,008; 0,002; 0,007; 0,007; 0,008; 0,009; 0,009; -0,010; -0,086; -0,048; -0,032; 0,346; 0,276; 0,293; 1,013; 1,314; 2,909; 2,839; 1,614; 2,091; 4,680; 5,142; 5,180; 3,332; 2,463; 2,264; 0,424; -0,015; 0,005; -0,000; -0,021; 0,008; 0,001; 0,002; 0,002; -0,012; -0,235; -0,037; 0,254; 0,754; 1,382; 2,017; 2,862; 2,300; 3,947; 5,072; 2,177; 1,803; 0,765; -1,645; 3,006; 7,398; 4,385; 4,194; 3,873; 2,254; 0,381; 0,034; -0,028; -0,001; 0,003; 0,010; 0,007; -0,009; 0,007; 0,018; 0,512; 1,082; 2,485; 3,054; 3,888; 5,057; 1,866; 4,097; 0,151; 4,165; 0,313; 0,422; 2,528; 3,340; 3,901; 4,301; 5,620; 4,768; 1,836; 0,882; -0,049; -0,007; -0,008; 0,008; 0,001; 0,008; 0,003; 0,388; 1,472; 1,565; 5,172; 4,428; 3,921; 1,021; -0,536; -0,030; -1,837; -2,547; -4,595; 0,556; 1,186; -3,101; -2,315; 0,048; 5,079; 3,876; 2,275; 1,792; 0,161; 0,132; 0,004; 0,003; 0,003; 0,036; 0,132; 0,893; 1,204; 1,453; 0,646; 0,288; 4,868; -2,674; 0,244; -1,921; 0,415; -1,132; 4,892; 1,369; -2,393; -6,182; -6,121; -4,824; -1,581; -3,288; 0,596; 2,147; 0,558; 0,327; -0,132; 0,008; 0,006; 0,435; 0,120; 2,102; 1,603; 2,110; -0,194; -0,746; -1,047; -0,560; -1,644; -0,312; -3,009; -2,807; 2,798; 2,809; -2,093; -5,765; -3,725; 0,984; -1,433; -1,916; -1,231; 2,055; 0,880; 0,521; -0,285; 0,007; 0,005; 0,295; 0,899; 3,686; 3,300; 1,314; 0,109; -0,718; 0,833; -0,910; 0,925; -1,092; -2,596; -2,522; -5,532; -8,794; -3,751; -4,336; -3,656; 0,336; -1,286; -0,686; -2,107; 3,293; 1,811; 0,439; 0,011; 0,005; -0,000; 0,043; 2,280; 5,480; 2,791; -2,084; -4,549; -3,050; -1,767; -0,895; 4,647; 4,430; 1,215; 4,858; 3,288; -4,764; -6,177; -6,009; -7,257; 1,454; 2,112; 0,380; -5,425; 1,261; 3,236; 0,378; 0,008; -0,014; 0,013; 0,043; 2,951; 2,175; 0,542; -1,841; -4,560; -2,374; 0,232; 2,478; -3,912; -0,028; 5,749; 6,179; 3,420; -3,204; -5,620; -8,095; -6,295; -3,802; 0,156; -1,686; -3,332; 2,782; 3,050; 0,183; -0,000; -0,001; 0,011; 0,011; 2,154; 1,244; 0,915; -6,251; -3,241; -3,631; -2,199; -6,397; -4,934; 5,987; 10,459; 9,743; 6,741; 6,395; 1,273; -2,012; -1,861; -2,076; -0,259; -0,515; -0,051; 4,410; 2,201; 0,278; -0,028; -0,022; -0,000; 0,000; 1,718; 4,642; 2,490; -8,883; -2,921; -6,363; -5,604; -14,982; -9,595; 3,127; 9,078; 11,780; 12,851; 13,301; 7,396; -0,745; -0,112; 1,516; -0,375; -2,392; 3,166; 3,212; 1,041; 0,299; -0,003; 0,015; -0,010; -0,014; 1,363; 5,379; -2,034; -7,783; -6,511; -10,416; -12,168; -10,489; 5,862; 12,397; 13,897; 13,661; 14,857; 14,501; 7,279; -1,490; 0,552; 6,095; -1,857; -5,325; -0,652; 4,217; 0,675; 0,016; 0,018; 0,019; 0,003; 0,001; 1,352; 0,912; -8,023; -5,372; -6,665; -8,585; -3,005; -0,181; 13,149; 15,213; 10,937; 9,985; 10,634; 14,114; 9,305; 4,468; 2,375; 0,705; -3,884; -1,924; -7,235; -0,191; 0,688; 0,077; 0,010; 0,020; 0,000; -0,004; 2,394; -1,457; -11,363; -4,249; -1,018; -3,050; -3,922; -3,174; 10,828; 12,035; 11,326; 12,217; 14,419; 14,710; 11,152; 3,581; 1,626; -1,957; 0,224; -1,440; -8,460; 1,120; 1,046; 0,041; 0,002; -0,002; -0,003; -0,002; 1,858; -2,140; -9,868; -8,729; 1,204; 2,556; -0,171; -1,595; 5,681; 8,609; 12,963; 13,298; 13,119; 17,514; 12,344; -0,276; -0,339; -0,040; 2,582; -2,310; 0,567; 0,360; 1,282; 0,272; -0,003; 0,008; 0,010; 0,004; 0,780; -3,804; -6,307; -11,621; -4,422; 3,954; -2,260; -1,458; -0,117; 5,885; 11,603; 15,337; 17,640; 11,070; 5,674; 0,352; 2,073; 4,777; -0,421; -2,516; -2,748; -1,556; 0,654; 0,277; 0,190; 0,003; 0,005; -0,022; 3,166; -0,021; 1,228; -5,846; -5,556; -1,234; -5,762; -3,497; -2,579; 3,245; 6,858; 7,283; 8,557; 7,595; 5,340; 0,007; 5,651; 4,340; 0,692; -2,074; -3,289; -2,440; 1,605; 0,594; 0,411; 0,026; -0,004; -0,114; 3,719; 2,618; 0,156; -1,509; -0,105; -0,680; -1,118; -4,016; 3,443; -0,749; 2,559; 6,041; 7,431; 7,735; 6,056; 1,840; 11,660; 2,168; -0,724; -4,409; -1,303; -2,248; 0,360; 0,106; 0,008; 0,008; -0,011; 0,055; 3,051; 3,082; 1,984; 0,478; 0,169; 1,384; -2,108; -7,324; -1,326; 0,524; 3,042; 11,004; 9,595; 7,003; 2,782; 2,972; 8,640; 7,343; 0,127; -1,720; -3,131; -1,033; 0,077; 0,159; 0,009; 0,013; -0,004; 0,164; 1,470; 1,672; 3,981; 1,115; 1,536; 4,239; -1,551; -6,226; -4,788; 2,957; 4,917; 2,947; 3,803; 3,924; 3,241; 2,780; 6,051; 3,044; -0,749; -1,907; -1,548; -0,440; -0,212; -0,043; 0,006; 0,009; 0,002; 0,054; 0,373; 1,980; 1,640; 1,564; 2,619; 1,066; -0,078; 1,518; -0,395; -1,706; -9,799; -5,842; 3,383; -2,968; -4,964; 0,238; 2,498; 2,171; -0,462; -0,098; -0,442; -0,585; -0,480; -0,060; 0,004; 0,003; 0,007; -0,003; 0,042; 2,294; 1,507; 1,018; 1,066; 0,915; 0,694; 0,504; 0,215; -2,276; -4,416; -2,803; -0,429; -4,769; -3,196; 3,997; 3,958; 6,748; 3,628; 2,086; -0,316; -1,083; -0,335; 0,009; 0,005; 0,005; 0,007; 0,159; 0,234; 1,442; 1,218; 0,909; 0,178; -0,775; -1,173; -1,076; 4,674; 0,169; -2,409; -2,580; -0,936; -0,981; 1,485; 2,427; 4,829; 7,855; 5,674; 2,490; -0,186; -0,268; 0,014; 0,011; 0,009; 0,000; 0,006; -0,017; 0,002; 0,040; 0,301; 0,544; 1,214; 2,420; 5,639; 6,804; 6,177; 7,237; 6,369; 6,294; 6,653; 5,846; 4,935; 4,906; 3,904; 5,544; 3,516; 1,329; -0,373; -0,149; 0,002; 0,004; 0,008; 0,010; 0,002; 0,007; 0,007; 0,010; 0,326; 0,651; 0,923; 2,443; 4,616; 2,887; 2,589; 1,913; 1,530; 1,854; 2,359; 3,786; 3,500; 2,645; 0,298; 1,361; 1,673; 0,138; 0,019; 0,003; -0,009; 0,002; 0,003; 0,009; 0,004; 0,001; 0,008; -0,011; 0,007; 0,001; 0,107; 0,247; 0,099; 0,009; 0,013; 0,223; 0,636; 0,633; 0,209; 0,055; 0,013; 0,006; -0,065; -0,216; -0,058; 0,006; 0,010; 0,001; 0,003; 0,001; 0,007; -22,615; 0,009; 0,003; 0,009; 0,001; 0,010; 0,008; 0,002; 0,002; 0,002; 0,004; 0,010; 0,008; -0,032; 0,038; 0,074; 0,057; 0,009; 0,002; 0,008; 0,003; 0,008; 0,001; 0,003; 0,003; 0,009; 0,009; 0,003; 0,003; 0,003; 0,007; 0,009; 0,008; -0,041; -0,044; -0,052; -0,072; -0,045; -0,065; -0,100; -0,108; -0,160; -0,094; -0,003; -0,077; -0,207; -0,058; -0,086; -0,107; -0,133; -0,093; -0,044; -0,022; 0,003; 0,004; 0,004; 0,001; 0,006; 0,002; -0,018; -0,005; -0,060; -0,052; -0,071; -0,094; -0,103; -0,729; -0,948; -0,669; -0,943; -1,081; -1,272; -0,326; -0,663; -1,548; -1,501; -1,102; -1,598; -1,527; -0,505; -0,212; -0,109; -0,041; 0,001; 0,004; 0,000; 0,001; -0,019; -0,027; -0,018; 0,193; 0,007; 0,083; 0,013; -0,987; -1,685; -0,700; 0,986; -1,357; -4,124; -1,939; -1,547; -4,133; -2,662; -2,879; -4,609; -5,365; -2,459; -0,731; -0,107; -0,080; 0,026; 0,002; 0,008; 0,015; 0,038; 0,037; 0,062; 0,359; -1,031; -1,707; -0,535; 1,222; 1,958; 3,391; 6,211; 5,276; 7,166; 18,042; 10,103; 3,930; 1,156; -1,910; -6,734; -4,541; -5,493; -3,335; -0,899; 0,181; -0,110; 0,064; 0,001; 0,005; 0,047; 0,217; 0,544; 0,503; -2,668; -0,873; -1,249; 2,229; 6,635; 10,117; 7,930; 9,435; 19,249; 13,127; 11,937; 15,205; 14,405; 11,195; -2,385; 3,384; -1,070; -7,218; -6,567; -1,571; 1,266; 0,087; 0,009; 0,045; 1,245; 2,290; 2,308; -1,071; -1,310; -1,078; -1,407; 1,739; 1,838; 0,166; 1,835; 19,775; 8,337; -2,594; 2,108; 4,434; 6,084; 10,645; 6,353; 6,491; -1,208; -6,174; -0,792; 2,241; -1,330; 0,477; -0,008; 0,474; 0,526; -0,422; -3,086; -0,